{"learner":{"attributes":{},"feature_names":["AGE","EXT_SOURCE_1","UPI_VELOCITY","BILL_PAY_CONSISTENCY","APP_USAGE_DAYS"],"feature_types":["float","float","float","float","float"],"gradient_booster":{"model":{"gbtree_model_param":{"num_parallel_tree":"1","num_trees":"100"},"iteration_indptr":[0,1,2,3,4,5,6,7,8,9,10,11,12,13,14,15,16,17,18,19,20,21,22,23,24,25,26,27,28,29,30,31,32,33,34,35,36,37,38,39,40,41,42,43,44,45,46,47,48,49,50,51,52,53,54,55,56,57,58,59,60,61,62,63,64,65,66,67,68,69,70,71,72,73,74,75,76,77,78,79,80,81,82,83,84,85,86,87,88,89,90,91,92,93,94,95,96,97,98,99,100],"tree_info":[0,0,0,0,0,0,0,0,0,0,0,0,0,0,0,0,0,0,0,0,0,0,0,0,0,0,0,0,0,0,0,0,0,0,0,0,0,0,0,0,0,0,0,0,0,0,0,0,0,0,0,0,0,0,0,0,0,0,0,0,0,0,0,0,0,0,0,0,0,0,0,0,0,0,0,0,0,0,0,0,0,0,0,0,0,0,0,0,0,0,0,0,0,0,0,0,0,0,0,0],"trees":[{"base_weights":[-1.0458158E-9,1.9848981E0,-8.618682E-1,1.9920405E0,-1.9678715E-1,1.9413055E0,-1.3347564E0,1.9953725E0,-1.9322035E-1,1.9780062E0,-1.981132E-1,1.9995807E-1,-1.5883917E0,1.9999391E-1,1.87962E0,1.9865798E0,-1.9207922E-1,-1.1082916E0,-1.9999407E-1,1.9969502E-1,1.7597875E-1,1.9998167E-1,1.5595809E-1,-5.324502E-2,-1.994828E-1],"categories":[],"categories_nodes":[],"categories_segments":[],"categories_sizes":[],"default_left":[0,0,0,0,0,0,0,0,0,0,0,0,0,0,0,0,0,0,0,0,0,0,0,0,0],"id":0,"left_children":[1,3,5,7,-1,9,11,13,-1,15,-1,-1,17,-1,19,21,-1,23,-1,-1,-1,-1,-1,-1,-1],"loss_changes":[1.9344142E5,9.704219E2,1.0451439E5,4.5071875E2,0E0,1.6422852E3,5.7056062E4,1.4296875E1,0E0,3.8073047E2,0E0,0E0,1.23850625E4,0E0,1.4939941E1,6.0476562E1,0E0,1.4772445E4,0E0,0E0,0E0,0E0,0E0,0E0,0E0],"parents":[2147483647,0,0,1,1,2,2,3,3,5,5,6,6,7,7,9,9,12,12,14,14,15,15,17,17],"right_children":[2,4,6,8,-1,10,12,14,-1,16,-1,-1,18,-1,20,22,-1,24,-1,-1,-1,-1,-1,-1,-1],"split_conditions":[5.011594E-1,7.015178E-1,4.01804E-1,2.2E1,-1.9678715E-1,7.009767E-1,1E1,4.8940337E-1,-1.9322035E-1,2.2E1,-1.981132E-1,1.9995807E-1,7.009767E-1,1.9999391E-1,4.01804E-1,3.934038E-1,-1.9207922E-1,6.989262E-1,-1.9999407E-1,1.9969502E-1,1.7597875E-1,1.9998167E-1,1.5595809E-1,-5.324502E-2,-1.994828E-1],"split_indices":[3,2,2,4,0,3,4,3,0,4,0,0,3,0,2,2,0,2,0,0,0,0,0,0,0],"split_type":[0,0,0,0,0,0,0,0,0,0,0,0,0,0,0,0,0,0,0,0,0,0,0,0,0],"sum_hessian":[1.13074E5,3.4233145E4,7.884086E4,3.4171895E4,6.125E1,1.1379956E4,6.74609E4,3.4143395E4,2.85E1,1.1274956E4,1.05E2,4.768352E3,6.2692547E4,3.2831883E4,1.3115095E3,1.1250706E4,2.425E1,2.8938047E4,3.37545E4,6.547588E2,6.5675073E2,1.0908852E4,3.418552E2,1.7544064E4,1.1393984E4],"tree_param":{"num_deleted":"0","num_feature":"5","num_nodes":"25","size_leaf_vector":"1"}},{"base_weights":[2.3696593E-5,1.8049177E0,-7.8207844E-1,1.811419E0,-1.791827E-1,1.7651286E0,-1.2107959E0,1.8144556E0,-1.7619006E-1,1.7985176E0,-1.8029372E-1,1.81838E-1,-1.4406179E0,1.8186796E-1,1.7075174E0,1.8063327E0,-1.7523128E-1,-1.0020677E0,-1.8186812E-1,1.816179E-1,1.5968089E-1,1.8185775E-1,1.412924E-1,-4.795605E-2,-1.8139467E-1],"categories":[],"categories_nodes":[],"categories_segments":[],"categories_sizes":[],"default_left":[0,0,0,0,0,0,0,0,0,0,0,0,0,0,0,0,0,0,0,0,0,0,0,0,0],"id":1,"left_children":[1,3,5,7,-1,9,11,13,-1,15,-1,-1,17,-1,19,21,-1,23,-1,-1,-1,-1,-1,-1,-1],"loss_changes":[1.5826728E5,7.9584375E2,8.542363E4,3.7034375E2,0E0,1.3457969E3,4.6614258E4,1.21484375E1,0E0,3.130039E2,0E0,0E0,1.0316422E4,0E0,1.2750488E1,5.1101562E1,0E0,1.22224E4,0E0,0E0,0E0,0E0,0E0,0E0,0E0],"parents":[2147483647,0,0,1,1,2,2,3,3,5,5,6,6,7,7,9,9,12,12,14,14,15,15,17,17],"right_children":[2,4,6,8,-1,10,12,14,-1,16,-1,-1,18,-1,20,22,-1,24,-1,-1,-1,-1,-1,-1,-1],"split_conditions":[5.011594E-1,7.015178E-1,4.01804E-1,2.2E1,-1.791827E-1,7.009767E-1,1E1,4.8940337E-1,-1.7619006E-1,2.2E1,-1.8029372E-1,1.81838E-1,7.009767E-1,1.8186796E-1,4.01804E-1,3.934038E-1,-1.7523128E-1,6.989262E-1,-1.8186812E-1,1.816179E-1,1.5968089E-1,1.8185775E-1,1.412924E-1,-4.795605E-2,-1.8139467E-1],"split_indices":[3,2,2,4,0,3,4,3,0,4,0,0,3,0,2,2,0,2,0,0,0,0,0,0,0],"split_type":[0,0,0,0,0,0,0,0,0,0,0,0,0,0,0,0,0,0,0,0,0,0,0,0,0],"sum_hessian":[1.1211615E5,3.3894625E4,7.822152E4,3.3833965E4,6.0660824E1,1.1268294E4,6.6953234E4,3.3805727E4,2.823564E1,1.1164317E4,1.0397642E2,4.721005E3,6.2232227E4,3.2505762E4,1.2999666E3,1.114029E4,2.4027695E1,2.8813016E4,3.341921E4,6.482743E2,6.516922E2,1.0800505E4,3.3978485E2,1.7531637E4,1.1281379E4],"tree_param":{"num_deleted":"0","num_feature":"5","num_nodes":"25","size_leaf_vector":"1"}},{"base_weights":[1.0090945E-4,1.669597E0,-7.193854E-1,1.6756183E0,-1.658576E-1,1.6324344E0,-1.1127924E0,1.6784345E0,-1.6319062E-1,1.6633316E0,-1.6684859E-1,1.6822685E-1,-1.3233843E0,1.6825362E-1,1.5749407E0,1.6705807E0,-1.6233681E-1,-9.129603E-1,-1.6825373E-1,1.680303E-1,1.4682806E-1,1.6824447E-1,1.2934342E-1,-4.7542702E-2,-1.7941587E-1],"categories":[],"categories_nodes":[],"categories_segments":[],"categories_sizes":[],"default_left":[0,0,0,0,0,0,0,0,0,0,0,0,0,0,0,0,0,0,0,0,0,0,0,0,0],"id":2,"left_children":[1,3,5,7,-1,9,11,13,-1,15,-1,-1,17,-1,19,21,-1,23,-1,-1,-1,-1,-1,-1,-1],"loss_changes":[1.3170211E5,6.645078E2,7.089481E4,3.0977344E2,0E0,1.122707E3,3.8640703E4,1.13359375E1,0E0,2.6192383E2,0E0,0E0,8.996648E3,0E0,1.1817871E1,4.6398438E1,0E0,1.0983865E4,0E0,0E0,0E0,0E0,0E0,0E0,0E0],"parents":[2147483647,0,0,1,1,2,2,3,3,5,5,6,6,7,7,9,9,12,12,14,14,15,15,17,17],"right_children":[2,4,6,8,-1,10,12,14,-1,16,-1,-1,18,-1,20,22,-1,24,-1,-1,-1,-1,-1,-1,-1],"split_conditions":[5.011594E-1,7.015178E-1,4.01804E-1,2.2E1,-1.658576E-1,7.009767E-1,1E1,4.8940337E-1,-1.6319062E-1,2.2E1,-1.6684859E-1,1.6822685E-1,7.009767E-1,1.6825362E-1,4.01804E-1,3.934038E-1,-1.6233681E-1,2.2E1,-1.6825373E-1,1.680303E-1,1.4682806E-1,1.6824447E-1,1.2934342E-1,-4.7542702E-2,-1.7941587E-1],"split_indices":[3,2,2,4,0,3,4,3,0,4,0,0,3,0,2,2,0,4,0,0,0,0,0,0,0],"split_type":[0,0,0,0,0,0,0,0,0,0,0,0,0,0,0,0,0,0,0,0,0,0,0,0,0],"sum_hessian":[1.0964197E5,3.3020312E4,7.662166E4,3.2961176E4,5.913552E1,1.097988E4,6.564178E4,3.2933625E4,2.7549385E1,1.0878551E4,1.0132913E2,4.598719E3,6.104306E4,3.166351E4,1.2701176E3,1.0855101E4,2.3450113E1,2.848977E4,3.2553291E4,6.3152356E2,6.38594E2,1.0520687E4,3.344136E2,1.9038365E4,9.451404E3],"tree_param":{"num_deleted":"0","num_feature":"5","num_nodes":"25","size_leaf_vector":"1"}},{"base_weights":[2.9431243E-4,6.6283464E-1,-1.5768415E-1,1.0434251E0,-1.6174254E0,1.267959E0,-1.7518616E-1,-1.6508953E-1,-1.5707473E-1,1.5727099E0,9.1843814E-1,1.5768316E-1,1.4692234E-1,1.5648648E-1,5.253681E-2],"categories":[],"categories_nodes":[],"categories_segments":[],"categories_sizes":[],"default_left":[0,0,0,0,0,0,0,0,0,0,0,0,0,0,0],"id":3,"left_children":[1,3,-1,5,7,9,-1,-1,-1,11,13,-1,-1,-1,-1],"loss_changes":[1.1099392E5,6.4916516E4,0E0,4.0234812E4,1.4123047E1,6.318836E3,0E0,0E0,0E0,1.12109375E1,7.02234E3,0E0,0E0,0E0,0E0],"parents":[2147483647,0,0,1,1,3,3,4,4,5,5,9,9,10,10],"right_children":[2,4,-1,6,8,10,-1,-1,-1,12,14,-1,-1,-1,-1],"split_conditions":[7.009767E-1,7.015178E-1,-1.5768415E-1,2.2E1,2.2E1,5.011594E-1,-1.7518616E-1,-1.6508953E-1,-1.5707473E-1,4.8940337E-1,4.01804E-1,1.5768316E-1,1.4692234E-1,1.5648648E-1,5.253681E-2],"split_indices":[3,2,0,4,4,3,0,0,0,3,2,0,0,0,0],"split_type":[0,0,0,0,0,0,0,0,0,0,0,0,0,0,0],"sum_hessian":[1.0622081E5,7.479901E4,3.14218E4,6.410072E4,1.069829E4,5.9335117E4,4.7656E3,6.2106733E3,4.4876167E3,3.1695756E4,2.7639361E4,3.0468049E4,1.2277074E3,1.0450282E4,1.718908E4],"tree_param":{"num_deleted":"0","num_feature":"5","num_nodes":"15","size_leaf_vector":"1"}},{"base_weights":[1.6612033E-4,6.1943275E-1,-1.4926848E-1,9.7366905E-1,-1.5251914E0,1.1832649E0,-1.6310476E-1,-1.5518083E-1,-1.4877348E-1,1.488418E0,8.4338385E-1,1.4926764E-1,1.3821901E-1,1.480281E-1,4.735024E-2],"categories":[],"categories_nodes":[],"categories_segments":[],"categories_sizes":[],"default_left":[0,0,0,0,0,0,0,0,0,0,0,0,0,0,0],"id":4,"left_children":[1,3,-1,5,7,9,-1,-1,-1,11,13,-1,-1,-1,-1],"loss_changes":[9.443594E4,5.4852633E4,0E0,3.383163E4,7.8964844E0,5.947039E3,0E0,0E0,0E0,1.1609375E1,6.3915156E3,0E0,0E0,0E0,0E0],"parents":[2147483647,0,0,1,1,3,3,4,4,5,5,9,9,10,10],"right_children":[2,4,-1,6,8,10,-1,-1,-1,12,14,-1,-1,-1,-1],"split_conditions":[7.009767E-1,7.015178E-1,-1.4926848E-1,2.2E1,2.2E1,5.011594E-1,-1.6310476E-1,-1.5518083E-1,-1.4877348E-1,4.8940337E-1,4.01804E-1,1.4926764E-1,1.3821901E-1,1.480281E-1,4.735024E-2],"split_indices":[3,2,0,4,4,3,0,0,0,3,2,0,0,0,0],"split_type":[0,0,0,0,0,0,0,0,0,0,0,0,0,0,0],"sum_hessian":[1.0214913E5,7.219972E4,2.9949412E4,6.196522E4,1.02345E4,5.7350867E4,4.6143535E3,5.9593525E3,4.2751475E3,3.0217506E4,2.713336E4,2.9040332E4,1.177174E3,9.96745E3,1.716591E4],"tree_param":{"num_deleted":"0","num_feature":"5","num_nodes":"15","size_leaf_vector":"1"}},{"base_weights":[4.6686137E-6,5.872643E-1,-1.412748E0,9.17401E-1,-1.4508772E0,1.4028247E-1,-1.4188997E0,1.1127558E0,-1.5360568E-1,-1.4724515E-1,-1.4202578E-1,-8.417154E-1,-1.4243606E-1,1.419877E0,7.7975225E-1,-4.3219265E-1,-1.457542E-1,1.4243536E-1,1.309061E-1,1.4756146E-1,4.5724995E-2,-8.560742E-3,-1.4995605E-1],"categories":[],"categories_nodes":[],"categories_segments":[],"categories_sizes":[],"default_left":[0,0,0,0,0,0,0,0,0,0,0,0,0,0,0,0,0,0,0,0,0,0,0],"id":5,"left_children":[1,3,5,7,9,-1,11,13,-1,-1,-1,15,-1,17,19,21,-1,-1,-1,-1,-1,-1,-1],"loss_changes":[8.0988375E4,4.639813E4,4.984414E2,2.8444262E4,4.2597656E0,0E0,8.8953125E1,5.6204453E3,0E0,0E0,0E0,6.7591995E1,0E0,1.2324219E1,5.9181533E3,6.0500786E1,0E0,0E0,0E0,0E0,0E0,0E0,0E0],"parents":[2147483647,0,0,1,1,2,2,3,3,4,4,6,6,7,7,11,11,13,13,14,14,15,15],"right_children":[2,4,6,8,10,-1,12,14,-1,-1,-1,16,-1,18,20,22,-1,-1,-1,-1,-1,-1,-1],"split_conditions":[6.989332E-1,7.015178E-1,3.934038E-1,2.2E1,2.2E1,1.4028247E-1,7.009767E-1,5.011594E-1,-1.5360568E-1,-1.4724515E-1,-1.4202578E-1,6.802787E-1,-1.4243606E-1,4.8940337E-1,1E1,2.2E1,-1.457542E-1,1.4243536E-1,1.309061E-1,1.4756146E-1,4.5724995E-2,-8.560742E-3,-1.4995605E-1],"split_indices":[3,2,2,4,4,0,3,3,0,0,0,2,0,3,4,4,0,0,0,0,0,0,0],"split_type":[0,0,0,0,0,0,0,0,0,0,0,0,0,0,0,0,0,0,0,0,0,0,0],"sum_hessian":[9.761521E4,6.895306E4,2.8662146E4,5.9341516E4,9.611547E3,6.199162E1,2.8600156E4,5.4965477E4,4.3760386E3,5.6110063E3,4.0005408E3,2.6951263E2,2.8330643E4,2.8592254E4,2.6373223E4,1.6289186E2,1.0662077E2,2.7470682E4,1.121572E3,8.350911E3,1.802231E4,1.2377957E2,3.9112286E1],"tree_param":{"num_deleted":"0","num_feature":"5","num_nodes":"23","size_leaf_vector":"1"}},{"base_weights":[-2.1900772E-4,1.3561313E0,-5.549866E-1,1.3610033E0,-1.3396278E-1,1.3444467E0,-8.6252975E-1,1.3632447E0,-1.3002962E-1,1.3691295E0,-1.3535047E-1,1.4502554E-1,-1.0419781E0,1.3680099E-1,1.2463255E0,1.3748019E0,-1.2916428E-1,-7.101893E-1,-1.3680102E-1,1.3781999E-1,1.1163082E-1,1.389419E-1,9.3012E-2,-3.4206513E-2,-1.3863595E-1],"categories":[],"categories_nodes":[],"categories_segments":[],"categories_sizes":[],"default_left":[0,0,0,0,0,0,0,0,0,0,0,0,0,0,0,0,0,0,0,0,0,0,0,0,0],"id":6,"left_children":[1,3,5,7,-1,9,11,13,-1,15,-1,-1,17,-1,19,21,-1,23,-1,-1,-1,-1,-1,-1,-1],"loss_changes":[6.98871E4,3.5592188E2,3.8507176E4,1.6230469E2,0E0,6.135762E2,2.354682E4,1.3277344E1,0E0,1.3916992E2,0E0,0E0,5.6941523E3,0E0,1.670996E1,5.7757812E1,0E0,6.4951123E3,0E0,0E0,0E0,0E0,0E0,0E0,0E0],"parents":[2147483647,0,0,1,1,2,2,3,3,5,5,6,6,7,7,9,9,12,12,14,14,15,15,17,17],"right_children":[2,4,6,8,-1,10,12,14,-1,16,-1,-1,18,-1,20,22,-1,24,-1,-1,-1,-1,-1,-1,-1],"split_conditions":[5.011594E-1,7.015178E-1,4.01804E-1,2.2E1,-1.3396278E-1,7.009767E-1,1E1,4.8940337E-1,-1.3002962E-1,2.2E1,-1.3535047E-1,1.4502554E-1,7.009767E-1,1.3680099E-1,4.01804E-1,3.934038E-1,-1.2916428E-1,6.989262E-1,-1.3680102E-1,1.3781999E-1,1.1163082E-1,1.389419E-1,9.3012E-2,-3.4206513E-2,-1.3863595E-1],"split_indices":[3,2,2,4,0,3,4,3,0,4,0,0,3,0,2,2,0,2,0,0,0,0,0,0,0],"split_type":[0,0,0,0,0,0,0,0,0,0,0,0,0,0,0,0,0,0,0,0,0,0,0,0,0],"sum_hessian":[9.2876266E4,2.6960105E4,6.5916164E4,2.6911963E4,4.8141785E1,9.184978E3,5.6731188E4,2.6889805E4,2.2158844E1,9.102196E3,8.278118E1,4.084308E3,5.264688E4,2.582651E4,1.0632949E3,9.083315E3,1.8881046E1,2.6094648E4,2.6552229E4,5.231115E2,5.4018335E2,8.792185E3,2.9113007E2,1.6897E4,9.197648E3],"tree_param":{"num_deleted":"0","num_feature":"5","num_nodes":"25","size_leaf_vector":"1"}},{"base_weights":[-4.0676507E-5,5.2169347E-1,-1.3209562E-1,8.14647E-1,-1.3395153E0,1.0003392E0,-1.4438409E-1,-1.3549222E-1,-1.3173065E-1,1.3158436E0,6.8525916E-1,1.320949E-1,1.19180575E-1,1.323633E-1,3.590883E-2],"categories":[],"categories_nodes":[],"categories_segments":[],"categories_sizes":[],"default_left":[0,0,0,0,0,0,0,0,0,0,0,0,0,0,0],"id":7,"left_children":[1,3,-1,5,7,9,-1,-1,-1,11,13,-1,-1,-1,-1],"loss_changes":[6.0643094E4,3.4395133E4,0E0,2.2858602E4,1.1523438E0,5.0055117E3,0E0,0E0,0E0,1.4363281E1,5.246623E3,0E0,0E0,0E0,0E0],"parents":[2147483647,0,0,1,1,3,3,4,4,5,5,9,9,10,10],"right_children":[2,4,-1,6,8,10,-1,-1,-1,12,14,-1,-1,-1,-1],"split_conditions":[7.009767E-1,7.015178E-1,-1.3209562E-1,2.2E1,2.2E1,5.011594E-1,-1.4438409E-1,-1.3549222E-1,-1.3173065E-1,4.8940337E-1,4.01804E-1,1.320949E-1,1.19180575E-1,1.323633E-1,3.590883E-2],"split_indices":[3,2,0,4,4,3,0,0,0,3,2,0,0,0,0],"split_type":[0,0,0,0,0,0,0,0,0,0,0,0,0,0,0],"sum_hessian":[8.799282E4,6.3078664E4,2.4914156E4,5.450082E4,8.577846E3,5.0360734E4,4.1400854E3,5.0290605E3,3.5487847E3,2.516183E4,2.5198904E4,2.4157822E4,1.00400824E3,8.520238E3,1.6678666E4],"tree_param":{"num_deleted":"0","num_feature":"5","num_nodes":"15","size_leaf_vector":"1"}},{"base_weights":[-2.487506E-4,4.9578628E-1,-1.2812313E-1,7.7211255E-1,-1.2969275E0,9.4719976E-1,-1.3841519E-1,-1.3099061E-1,-1.2780821E-1,1.2757021E0,6.3380915E-1,1.2812251E-1,1.1430176E-1,1.2969151E-1,3.316393E-2],"categories":[],"categories_nodes":[],"categories_segments":[],"categories_sizes":[],"default_left":[0,0,0,0,0,0,0,0,0,0,0,0,0,0,0],"id":8,"left_children":[1,3,-1,5,7,9,-1,-1,-1,11,13,-1,-1,-1,-1],"loss_changes":[5.2826348E4,2.9688912E4,0E0,1.9605562E4,2.8320312E-1,4.9436406E3,0E0,0E0,0E0,1.571875E1,4.9249346E3,0E0,0E0,0E0,0E0],"parents":[2147483647,0,0,1,1,3,3,4,4,5,5,9,9,10,10],"right_children":[2,4,-1,6,8,10,-1,-1,-1,12,14,-1,-1,-1,-1],"split_conditions":[7.009767E-1,7.015178E-1,-1.2812313E-1,2.2E1,2.2E1,5.011594E-1,-1.3841519E-1,-1.3099061E-1,-1.2780821E-1,4.8940337E-1,3.934038E-1,1.2812251E-1,1.1430176E-1,1.2969151E-1,3.316393E-2],"split_indices":[3,2,0,4,4,3,0,0,0,3,2,0,0,0,0],"split_type":[0,0,0,0,0,0,0,0,0,0,0,0,0,0,0],"sum_hessian":[8.3135125E4,5.992931E4,2.320582E4,5.192607E4,8.0032393E3,4.802688E4,3.8991895E3,4.6987246E3,3.304515E3,2.3446605E4,2.4580273E4,2.2501338E4,9.452678E2,7.693576E3,1.6886697E4],"tree_param":{"num_deleted":"0","num_feature":"5","num_nodes":"15","size_leaf_vector":"1"}},{"base_weights":[-4.5895166E-4,4.7207382E-1,-1.2474026E-1,7.330397E-1,-1.2607856E-1,8.9815384E-1,-1.3344668E-1,1.2413933E0,5.863966E-1,1.24739684E-1,1.0989427E-1,1.3109438E-1,2.9734332E-2],"categories":[],"categories_nodes":[],"categories_segments":[],"categories_sizes":[],"default_left":[0,0,0,0,0,0,0,0,0,0,0,0,0],"id":9,"left_children":[1,3,-1,5,-1,7,-1,9,11,-1,-1,-1,-1],"loss_changes":[4.618021E4,2.5703389E4,0E0,1.6864428E4,0E0,4.894367E3,0E0,1.725E1,5.02054E3,0E0,0E0,0E0,0E0],"parents":[2147483647,0,0,1,1,3,3,5,5,7,7,8,8],"right_children":[2,4,-1,6,-1,8,-1,10,12,-1,-1,-1,-1],"split_conditions":[7.009767E-1,7.015178E-1,-1.2474026E-1,2.2E1,-1.2607856E-1,5.011594E-1,-1.3344668E-1,4.8940337E-1,1E1,1.24739684E-1,1.0989427E-1,1.3109438E-1,2.9734332E-2],"split_indices":[3,2,0,4,0,3,0,3,4,0,0,0,0],"split_type":[0,0,0,0,0,0,0,0,0,0,0,0,0],"sum_hessian":[7.837292E4,5.6835555E4,2.1537371E4,4.939702E4,7.4385347E3,4.574437E4,3.652648E3,2.1771418E4,2.3972951E4,2.0883537E4,8.8788074E2,6.835473E3,1.7137479E4],"tree_param":{"num_deleted":"0","num_feature":"5","num_nodes":"13","size_leaf_vector":"1"}},{"base_weights":[-6.9037295E-4,1.2055557E0,-4.5556837E-1,1.2098758E0,-1.18474185E-1,1.2001834E0,-7.11345E-1,1.2118242E0,-1.13783516E-1,1.2213051E0,-1.20047085E-1,1.3186954E-1,-8.7679785E-1,1.21837355E-1,1.0585318E0,1.2441993E0,6.2890446E-1,-5.8242893E-1,-1.2183743E-1,1.23232126E-1,8.922556E-2,1.2151935E-1,1.263762E-1,6.872738E-2,-2.4701379E-1,-3.0497769E-2,-1.2263226E-1],"categories":[],"categories_nodes":[],"categories_segments":[],"categories_sizes":[],"default_left":[0,0,0,0,0,0,0,0,0,0,0,0,0,0,0,0,0,0,0,0,0,0,0,0,0,0,0],"id":10,"left_children":[1,3,5,7,-1,9,11,13,-1,15,-1,-1,17,-1,19,21,23,25,-1,-1,-1,-1,-1,-1,-1,-1,-1],"loss_changes":[4.049277E4,2.1011719E2,2.2696184E4,9.365625E1,0E0,3.6508105E2,1.5592367E4,1.8947266E1,0E0,9.563281E1,0E0,0E0,4.3150703E3,0E0,2.2986572E1,2.3476562E0,4.9911278E1,4.118554E3,0E0,0E0,0E0,0E0,0E0,0E0,0E0,0E0,0E0],"parents":[2147483647,0,0,1,1,2,2,3,3,5,5,6,6,7,7,9,9,12,12,14,14,15,15,16,16,17,17],"right_children":[2,4,6,8,-1,10,12,14,-1,16,-1,-1,18,-1,20,22,24,26,-1,-1,-1,-1,-1,-1,-1,-1,-1],"split_conditions":[5.011594E-1,7.015178E-1,4.01804E-1,2.2E1,-1.18474185E-1,7.009767E-1,1E1,4.8940337E-1,-1.13783516E-1,3.934038E-1,-1.20047085E-1,1.3186954E-1,7.009767E-1,1.21837355E-1,4.01804E-1,1E1,7.321588E-1,6.989262E-1,-1.2183743E-1,1.23232126E-1,8.922556E-2,1.2151935E-1,1.263762E-1,6.872738E-2,-2.4701379E-1,-3.0497769E-2,-1.2263226E-1],"split_indices":[3,2,2,4,0,3,4,3,0,2,0,0,3,0,2,4,1,2,0,0,0,0,0,0,0,0,0],"split_type":[0,0,0,0,0,0,0,0,0,0,0,0,0,0,0,0,0,0,0,0,0,0,0,0,0,0,0],"sum_hessian":[7.379634E4,2.0207752E4,5.358859E4,2.017179E4,3.596441E1,7.170055E3,4.6418535E4,2.0155545E4,1.6243364E1,7.1080083E3,6.2047306E1,3.4975864E3,4.292095E4,1.9323031E4,8.325129E2,6.842471E3,2.6553708E2,2.3054979E4,1.986597E4,4.0392505E2,4.2858783E2,2.7814785E3,4.0609927E3,2.613921E2,4.144992E0,1.6113296E4,6.9416836E3],"tree_param":{"num_deleted":"0","num_feature":"5","num_nodes":"27","size_leaf_vector":"1"}},{"base_weights":[-4.466546E-4,4.2981896E-1,-1.1933193E-1,6.6290194E-1,-1.20335E-1,8.2084376E-1,-1.2837814E-1,1.1861656E0,5.207585E-1,1.1933132E-1,1.0213359E-1,1.2155972E-1,2.5140313E-2],"categories":[],"categories_nodes":[],"categories_segments":[],"categories_sizes":[],"default_left":[0,0,0,0,0,0,0,0,0,0,0,0,0],"id":11,"left_children":[1,3,-1,5,-1,7,-1,9,11,-1,-1,-1,-1],"loss_changes":[3.5610168E4,1.9410707E4,0E0,1.3720656E4,0E0,4.5241504E3,0E0,2.0707031E1,4.2410835E3,0E0,0E0,0E0,0E0],"parents":[2147483647,0,0,1,1,3,3,5,5,7,7,8,8],"right_children":[2,4,-1,6,-1,8,-1,10,12,-1,-1,-1,-1],"split_conditions":[7.009767E-1,7.015178E-1,-1.1933193E-1,2.2E1,-1.20335E-1,5.011594E-1,-1.2837814E-1,4.8940337E-1,3.934038E-1,1.1933132E-1,1.0213359E-1,1.2155972E-1,2.5140313E-2],"split_indices":[3,2,0,4,0,3,0,3,2,0,0,0,0],"split_type":[0,0,0,0,0,0,0,0,0,0,0,0,0],"sum_hessian":[6.9379445E4,5.0988637E4,1.8390809E4,4.4621E4,6.3676357E3,4.1272945E4,3.3480525E3,1.8611938E4,2.266101E4,1.7832418E4,7.7952026E2,6.3295547E3,1.6331454E4],"tree_param":{"num_deleted":"0","num_feature":"5","num_nodes":"13","size_leaf_vector":"1"}},{"base_weights":[-6.59031E-4,4.103739E-1,-1.17156185E-1,6.3069934E-1,-1.1802768E-1,7.7956766E-1,-1.24954544E-1,1.1637193E0,4.8164102E-1,1.1715563E-1,9.8593734E-2,1.2289856E-1,2.2542058E-2],"categories":[],"categories_nodes":[],"categories_segments":[],"categories_sizes":[],"default_left":[0,0,0,0,0,0,0,0,0,0,0,0,0],"id":12,"left_children":[1,3,-1,5,-1,7,-1,9,11,-1,-1,-1,-1],"loss_changes":[3.1368215E4,1.6907635E4,0E0,1.1861664E4,0E0,4.4933047E3,0E0,2.2738281E1,4.2346377E3,0E0,0E0,0E0,0E0],"parents":[2147483647,0,0,1,1,3,3,5,5,7,7,8,8],"right_children":[2,4,-1,6,-1,8,-1,10,12,-1,-1,-1,-1],"split_conditions":[7.009767E-1,7.015178E-1,-1.17156185E-1,2.2E1,-1.1802768E-1,5.011594E-1,-1.24954544E-1,4.8940337E-1,1E1,1.1715563E-1,9.8593734E-2,1.2289856E-1,2.2542058E-2],"split_indices":[3,2,0,4,0,3,0,3,4,0,0,0,0],"split_type":[0,0,0,0,0,0,0,0,0,0,0,0,0],"sum_hessian":[6.5174695E4,4.8240895E4,1.69338E4,4.2372383E4,5.868512E3,3.9264223E4,3.1081587E3,1.7149047E4,2.2115178E4,1.6419648E4,7.293982E2,5.645262E3,1.6469914E4],"tree_param":{"num_deleted":"0","num_feature":"5","num_nodes":"13","size_leaf_vector":"1"}},{"base_weights":[-8.810432E-4,3.916044E-1,-1.15258254E-1,5.9961826E-1,-1.1601831E-1,7.396451E-1,-1.22017816E-1,1.1439719E0,4.446652E-1,1.1525773E-1,9.522252E-2,1.181223E-1,1.8795084E-2],"categories":[],"categories_nodes":[],"categories_segments":[],"categories_sizes":[],"default_left":[0,0,0,0,0,0,0,0,0,0,0,0,0],"id":13,"left_children":[1,3,-1,5,-1,7,-1,9,11,-1,-1,-1,-1],"loss_changes":[2.76773E4,1.4741623E4,0E0,1.0262392E4,0E0,4.4592773E3,0E0,2.4925781E1,4.0880884E3,0E0,0E0,0E0,0E0],"parents":[2147483647,0,0,1,1,3,3,5,5,7,7,8,8],"right_children":[2,4,-1,6,-1,8,-1,10,12,-1,-1,-1,-1],"split_conditions":[7.009767E-1,7.015178E-1,-1.15258254E-1,2.2E1,-1.1601831E-1,5.011594E-1,-1.22017816E-1,4.8940337E-1,3.934038E-1,1.1525773E-1,9.522252E-2,1.181223E-1,1.8795084E-2],"split_indices":[3,2,0,4,0,3,0,3,2,0,0,0,0],"split_type":[0,0,0,0,0,0,0,0,0,0,0,0,0],"sum_hessian":[6.1227438E4,4.5665773E4,1.5561664E4,4.026848E4,5.3972915E3,3.73919E4,2.876581E3,1.5771352E4,2.1620549E4,1.5089162E4,6.821901E2,5.5869683E3,1.603358E4],"tree_param":{"num_deleted":"0","num_feature":"5","num_nodes":"13","size_leaf_vector":"1"}},{"base_weights":[-1.0614323E-3,3.7386534E-1,-1.1359582E-1,5.7278025E-1,-1.1238532E0,7.042816E-1,-1.19523E-1,1.0883132E-1,-1.13407E0,1.1264788E0,4.142801E-1,1.11054026E-1,-1.1382174E0,1.1359531E-1,9.197842E-2,1.1951538E-1,1.7187579E-2,-8.541206E-2,-1.14260726E-1],"categories":[],"categories_nodes":[],"categories_segments":[],"categories_sizes":[],"default_left":[0,0,0,0,0,0,0,0,0,0,0,0,0,0,0,0,0,0,0],"id":14,"left_children":[1,3,-1,5,7,9,-1,-1,11,13,15,-1,17,-1,-1,-1,-1,-1,-1],"loss_changes":[2.446399E4,1.2875791E4,0E0,8.870761E3,1.1575879E2,4.3473457E3,0E0,0E0,4.8222656E1,2.7269531E1,3.9847441E3,0E0,5.303711E0,0E0,0E0,0E0,0E0,0E0,0E0],"parents":[2147483647,0,0,1,1,3,3,4,4,5,5,8,8,9,9,10,10,12,12],"right_children":[2,4,-1,6,8,10,-1,-1,12,14,16,-1,18,-1,-1,-1,-1,-1,-1],"split_conditions":[7.009767E-1,6.989262E-1,-1.1359582E-1,2.2E1,4.8940337E-1,5.011594E-1,-1.19523E-1,1.0883132E-1,8E0,4.8940337E-1,1E1,1.11054026E-1,7.015178E-1,1.1359531E-1,9.197842E-2,1.1951538E-1,1.7187579E-2,-8.541206E-2,-1.14260726E-1],"split_indices":[3,2,0,4,3,3,0,0,4,3,4,0,2,0,0,0,0,0,0],"split_type":[0,0,0,0,0,0,0,0,0,0,0,0,0,0,0,0,0,0,0],"sum_hessian":[5.7492266E4,4.321601E4,1.4276258E4,3.814987E4,5.06614E3,3.550935E4,2.6405198E3,2.2805254E1,5.043335E3,1.4457946E4,2.1051404E4,8.809358E0,5.0345254E3,1.3819983E4,6.379629E2,4.985935E3,1.6065469E4,7.958405E1,4.9549414E3],"tree_param":{"num_deleted":"0","num_feature":"5","num_nodes":"19","size_leaf_vector":"1"}},{"base_weights":[-1.2438878E-3,3.5655382E-1,-1.1213441E-1,5.4170656E-1,-1.1271747E-1,6.652305E-1,-1.1728152E-1,1.1109335E0,3.7899628E-1,1.1213403E-1,8.882812E-2,1.1545514E-1,1.3641781E-2],"categories":[],"categories_nodes":[],"categories_segments":[],"categories_sizes":[],"default_left":[0,0,0,0,0,0,0,0,0,0,0,0,0],"id":15,"left_children":[1,3,-1,5,-1,7,-1,9,11,-1,-1,-1,-1],"loss_changes":[2.1649916E4,1.1248186E4,0E0,7.70991E3,0E0,4.3314287E3,0E0,2.9771484E1,3.8900671E3,0E0,0E0,0E0,0E0],"parents":[2147483647,0,0,1,1,3,3,5,5,7,7,8,8],"right_children":[2,4,-1,6,-1,8,-1,10,12,-1,-1,-1,-1],"split_conditions":[7.009767E-1,7.015178E-1,-1.1213441E-1,2.2E1,-1.1271747E-1,5.011594E-1,-1.1728152E-1,4.8940337E-1,3.934038E-1,1.1213403E-1,8.882812E-2,1.1545514E-1,1.3641781E-2],"split_indices":[3,2,0,4,0,3,0,3,2,0,0,0,0],"split_type":[0,0,0,0,0,0,0,0,0,0,0,0,0],"sum_hessian":[5.40189E4,4.094149E4,1.3077409E4,3.6399832E4,4.541657E3,3.395419E4,2.4456416E3,1.3277131E4,2.067706E4,1.2680417E4,5.967138E2,4.9255796E3,1.575148E4],"tree_param":{"num_deleted":"0","num_feature":"5","num_nodes":"13","size_leaf_vector":"1"}},{"base_weights":[-1.386194E-3,3.4000215E-1,-1.1084564E-1,1.0913883E0,-4.249558E-3,1.095287E0,-1.0590213E-1,1.1688015E0,-2.3766017E-1,1.0969965E0,-9.95439E-2,1.1043828E-1,1.2064562E-1,1.15640126E-1,-4.4553512E-1,1.10845245E-1,8.574494E-2,-2.607142E-2,-1.1079903E-1],"categories":[],"categories_nodes":[],"categories_segments":[],"categories_sizes":[],"default_left":[0,0,0,0,0,0,0,0,0,0,0,0,0,0,0,0,0,0,0],"id":16,"left_children":[1,3,-1,5,7,9,-1,11,13,15,-1,-1,-1,-1,17,-1,-1,-1,-1],"loss_changes":[1.9185549E4,1.0035965E4,0E0,1.0336035E2,7.2859487E3,4.458789E1,0E0,9.379395E0,6.4321504E3,3.241992E1,0E0,0E0,0E0,0E0,2.3645295E3,0E0,0E0,0E0,0E0],"parents":[2147483647,0,0,1,1,3,3,4,4,5,5,7,7,8,8,9,9,14,14],"right_children":[2,4,-1,6,8,10,-1,12,14,16,-1,-1,-1,-1,18,-1,-1,-1,-1],"split_conditions":[7.009767E-1,5.011594E-1,-1.1084564E-1,7.015178E-1,1E1,2.2E1,-1.0590213E-1,3.934038E-1,3.934038E-1,4.8940337E-1,-9.95439E-2,1.1043828E-1,1.2064562E-1,1.15640126E-1,6.989262E-1,1.10845245E-1,8.574494E-2,-2.607142E-2,-1.1079903E-1],"split_indices":[3,3,0,2,4,4,0,2,2,3,0,0,0,0,2,0,0,0,0],"split_type":[0,0,0,0,0,0,0,0,0,0,0,0,0,0,0,0,0,0,0],"sum_hessian":[5.076137E4,3.8797914E4,1.1963458E4,1.2189702E4,2.660821E4,1.2168133E4,2.156933E1,4.415124E3,2.2193086E4,1.2158666E4,9.4668455E0,1.639916E3,2.7752083E3,2.8792896E3,1.9313797E4,1.1600278E4,5.583875E2,1.5101863E4,4.2119346E3],"tree_param":{"num_deleted":"0","num_feature":"5","num_nodes":"19","size_leaf_vector":"1"}},{"base_weights":[-1.0249359E-3,3.2469332E-1,-1.0970594E-1,1.0788667E0,-3.3888714E-3,1.0827348E0,-1.0444722E-1,1.1501142E0,-2.202735E-1,1.0970553E-1,7.9567343E-1,1.09334186E-1,1.1829158E-1,1.1392484E-1,-4.100354E-1,1.11407295E-1,5.1393986E-2,-2.3385717E-2,-1.1275164E-1],"categories":[],"categories_nodes":[],"categories_segments":[],"categories_sizes":[],"default_left":[0,0,0,0,0,0,0,0,0,0,0,0,0,0,0,0,0,0,0],"id":17,"left_children":[1,3,-1,5,7,9,-1,11,13,-1,15,-1,-1,-1,17,-1,-1,-1,-1],"loss_changes":[1.7036295E4,9.102551E3,0E0,9.272656E1,6.414045E3,4.489258E1,0E0,6.262207E0,5.5678975E3,0E0,4.7204865E1,0E0,0E0,0E0,2.3935715E3,0E0,0E0,0E0,0E0],"parents":[2147483647,0,0,1,1,3,3,4,4,5,5,7,7,8,8,10,10,14,14],"right_children":[2,4,-1,6,8,10,-1,12,14,-1,16,-1,-1,-1,18,-1,-1,-1,-1],"split_conditions":[7.009767E-1,5.011594E-1,-1.0970594E-1,7.015178E-1,1E1,4.8940337E-1,-1.0444722E-1,3.934038E-1,3.934038E-1,1.0970553E-1,4.01804E-1,1.09334186E-1,1.1829158E-1,1.1392484E-1,2.2E1,1.11407295E-1,5.1393986E-2,-2.3385717E-2,-1.1275164E-1],"split_indices":[3,3,0,2,4,3,0,2,2,0,2,0,0,0,4,0,0,0,0],"split_type":[0,0,0,0,0,0,0,0,0,0,0,0,0,0,0,0,0,0,0],"sum_hessian":[4.7718934E4,3.6787246E4,1.09316875E4,1.1151237E4,2.5636008E4,1.1131449E4,1.9788004E1,4.0566057E3,2.1579402E4,1.0599836E4,5.316128E2,1.4980839E3,2.558522E3,2.6425107E3,1.893689E4,2.4817967E2,2.834331E2,1.5204689E4,3.7322024E3],"tree_param":{"num_deleted":"0","num_feature":"5","num_nodes":"19","size_leaf_vector":"1"}},{"base_weights":[-6.720134E-4,3.0967435E-1,-1.0869557E-1,1.0673176E0,-2.593736E-3,1.0711594E0,-1.0307951E-1,1.1337392E0,-2.03838E-1,1.0869515E-1,7.6414883E-1,1.08353615E-1,1.1624267E-1,1.1241756E-1,-3.768385E-1,1.1012125E-1,4.809949E-2,-2.0148287E-2,-1.0885658E-1],"categories":[],"categories_nodes":[],"categories_segments":[],"categories_sizes":[],"default_left":[0,0,0,0,0,0,0,0,0,0,0,0,0,0,0,0,0,0,0],"id":18,"left_children":[1,3,-1,5,7,9,-1,11,13,-1,15,-1,-1,-1,17,-1,-1,-1,-1],"loss_changes":[1.5140481E4,8.264265E3,0E0,8.32793E1,5.657089E3,4.8510742E1,0E0,4.101074E0,4.828791E3,0E0,4.7309357E1,0E0,0E0,0E0,2.320481E3,0E0,0E0,0E0,0E0],"parents":[2147483647,0,0,1,1,3,3,4,4,5,5,7,7,8,8,10,10,14,14],"right_children":[2,4,-1,6,8,10,-1,12,14,-1,16,-1,-1,-1,18,-1,-1,-1,-1],"split_conditions":[7.009767E-1,5.011594E-1,-1.0869557E-1,7.015178E-1,1E1,4.8940337E-1,-1.0307951E-1,3.934038E-1,3.934038E-1,1.0869515E-1,4.01804E-1,1.08353615E-1,1.1624267E-1,1.1241756E-1,6.989262E-1,1.1012125E-1,4.809949E-2,-2.0148287E-2,-1.0885658E-1],"split_indices":[3,3,0,2,4,3,0,2,2,0,2,0,0,0,2,0,0,0,0],"split_type":[0,0,0,0,0,0,0,0,0,0,0,0,0,0,0,0,0,0,0],"sum_hessian":[4.4908695E4,3.493005E4,9.978644E3,1.0194102E4,2.4735951E4,1.0175958E4,1.814305E1,3.7209336E3,2.1015018E4,9.675716E3,5.0024252E2,1.3671691E3,2.3537644E3,2.421468E3,1.8593549E4,2.2706155E2,2.7318094E2,1.4919066E4,3.6744824E3],"tree_param":{"num_deleted":"0","num_feature":"5","num_nodes":"19","size_leaf_vector":"1"}},{"base_weights":[-3.5749248E-4,2.95101E-1,-1.0779788E-1,1.0567368E0,-1.9061137E-3,1.0779744E-1,6.7128724E-1,1.1193379E0,-1.8858685E-1,1.0897513E-1,3.5890847E-1,1.0748068E-1,1.1445125E-1,1.1108855E-1,-3.463486E-1,1.1105579E-1,-4.9484316E-3,-1.8030586E-2,-1.1097784E-1],"categories":[],"categories_nodes":[],"categories_segments":[],"categories_sizes":[],"default_left":[0,0,0,0,0,0,0,0,0,0,0,0,0,0,0,0,0,0,0],"id":19,"left_children":[1,3,-1,5,7,-1,9,11,13,-1,15,-1,-1,-1,17,-1,-1,-1,-1],"loss_changes":[1.3466977E4,7.509175E3,0E0,7.551367E1,4.999331E3,0E0,6.3529144E1,2.5913086E0,4.197959E3,0E0,8.645886E1,0E0,0E0,0E0,2.3143916E3,0E0,0E0,0E0,0E0],"parents":[2147483647,0,0,1,1,3,3,4,4,6,6,7,7,8,8,10,10,14,14],"right_children":[2,4,-1,6,8,-1,10,12,14,-1,16,-1,-1,-1,18,-1,-1,-1,-1],"split_conditions":[7.009767E-1,5.011594E-1,-1.0779788E-1,4.8940337E-1,1E1,1.0779744E-1,4.01804E-1,3.934038E-1,3.934038E-1,1.0897513E-1,1E1,1.0748068E-1,1.1445125E-1,1.1108855E-1,2.2E1,1.1105579E-1,-4.9484316E-3,-1.8030586E-2,-1.1097784E-1],"split_indices":[3,3,0,3,4,0,2,2,2,0,4,0,0,0,4,0,0,0,0],"split_type":[0,0,0,0,0,0,0,0,0,0,0,0,0,0,0,0,0,0,0],"sum_hessian":[4.22948E4,3.3194402E4,9.100399E3,9.312123E3,2.3882277E4,8.824134E3,4.8798895E2,3.4080159E3,2.0474262E4,2.0751387E2,2.8047507E2,1.2466074E3,2.1614087E3,2.215912E3,1.825835E4,9.813594E1,1.8233914E2,1.4997658E4,3.2606917E3],"tree_param":{"num_deleted":"0","num_feature":"5","num_nodes":"19","size_leaf_vector":"1"}},{"base_weights":[-4.7928243E-5,2.8075865E-1,-1.0699874E-1,1.0467699E0,-1.2826356E-3,1.0699828E-1,6.4145994E-1,1.1066316E0,-1.7419529E-1,1.0794964E-1,3.3428454E-1,1.0670184E-1,1.1287874E-1,1.0991331E-1,-3.1789112E-1,1.096858E-1,-4.4435402E-3,-1.55503275E-2,-1.0826608E-1],"categories":[],"categories_nodes":[],"categories_segments":[],"categories_sizes":[],"default_left":[0,0,0,0,0,0,0,0,0,0,0,0,0,0,0,0,0,0,0],"id":20,"left_children":[1,3,-1,5,7,-1,9,11,13,-1,15,-1,-1,-1,17,-1,-1,-1,-1],"loss_changes":[1.1986258E4,6.8273228E3,0E0,7.9325195E1,4.425122E3,0E0,6.1959976E1,1.5324707E0,3.6562344E3,0E0,7.909323E1,0E0,0E0,0E0,2.2296733E3,0E0,0E0,0E0,0E0],"parents":[2147483647,0,0,1,1,3,3,4,4,6,6,7,7,8,8,10,10,14,14],"right_children":[2,4,-1,6,8,-1,10,12,14,-1,16,-1,-1,-1,18,-1,-1,-1,-1],"split_conditions":[7.009767E-1,5.011594E-1,-1.0699874E-1,4.8940337E-1,1E1,1.0699828E-1,4.01804E-1,3.934038E-1,3.934038E-1,1.0794964E-1,1E1,1.0670184E-1,1.1287874E-1,1.0991331E-1,7.015178E-1,1.096858E-1,-4.4435402E-3,-1.55503275E-2,-1.0826608E-1],"split_indices":[3,3,0,3,4,0,2,2,2,0,4,0,0,0,2,0,0,0,0],"split_type":[0,0,0,0,0,0,0,0,0,0,0,0,0,0,0,0,0,0,0],"sum_hessian":[3.989287E4,3.1600127E4,8.292744E3,8.503178E3,2.3096951E4,8.0410117E3,4.621659E2,3.1173774E3,1.9979572E4,1.8946783E2,2.7269806E2,1.1357959E3,1.9815817E3,2.0253896E3,1.7954184E4,8.9861244E1,1.828368E2,1.4810574E4,3.1436094E3],"tree_param":{"num_deleted":"0","num_feature":"5","num_nodes":"19","size_leaf_vector":"1"}},{"base_weights":[2.195793E-4,2.6680064E-1,-1.0628607E-1,1.0374815E0,-7.598023E-4,1.0628557E-1,6.121608E-1,1.0953889E0,-1.6085386E-1,1.07028425E-1,3.1099588E-1,1.0600551E-1,1.11493506E-1,1.088712E-1,-2.9177046E-1,1.0845397E-1,-3.991346E-3,-1.3687188E-2,-1.09549545E-1],"categories":[],"categories_nodes":[],"categories_segments":[],"categories_sizes":[],"default_left":[0,0,0,0,0,0,0,0,0,0,0,0,0,0,0,0,0,0,0],"id":21,"left_children":[1,3,-1,5,7,-1,9,11,13,-1,15,-1,-1,-1,17,-1,-1,-1,-1],"loss_changes":[1.0675502E4,6.210326E3,0E0,8.3112305E1,3.923537E3,0E0,6.028157E1,7.858887E-1,3.1917283E3,0E0,7.2378204E1,0E0,0E0,0E0,2.1983755E3,0E0,0E0,0E0,0E0],"parents":[2147483647,0,0,1,1,3,3,4,4,6,6,7,7,8,8,10,10,14,14],"right_children":[2,4,-1,6,8,-1,10,12,14,-1,16,-1,-1,-1,18,-1,-1,-1,-1],"split_conditions":[7.009767E-1,5.011594E-1,-1.0628607E-1,4.8940337E-1,1E1,1.0628557E-1,4.01804E-1,3.934038E-1,3.934038E-1,1.07028425E-1,1E1,1.0600551E-1,1.11493506E-1,1.088712E-1,2.2E1,1.0845397E-1,-3.991346E-3,-1.3687188E-2,-1.09549545E-1],"split_indices":[3,3,0,3,4,0,2,2,2,0,4,0,0,0,4,0,0,0,0],"split_type":[0,0,0,0,0,0,0,0,0,0,0,0,0,0,0,0,0,0,0],"sum_hessian":[3.766776E4,3.011643E4,7.5513335E3,7.760427E3,2.2356004E4,7.3220986E3,4.383282E2,2.8482776E3,1.9507727E4,1.7284601E2,2.654822E2,1.0341239E3,1.8141538E3,1.8493008E3,1.7658426E4,8.219689E1,1.8328531E2,1.4806081E4,2.852344E3],"tree_param":{"num_deleted":"0","num_feature":"5","num_nodes":"19","size_leaf_vector":"1"}},{"base_weights":[4.6968122E-4,2.5307053E-1,-1.0564952E-1,1.0287492E0,-2.914303E-4,1.05648994E-1,5.8334976E-1,1.5752938E-1,-1.056017E0,1.0619742E-1,2.889882E-1,2.7766645E-1,-1.1035142E-1,-4.5033297E-1,-1.0715727E-1,1.0733993E-1,-3.5860352E-3,1.08537994E-1,1.3428417E-2,1.3481115E-1,-8.317484E-2],"categories":[],"categories_nodes":[],"categories_segments":[],"categories_sizes":[],"default_left":[0,0,0,0,0,0,0,0,0,0,0,0,0,0,0,0,0,0,0,0,0],"id":22,"left_children":[1,3,-1,5,7,-1,9,11,13,-1,15,17,-1,19,-1,-1,-1,-1,-1,-1,-1],"loss_changes":[9.513089E3,5.651748E3,0E0,8.6868164E1,3.6121365E3,0E0,5.8496246E1,2.8575715E3,2.6081543E1,0E0,6.6241104E1,1.9941797E3,0E0,5.073066E1,0E0,0E0,0E0,0E0,0E0,0E0,0E0],"parents":[2147483647,0,0,1,1,3,3,4,4,6,6,7,7,8,8,10,10,11,11,13,13],"right_children":[2,4,-1,6,8,-1,10,12,14,-1,16,18,-1,20,-1,-1,-1,-1,-1,-1,-1],"split_conditions":[7.009767E-1,5.011594E-1,-1.0564952E-1,4.8940337E-1,6.989262E-1,1.05648994E-1,4.01804E-1,2.2E1,7.015178E-1,1.0619742E-1,1E1,1E1,-1.1035142E-1,1.1E1,-1.0715727E-1,1.0733993E-1,-3.5860352E-3,1.08537994E-1,1.3428417E-2,1.3481115E-1,-8.317484E-2],"split_indices":[3,3,0,3,2,0,2,4,2,0,4,4,0,4,0,0,0,0,0,0,0],"split_type":[0,0,0,0,0,0,0,0,0,0,0,0,0,0,0,0,0,0,0,0,0],"sum_hessian":[3.562885E4,2.875705E4,6.871801E3,7.079572E3,2.1677479E4,6.6631987E3,4.1637326E2,1.8859078E4,2.8184E3,1.5756648E2,2.588068E2,1.72194E4,1.6396774E3,7.132168E1,2.7470781E3,7.511718E1,1.8368959E2,2.5949172E3,1.4624483E4,1.2035861E1,5.9285812E1],"tree_param":{"num_deleted":"0","num_feature":"5","num_nodes":"21","size_leaf_vector":"1"}},{"base_weights":[1.9967223E-4,2.391413E-1,-1.0508012E-1,1.0204625E0,-6.806931E-4,1.05079554E-1,5.5501276E-1,1.0252018E0,-1.5360096E-1,1.05444506E-1,2.6821473E-1,1.0685325E-1,4.9561182E-1,1.0921129E-1,-2.6343286E-1,1.06326304E-1,-3.2226846E-3,5.5737596E-2,-2.3437674E-1,-1.234983E-2,-1.0642492E-1],"categories":[],"categories_nodes":[],"categories_segments":[],"categories_sizes":[],"default_left":[0,0,0,0,0,0,0,0,0,0,0,0,0,0,0,0,0,0,0,0,0],"id":23,"left_children":[1,3,-1,5,7,-1,9,11,13,-1,15,-1,17,-1,19,-1,-1,-1,-1,-1,-1],"loss_changes":[8.474456E3,5.151911E3,0E0,9.058447E1,3.300629E3,0E0,5.6609383E1,6.2101807E1,2.5054575E3,0E0,6.0621727E1,0E0,3.7834312E1,0E0,1.8855709E3,0E0,0E0,0E0,0E0,0E0,0E0],"parents":[2147483647,0,0,1,1,3,3,4,4,6,6,7,7,8,8,10,10,12,12,14,14],"right_children":[2,4,-1,6,8,-1,10,12,14,-1,16,-1,18,-1,20,-1,-1,-1,-1,-1,-1],"split_conditions":[7.009767E-1,5.011594E-1,-1.0508012E-1,4.8940337E-1,4.01804E-1,1.05079554E-1,4.01804E-1,3.934038E-1,1E1,1.05444506E-1,1E1,1.0685325E-1,7.321588E-1,1.0921129E-1,7.015178E-1,1.06326304E-1,-3.2226846E-3,5.5737596E-2,-2.3437674E-1,-1.234983E-2,-1.0642492E-1],"split_indices":[3,3,0,3,2,0,2,2,4,0,4,0,1,0,2,0,0,0,0,0,0],"split_type":[0,0,0,0,0,0,0,0,0,0,0,0,0,0,0,0,0,0,0,0,0],"sum_hessian":[3.3743586E4,2.7493744E4,6.249841E3,6.456316E3,2.1037428E4,6.0601245E3,3.961915E2,2.7283418E3,1.8309086E4,1.4354483E2,2.5264667E2,2.5210532E3,2.0728864E2,1.4827528E3,1.6826332E4,6.859283E1,1.8405385E2,2.0366214E2,3.626501E0,1.4324437E4,2.5018965E3],"tree_param":{"num_deleted":"0","num_feature":"5","num_nodes":"21","size_leaf_vector":"1"}},{"base_weights":[4.2603133E-4,2.2623482E-1,-1.0457011E-1,1.0125213E0,-2.7427674E-4,1.04569495E-1,5.271591E-1,1.3457826E-1,-1.0751002E0,1.0475917E-1,2.4863568E-1,2.4177584E-1,-1.06465355E-1,-1.0914361E-1,-1.0432924E-1,1.0539806E-1,-2.8966835E-3,1.0615378E-1,1.1081116E-2],"categories":[],"categories_nodes":[],"categories_segments":[],"categories_sizes":[],"default_left":[0,0,0,0,0,0,0,0,0,0,0,0,0,0,0,0,0,0,0],"id":24,"left_children":[1,3,-1,5,7,-1,9,11,13,-1,15,17,-1,-1,-1,-1,-1,-1,-1],"loss_changes":[7.560864E3,4.6884766E3,0E0,9.424414E1,2.9625383E3,0E0,5.4629066E1,2.3349146E3,4.5410156E-2,0E0,5.546918E1,1.7897269E3,0E0,0E0,0E0,0E0,0E0,0E0,0E0],"parents":[2147483647,0,0,1,1,3,3,4,4,6,6,7,7,8,8,10,10,11,11],"right_children":[2,4,-1,6,8,-1,10,12,14,-1,16,18,-1,-1,-1,-1,-1,-1,-1],"split_conditions":[7.009767E-1,5.011594E-1,-1.0457011E-1,4.8940337E-1,2.2E1,1.04569495E-1,4.01804E-1,7.015178E-1,6.989262E-1,1.0475917E-1,1E1,3.934038E-1,-1.06465355E-1,-1.0914361E-1,-1.0432924E-1,1.0539806E-1,-2.8966835E-3,1.0615378E-1,1.1081116E-2],"split_indices":[3,3,0,3,4,0,2,2,2,0,4,2,0,0,0,0,0,0,0],"split_type":[0,0,0,0,0,0,0,0,0,0,0,0,0,0,0,0,0,0,0],"sum_hessian":[3.2005078E4,2.632381E4,5.681267E3,5.886476E3,2.0437336E4,5.508804E3,3.7767206E2,1.8159799E4,2.277536E3,1.3069734E2,2.469747E2,1.6670451E4,1.489349E3,1.4827241E3,7.948119E2,6.2592533E1,1.8438217E2,2.2954126E3,1.4375038E4],"tree_param":{"num_deleted":"0","num_feature":"5","num_nodes":"19","size_leaf_vector":"1"}},{"base_weights":[1.75988E-4,2.1312729E-1,-1.0411277E-1,1.0411211E-1,8.32541E-3,1.0669171E-1,-1.1973069E-1,1.0625144E-1,-2.2310054E-1,-1.0137483E-2,-1.0675257E-1],"categories":[],"categories_nodes":[],"categories_segments":[],"categories_sizes":[],"default_left":[0,0,0,0,0,0,0,0,0,0,0],"id":25,"left_children":[1,3,-1,-1,5,-1,7,-1,9,-1,-1],"loss_changes":[6.743263E3,4.2811865E3,0E0,0E0,2.7440198E3,0E0,2.2070627E3,0E0,1.7068711E3,0E0,0E0],"parents":[2147483647,0,0,1,1,4,4,6,6,8,8],"right_children":[2,4,-1,-1,6,-1,8,-1,10,-1,-1],"split_conditions":[7.009767E-1,4.8940337E-1,-1.0411277E-1,1.0411211E-1,1E1,1.0669171E-1,3.934038E-1,1.0625144E-1,2.2E1,-1.0137483E-2,-1.0675257E-1],"split_indices":[3,3,0,0,4,0,2,0,4,0,0],"split_type":[0,0,0,0,0,0,0,0,0,0,0],"sum_hessian":[3.040772E4,2.5245664E4,5.162057E3,5.005368E3,2.0240295E4,2.1834233E3,1.8056873E4,1.4511165E3,1.6605756E4,1.4514569E4,2.0911868E3],"tree_param":{"num_deleted":"0","num_feature":"5","num_nodes":"11","size_leaf_vector":"1"}},{"base_weights":[4.001471E-4,2.0089217E-1,-1.03702165E-1,1.03701465E-1,8.073014E-3,1.2813213E-1,-1.0506313E-1,1.0601147E-1,1.0247717E-2,1.0384815E-2,-1.0733584E-1],"categories":[],"categories_nodes":[],"categories_segments":[],"categories_sizes":[],"default_left":[0,0,0,0,0,0,0,0,0,0,0],"id":26,"left_children":[1,3,-1,-1,5,7,-1,-1,9,-1,-1],"loss_changes":[6.0222803E3,3.9119424E3,0E0,0E0,2.5065007E3,1.9458365E3,0E0,0E0,1.5948713E3,0E0,0E0],"parents":[2147483647,0,0,1,1,4,4,5,5,8,8],"right_children":[2,4,-1,-1,6,8,-1,-1,10,-1,-1],"split_conditions":[7.009767E-1,4.8940337E-1,-1.03702165E-1,1.03701465E-1,7.015178E-1,1E1,-1.0506313E-1,1.0601147E-1,2.2E1,1.0384815E-2,-1.0733584E-1],"split_indices":[3,3,0,0,2,4,0,0,4,0,0],"split_type":[0,0,0,0,0,0,0,0,0,0,0],"sum_hessian":[2.895199E4,2.4263613E4,4.6883765E3,4.5460747E3,1.971754E4,1.7710062E4,2.0074764E3,1.9876786E3,1.5722384E4,1.4473119E4,1.2492643E3],"tree_param":{"num_deleted":"0","num_feature":"5","num_nodes":"11","size_leaf_vector":"1"}},{"base_weights":[1.2928061E-4,1.8850803E-1,-1.0333315E-1,1.0333236E-1,7.13025E-3,9.934064E-1,-1.1532379E-1,1.0482055E-1,4.618401E-1,-4.1799187E-3,-1.045498E-1,5.67612E-2,-1.1075876E-1,1.06502645E-1,-9.233224E-3],"categories":[],"categories_nodes":[],"categories_segments":[],"categories_sizes":[],"default_left":[0,0,0,0,0,0,0,0,0,0,0,0,0,0,0],"id":27,"left_children":[1,3,-1,-1,5,7,9,-1,11,13,-1,-1,-1,-1,-1],"loss_changes":[5.37617E3,3.5790847E3,0E0,0E0,2.3226052E3,6.1385986E1,1.7685872E3,0E0,3.3876343E1,1.4404961E3,0E0,0E0,0E0,0E0,0E0],"parents":[2147483647,0,0,1,1,4,4,5,5,6,6,8,8,9,9],"right_children":[2,4,-1,-1,6,8,10,-1,12,14,-1,-1,-1,-1,-1],"split_conditions":[7.009767E-1,4.8940337E-1,-1.0333315E-1,1.0333236E-1,4.01804E-1,3.934038E-1,7.015178E-1,1.0482055E-1,5.526626E-1,1E1,-1.045498E-1,5.67612E-2,-1.1075876E-1,1.06502645E-1,-9.233224E-3],"split_indices":[3,3,0,0,2,2,2,0,1,4,0,0,0,0,0],"split_type":[0,0,0,0,0,0,0,0,0,0,0,0,0,0,0],"sum_hessian":[2.7613127E4,2.3356527E4,4.2565996E3,4.127393E3,1.9229135E4,2.122982E3,1.7106152E4,1.9236964E3,1.9928557E2,1.5281245E4,1.8249078E3,1.8730074E2,1.1984837E1,1.1630797E3,1.4118165E4],"tree_param":{"num_deleted":"0","num_feature":"5","num_nodes":"15","size_leaf_vector":"1"}},{"base_weights":[3.3786977E-4,1.7716135E-1,-1.03001155E-1,1.030003E-1,6.9108703E-3,1.0433232E-1,-9.959678E-2,4.0389206E-3,-1.0536384E-1,8.677374E-3,-1.04633786E-1],"categories":[],"categories_nodes":[],"categories_segments":[],"categories_sizes":[],"default_left":[0,0,0,0,0,0,0,0,0,0,0],"id":28,"left_children":[1,3,-1,-1,5,-1,7,9,-1,-1,-1],"loss_changes":[4.806473E3,3.269436E3,0E0,0E0,2.0721882E3,0E0,1.6831074E3,1.3345638E3,0E0,0E0,0E0],"parents":[2147483647,0,0,1,1,4,4,6,6,7,7],"right_children":[2,4,-1,-1,6,-1,8,10,-1,-1,-1],"split_conditions":[7.009767E-1,4.8940337E-1,-1.03001155E-1,1.030003E-1,3.934038E-1,1.0433232E-1,2.2E1,7.015178E-1,-1.0536384E-1,8.677374E-3,-1.04633786E-1],"split_indices":[3,3,0,0,2,0,4,2,0,0,0],"split_type":[0,0,0,0,0,0,0,0,0,0,0],"sum_hessian":[2.6379654E4,2.251634E4,3.8633154E3,3.746054E3,1.8770285E4,1.748366E3,1.702192E4,1.5354938E4,1.6669817E3,1.4234639E4,1.1202994E3],"tree_param":{"num_deleted":"0","num_feature":"5","num_nodes":"11","size_leaf_vector":"1"}},{"base_weights":[9.424471E-5,1.6570841E-1,-1.0270216E-1,1.0270125E-1,6.086614E-3,1.0478576E-1,-9.244338E-2,2.6437847E-3,-1.0482007E-1,1.0447001E-1,-7.712278E-3],"categories":[],"categories_nodes":[],"categories_segments":[],"categories_sizes":[],"default_left":[0,0,0,0,0,0,0,0,0,0,0],"id":29,"left_children":[1,3,-1,-1,5,-1,7,9,-1,-1,-1],"loss_changes":[4.295511E3,2.9896677E3,0E0,0E0,1.883321E3,0E0,1.5233799E3,1.2674039E3,0E0,0E0,0E0],"parents":[2147483647,0,0,1,1,4,4,6,6,7,7],"right_children":[2,4,-1,-1,6,-1,8,10,-1,-1,-1],"split_conditions":[7.009767E-1,4.8940337E-1,-1.0270216E-1,1.0270125E-1,1E1,1.0478576E-1,2.2E1,3.934038E-1,-1.0482007E-1,1.0447001E-1,-7.712278E-3],"split_indices":[3,3,0,0,4,0,4,2,0,0,0],"split_type":[0,0,0,0,0,0,0,0,0,0,0],"sum_hessian":[2.5250123E4,2.174479E4,3.5053333E3,3.398949E3,1.834584E4,1.5843765E3,1.6761465E4,1.5245687E4,1.5157778E3,1.0831755E3,1.4162511E4],"tree_param":{"num_deleted":"0","num_feature":"5","num_nodes":"11","size_leaf_vector":"1"}},{"base_weights":[3.0023357E-4,1.5516883E-1,-1.02432646E-1,1.0243165E-1,5.910498E-3,9.7586155E-2,-1.0359716E-1,1.0430062E-1,7.1761385E-3,1.2715547E-2,-6.301203E-2],"categories":[],"categories_nodes":[],"categories_segments":[],"categories_sizes":[],"default_left":[0,0,0,0,0,0,0,0,0,0,0],"id":30,"left_children":[1,3,-1,-1,5,7,-1,-1,9,-1,-1],"loss_changes":[3.8439863E3,2.7299417E3,0E0,0E0,1.7156052E3,1.4110979E3,0E0,0E0,1.1522894E3,0E0,0E0],"parents":[2147483647,0,0,1,1,4,4,5,5,8,8],"right_children":[2,4,-1,-1,6,8,-1,-1,10,-1,-1],"split_conditions":[7.009767E-1,4.8940337E-1,-1.02432646E-1,1.0243165E-1,7.015178E-1,1E1,-1.0359716E-1,1.0430062E-1,5.347171E-1,1.2715547E-2,-6.301203E-2],"split_indices":[3,3,0,0,2,4,0,0,1,0,0],"split_type":[0,0,0,0,0,0,0,0,0,0,0],"sum_hessian":[2.4222385E4,2.1042705E4,3.1796797E3,3.0831753E3,1.7959531E4,1.6507898E4,1.451631E3,1.439934E3,1.5067966E4,1.2681339E4,2.3866262E3],"tree_param":{"num_deleted":"0","num_feature":"5","num_nodes":"11","size_leaf_vector":"1"}},{"base_weights":[2.5188108E-4,1.4421217E-1,-1.0218944E-1,1.0218834E-1,5.3914865E-3,1.0344831E-1,-8.276598E-2,2.927569E-3,-1.0431116E-1,7.105851E-3,-1.0369625E-1],"categories":[],"categories_nodes":[],"categories_segments":[],"categories_sizes":[],"default_left":[0,0,0,0,0,0,0,0,0,0,0],"id":31,"left_children":[1,3,-1,-1,5,-1,7,9,-1,-1,-1],"loss_changes":[3.4382385E3,2.4953997E3,0E0,0E0,1.6045155E3,0E0,1.3406427E3,1.0597587E3,0E0,0E0,0E0],"parents":[2147483647,0,0,1,1,4,4,6,6,7,7],"right_children":[2,4,-1,-1,6,-1,8,10,-1,-1,-1],"split_conditions":[7.009767E-1,4.8940337E-1,-1.0218944E-1,1.0218834E-1,3.934038E-1,1.0344831E-1,2.2E1,7.015178E-1,-1.0431116E-1,7.105851E-3,-1.0369625E-1],"split_indices":[3,3,0,0,2,0,4,2,0,0,0],"split_type":[0,0,0,0,0,0,0,0,0,0,0],"sum_hessian":[2.3363775E4,2.0480182E4,2.883594E3,2.7960771E3,1.7684105E4,1.394532E3,1.6289572E4,1.4956015E4,1.333558E3,1.4037261E4,9.1875385E2],"tree_param":{"num_deleted":"0","num_feature":"5","num_nodes":"11","size_leaf_vector":"1"}},{"base_weights":[2.8816808E-5,1.3420889E-1,-1.01969756E-1,1.0196853E-1,4.7047427E-3,1.0382594E-1,-7.6561436E-2,1.9126727E-3,-1.0387248E-1,1.03580855E-1,-6.408602E-3],"categories":[],"categories_nodes":[],"categories_segments":[],"categories_sizes":[],"default_left":[0,0,0,0,0,0,0,0,0,0,0],"id":32,"left_children":[1,3,-1,-1,5,-1,7,9,-1,-1,-1],"loss_changes":[3.0776016E3,2.2793633E3,0E0,0E0,1.4566835E3,0E0,1.2140253E3,1.0145439E3,0E0,0E0,0E0],"parents":[2147483647,0,0,1,1,4,4,6,6,7,7],"right_children":[2,4,-1,-1,6,-1,8,10,-1,-1,-1],"split_conditions":[7.009767E-1,4.8940337E-1,-1.01969756E-1,1.0196853E-1,1E1,1.0382594E-1,2.2E1,3.934038E-1,-1.0387248E-1,1.03580855E-1,-6.408602E-3],"split_indices":[3,3,0,0,4,0,4,2,0,0,0],"split_type":[0,0,0,0,0,0,0,0,0,0,0],"sum_hessian":[2.2490656E4,1.9876137E4,2.6145208E3,2.5351736E3,1.7340963E4,1.2632316E3,1.607773E4,1.4866237E4,1.2114933E3,8.911603E2,1.3975077E4],"tree_param":{"num_deleted":"0","num_feature":"5","num_nodes":"11","size_leaf_vector":"1"}},{"base_weights":[2.2376819E-4,1.2510258E-1,-1.0177108E-1,1.0176974E-1,4.5851455E-3,7.98899E-2,-1.0285377E-1,1.0343534E-1,5.471378E-3,2.1916803E-2,-3.1072551E-2],"categories":[],"categories_nodes":[],"categories_segments":[],"categories_sizes":[],"default_left":[0,0,0,0,0,0,0,0,0,0,0],"id":33,"left_children":[1,3,-1,-1,5,7,-1,-1,9,-1,-1],"loss_changes":[2.7583242E3,2.079143E3,0E0,0E0,1.3249667E3,1.1274878E3,0E0,0E0,9.9513513E2,0E0,0E0],"parents":[2147483647,0,0,1,1,4,4,5,5,8,8],"right_children":[2,4,-1,-1,6,8,-1,-1,10,-1,-1],"split_conditions":[7.009767E-1,4.8940337E-1,-1.0177108E-1,1.0176974E-1,7.015178E-1,1E1,-1.0285377E-1,1.0343534E-1,4.4449314E1,2.1916803E-2,-3.1072551E-2],"split_indices":[3,3,0,0,2,4,0,0,0,0,0],"split_type":[0,0,0,0,0,0,0,0,0,0,0],"sum_hessian":[2.1696848E4,1.9326746E4,2.3701016E3,2.2981785E3,1.7028568E4,1.5872535E4,1.1560331E3,1.1471196E3,1.4725416E4,8.787101E3,5.938315E3],"tree_param":{"num_deleted":"0","num_feature":"5","num_nodes":"11","size_leaf_vector":"1"}},{"base_weights":[1.9293457E-4,1.15781575E-1,-1.0159119E-1,1.0222601E-1,1.2139962E-3,1.0290798E-1,-7.797351E-2,-7.5115617E-3,-1.0347189E-1,1.0278231E-2,-5.967322E-2],"categories":[],"categories_nodes":[],"categories_segments":[],"categories_sizes":[],"default_left":[0,0,0,0,0,0,0,0,0,0,0],"id":34,"left_children":[1,3,-1,-1,5,-1,7,9,-1,-1,-1],"loss_changes":[2.4713638E3,1.9620569E3,0E0,0E0,1.3653666E3,0E0,1.049959E3,9.428671E2,0E0,0E0,0E0],"parents":[2147483647,0,0,1,1,4,4,6,6,7,7],"right_children":[2,4,-1,-1,6,-1,8,10,-1,-1,-1],"split_conditions":[7.009767E-1,3.934038E-1,-1.0159119E-1,1.0222601E-1,1E1,1.0290798E-1,2.2E1,5.347171E-1,-1.0347189E-1,1.0278231E-2,-5.967322E-2],"split_indices":[3,2,0,0,4,0,4,1,0,0,0],"split_type":[0,0,0,0,0,0,0,0,0,0,0],"sum_hessian":[2.1039803E4,1.8891639E4,2.1481628E3,2.118868E3,1.6772771E4,1.1988981E3,1.5573873E4,1.4506513E4,1.0673612E3,1.2219937E4,2.286576E3],"tree_param":{"num_deleted":"0","num_feature":"5","num_nodes":"11","size_leaf_vector":"1"}},{"base_weights":[1.8873958E-4,1.0994847E-1,-1.02023184E-1,1.0147537E-1,3.363847E-3,7.887522E-2,-1.02902964E-1,1.0247047E-1,1.218639E-2,2.081147E-2,-2.7901469E-2],"categories":[],"categories_nodes":[],"categories_segments":[],"categories_sizes":[],"default_left":[0,0,0,0,0,0,0,0,0,0,0],"id":35,"left_children":[1,3,-1,-1,5,7,-1,-1,9,-1,-1],"loss_changes":[2.287137E3,1.7780754E3,0E0,0E0,1.2860247E3,9.6960236E2,0E0,0E0,8.193978E2,0E0,0E0],"parents":[2147483647,0,0,1,1,4,4,5,5,8,8],"right_children":[2,4,-1,-1,6,8,-1,-1,10,-1,-1],"split_conditions":[7.015178E-1,4.8940337E-1,-1.02023184E-1,1.0147537E-1,2.2E1,3.934038E-1,-1.02902964E-1,1.0247047E-1,4.4449314E1,2.081147E-2,-2.7901469E-2],"split_indices":[2,3,0,0,4,2,0,0,0,0,0],"split_type":[0,0,0,0,0,0,0,0,0,0,0],"sum_hessian":[2.0418666E4,1.843647E4,1.9821941E3,1.9420168E3,1.6494455E4,1.53711045E4,1.1233505E3,1.0114612E3,1.4359643E4,8.584222E3,5.7754214E3],"tree_param":{"num_deleted":"0","num_feature":"5","num_nodes":"11","size_leaf_vector":"1"}},{"base_weights":[1.4071265E-4,1.0218526E-1,-1.01324216E-1,1.0132265E-1,3.5807954E-3,6.544074E-2,-1.0227201E-1,1.0275475E-1,4.2322646E-3,8.337187E-3,-6.68476E-2],"categories":[],"categories_nodes":[],"categories_segments":[],"categories_sizes":[],"default_left":[0,0,0,0,0,0,0,0,0,0,0],"id":36,"left_children":[1,3,-1,-1,5,7,-1,-1,9,-1,-1],"loss_changes":[2.0520947E3,1.6195707E3,0E0,0E0,1.0329384E3,9.0365576E2,0E0,0E0,7.681862E2,0E0,0E0],"parents":[2147483647,0,0,1,1,4,4,5,5,8,8],"right_children":[2,4,-1,-1,6,8,-1,-1,10,-1,-1],"split_conditions":[7.009767E-1,4.8940337E-1,-1.01324216E-1,1.0132265E-1,7.015178E-1,1E1,-1.0227201E-1,1.0275475E-1,6.248371E-1,8.337187E-3,-6.68476E-2],"split_indices":[3,3,0,0,2,4,0,0,1,0,0],"split_type":[0,0,0,0,0,0,0,0,0,0,0],"sum_hessian":[1.9842219E4,1.8027777E4,1.8144426E3,1.7597307E3,1.6268046E4,1.534412E4,9.2392554E2,9.1684735E2,1.4427272E4,1.290944E4,1.5178326E3],"tree_param":{"num_deleted":"0","num_feature":"5","num_nodes":"11","size_leaf_vector":"1"}},{"base_weights":[9.760953E-5,1.01748265E-1,-9.422428E-2,-1.1965325E-4,-1.0118554E-1,1.0232071E-1,-6.456028E-2,-6.594119E-3,-1.0279789E-1,2.6756123E-2,-1.8202405E-2],"categories":[],"categories_nodes":[],"categories_segments":[],"categories_sizes":[],"default_left":[0,0,0,0,0,0,0,0,0,0,0],"id":37,"left_children":[1,-1,3,5,-1,-1,7,9,-1,-1,-1],"loss_changes":[1.854393E3,0E0,1.5271373E3,1.0578602E3,0E0,0E0,8.427884E2,6.847312E2,0E0,0E0,0E0],"parents":[2147483647,0,0,2,2,3,3,6,6,7,7],"right_children":[2,-1,4,6,-1,-1,8,10,-1,-1,-1],"split_conditions":[3.934038E-1,1.01748265E-1,7.009767E-1,1E1,-1.0118554E-1,1.0232071E-1,2.2E1,3.7142467E1,-1.0279789E-1,2.6756123E-2,-1.8202405E-2],"split_indices":[2,0,3,4,0,0,4,0,0,0,0],"split_type":[0,0,0,0,0,0,0,0,0,0,0],"sum_hessian":[1.9322309E4,1.6385557E3,1.7683754E4,1.6039841E4,1.6439128E3,9.493378E2,1.5090503E4,1.4235028E4,8.554744E2,5.554359E3,8.68067E3],"tree_param":{"num_deleted":"0","num_feature":"5","num_nodes":"11","size_leaf_vector":"1"}},{"base_weights":[1.1844233E-4,9.00844E-2,-1.0158515E-1,1.0156778E-1,3.1320665E-3,6.44722E-2,-1.0233015E-1,1.020752E-1,5.877525E-3,9.725392E-3,-4.850077E-2],"categories":[],"categories_nodes":[],"categories_segments":[],"categories_sizes":[],"default_left":[0,0,0,0,0,0,0,0,0,0,0],"id":38,"left_children":[1,3,-1,-1,5,7,-1,-1,9,-1,-1],"loss_changes":[1.7218657E3,1.392809E3,0E0,0E0,9.9615894E2,8.365347E2,0E0,0E0,6.31094E2,0E0,0E0],"parents":[2147483647,0,0,1,1,4,4,5,5,8,8],"right_children":[2,4,-1,-1,6,8,-1,-1,10,-1,-1],"split_conditions":[7.015178E-1,3.934038E-1,-1.0158515E-1,1.0156778E-1,2.2E1,1E1,-1.0233015E-1,1.020752E-1,5.347171E-1,9.725392E-3,-4.850077E-2],"split_indices":[2,2,0,0,4,4,0,0,1,0,0],"split_type":[0,0,0,0,0,0,0,0,0,0,0],"sum_hessian":[1.8836236E4,1.7304777E4,1.5314578E3,1.48513E3,1.5819648E4,1.4928454E4,8.91194E2,8.609595E2,1.4067495E4,1.1860509E4,2.2069863E3],"tree_param":{"num_deleted":"0","num_feature":"5","num_nodes":"11","size_leaf_vector":"1"}},{"base_weights":[7.476716E-5,8.3001114E-2,-1.014197E-1,1.0103623E-1,-1.9591129E-5,5.5856436E-2,-1.0208257E-1,1.0175182E-1,5.559937E-3,1.3287946E-2,-3.2598563E-2],"categories":[],"categories_nodes":[],"categories_segments":[],"categories_sizes":[],"default_left":[0,0,0,0,0,0,0,0,0,0,0],"id":39,"left_children":[1,3,-1,-1,5,7,-1,-1,9,-1,-1],"loss_changes":[1.5456107E3,1.3078497E3,0E0,0E0,8.8942725E2,7.15079E2,0E0,0E0,5.931412E2,0E0,0E0],"parents":[2147483647,0,0,1,1,4,4,5,5,8,8],"right_children":[2,4,-1,-1,6,8,-1,-1,10,-1,-1],"split_conditions":[7.015178E-1,4.8940337E-1,-1.014197E-1,1.0103623E-1,2.2E1,3.934038E-1,-1.0208257E-1,1.0175182E-1,5.039178E1,1.3287946E-2,-3.2598563E-2],"split_indices":[2,3,0,0,4,2,0,0,0,0,0],"split_type":[0,0,0,0,0,0,0,0,0,0,0],"sum_hessian":[1.8374096E4,1.6986229E4,1.3878674E3,1.3948007E3,1.5591428E4,1.4783184E4,8.0824414E2,7.3380023E2,1.4049384E4,1.0151588E4,3.8977954E3],"tree_param":{"num_deleted":"0","num_feature":"5","num_nodes":"11","size_leaf_vector":"1"}},{"base_weights":[4.7410285E-5,7.896725E-2,-1.0092366E-1,1.0092229E-1,2.5499444E-3,4.89978E-2,-1.01599455E-1,1.0196431E-1,2.9447011E-3,1.01792656E-1,-3.4294524E-3],"categories":[],"categories_nodes":[],"categories_segments":[],"categories_sizes":[],"default_left":[0,0,0,0,0,0,0,0,0,0,0],"id":40,"left_children":[1,3,-1,-1,5,7,-1,-1,9,-1,-1],"loss_changes":[1.4304905E3,1.1840815E3,0E0,0E0,7.282929E2,6.581271E2,0E0,0E0,5.3134814E2,0E0,0E0],"parents":[2147483647,0,0,1,1,4,4,5,5,8,8],"right_children":[2,4,-1,-1,6,8,-1,-1,10,-1,-1],"split_conditions":[7.009767E-1,4.8940337E-1,-1.0092366E-1,1.0092229E-1,7.015178E-1,1E1,-1.01599455E-1,1.0196431E-1,3.934038E-1,1.01792656E-1,-3.4294524E-3],"split_indices":[3,3,0,0,2,4,0,0,2,0,0],"split_type":[0,0,0,0,0,0,0,0,0,0,0],"sum_hessian":[1.7957133E4,1.6655684E4,1.3014508E3,1.2634188E3,1.5392264E4,1.4721866E4,6.703974E2,6.6589465E2,1.4055972E4,4.965238E2,1.3559448E4],"tree_param":{"num_deleted":"0","num_feature":"5","num_nodes":"11","size_leaf_vector":"1"}},{"base_weights":[1.7399345E-4,7.2864E-2,-1.008196E-1,1.008179E-1,2.4833204E-3,4.6107236E-2,-1.0199096E-1,1.0174459E-1,4.132078E-3,5.1769894E-2,-6.8728398E-3],"categories":[],"categories_nodes":[],"categories_segments":[],"categories_sizes":[],"default_left":[0,0,0,0,0,0,0,0,0,0,0],"id":41,"left_children":[1,3,-1,-1,5,7,-1,-1,9,-1,-1],"loss_changes":[1.2860623E3,1.0773276E3,0E0,0E0,6.789376E2,5.952502E2,0E0,0E0,5.2374023E2,0E0,0E0],"parents":[2147483647,0,0,1,1,4,4,5,5,8,8],"right_children":[2,4,-1,-1,6,8,-1,-1,10,-1,-1],"split_conditions":[7.009767E-1,4.8940337E-1,-1.008196E-1,1.008179E-1,2.2E1,1E1,-1.0199096E-1,1.0174459E-1,3.0022234E-1,5.1769894E-2,-6.8728398E-3],"split_indices":[3,3,0,0,4,4,0,0,1,0,0],"split_type":[0,0,0,0,0,0,0,0,0,0,0],"sum_hessian":[1.7543564E4,1.6364808E4,1.1787563E3,1.1443109E3,1.5220496E4,1.4598554E4,6.219427E2,6.037627E2,1.3994791E4,1.7380197E3,1.2256771E4],"tree_param":{"num_deleted":"0","num_feature":"5","num_nodes":"11","size_leaf_vector":"1"}},{"base_weights":[1.6098983E-4,6.758165E-2,-1.0110581E-1,1.0109051E-1,2.3703924E-3,4.766591E-2,-1.0164734E-1,1.0145525E-1,4.3019494E-3,6.9649364E-3,-5.5953603E-2],"categories":[],"categories_nodes":[],"categories_segments":[],"categories_sizes":[],"default_left":[0,0,0,0,0,0,0,0,0,0,0],"id":42,"left_children":[1,3,-1,-1,5,7,-1,-1,9,-1,-1],"loss_changes":[1.1728947E3,9.921372E2,0E0,0E0,6.9627563E2,6.056578E2,0E0,0E0,5.0947153E2,0E0,0E0],"parents":[2147483647,0,0,1,1,4,4,5,5,8,8],"right_children":[2,4,-1,-1,6,8,-1,-1,10,-1,-1],"split_conditions":[7.015178E-1,3.934038E-1,-1.0110581E-1,1.0109051E-1,2.2E1,1E1,-1.0164734E-1,1.0145525E-1,6.248371E-1,6.9649364E-3,-5.5953603E-2],"split_indices":[2,2,0,0,4,4,0,0,1,0,0],"split_type":[0,0,0,0,0,0,0,0,0,0,0],"sum_hessian":[1.7201654E4,1.6127334E4,1.0743191E3,1.0418462E3,1.5085488E4,1.4444281E4,6.412072E2,6.190445E2,1.3825236E4,1.2390128E4,1.4351083E3],"tree_param":{"num_deleted":"0","num_feature":"5","num_nodes":"11","size_leaf_vector":"1"}},{"base_weights":[1.1027872E-4,6.370257E-2,-1.0067978E-1,1.0067759E-1,2.0831595E-3,4.012676E-2,-1.0124277E-1,1.0120503E-1,2.6271045E-3,1.0125763E-2,-3.3610616E-2],"categories":[],"categories_nodes":[],"categories_segments":[],"categories_sizes":[],"default_left":[0,0,0,0,0,0,0,0,0,0,0],"id":43,"left_children":[1,3,-1,-1,5,7,-1,-1,9,-1,-1],"loss_changes":[1.0802852E3,9.2216595E2,0E0,0E0,5.749863E2,5.233436E2,0E0,0E0,4.6197797E2,0E0,0E0],"parents":[2147483647,0,0,1,1,4,4,5,5,8,8],"right_children":[2,4,-1,-1,6,8,-1,-1,10,-1,-1],"split_conditions":[7.009767E-1,4.8940337E-1,-1.0067978E-1,1.0067759E-1,7.015178E-1,3.934038E-1,-1.0124277E-1,1.0120503E-1,5.309315E1,1.0125763E-2,-3.3610616E-2],"split_indices":[3,3,0,0,2,2,0,0,0,0,0],"split_type":[0,0,0,0,0,0,0,0,0,0,0],"sum_hessian":[1.6869129E4,1.5867911E4,1.0012171E3,9.722636E2,1.4895647E4,1.4358184E4,5.374636E2,5.324351E2,1.3825749E4,1.0708428E4,3.1173213E3],"tree_param":{"num_deleted":"0","num_feature":"5","num_nodes":"11","size_leaf_vector":"1"}},{"base_weights":[8.480406E-5,5.8374498E-2,-1.0059469E-1,1.00592114E-1,1.8802966E-3,3.752268E-2,-1.0156802E-1,1.0136107E-1,3.2399253E-3,2.1818673E-2,-1.3448434E-2],"categories":[],"categories_nodes":[],"categories_segments":[],"categories_sizes":[],"default_left":[0,0,0,0,0,0,0,0,0,0,0],"id":44,"left_children":[1,3,-1,-1,5,7,-1,-1,9,-1,-1],"loss_changes":[9.718763E2,8.385902E2,0E0,0E0,5.362692E2,4.7804E2,0E0,0E0,4.0861557E2,0E0,0E0],"parents":[2147483647,0,0,1,1,4,4,5,5,8,8],"right_children":[2,4,-1,-1,6,8,-1,-1,10,-1,-1],"split_conditions":[7.009767E-1,4.8940337E-1,-1.0059469E-1,1.00592114E-1,2.2E1,1E1,-1.0156802E-1,1.0136107E-1,3.7142467E1,2.1818673E-2,-1.3448434E-2],"split_indices":[3,3,0,0,4,4,0,0,0,0,0],"split_type":[0,0,0,0,0,0,0,0,0,0,0],"sum_hessian":[1.6571242E4,1.5664576E4,9.066669E2,8.8045056E2,1.4784125E4,1.4284733E4,4.9939236E2,4.837241E2,1.3801009E4,5.389309E3,8.4117E3],"tree_param":{"num_deleted":"0","num_feature":"5","num_nodes":"11","size_leaf_vector":"1"}},{"base_weights":[7.134288E-5,5.4480005E-2,-1.0085119E-1,1.0083713E-1,1.7988364E-3,3.8455307E-2,-1.0128684E-1,1.0112293E-1,3.3542982E-3,7.656518E-3,-3.9346676E-2],"categories":[],"categories_nodes":[],"categories_segments":[],"categories_sizes":[],"default_left":[0,0,0,0,0,0,0,0,0,0,0],"id":45,"left_children":[1,3,-1,-1,5,7,-1,-1,9,-1,-1],"loss_changes":[8.944579E2,7.771684E2,0E0,0E0,5.4519354E2,4.830484E2,0E0,0E0,3.9673697E2,0E0,0E0],"parents":[2147483647,0,0,1,1,4,4,5,5,8,8],"right_children":[2,4,-1,-1,6,8,-1,-1,10,-1,-1],"split_conditions":[7.015178E-1,3.934038E-1,-1.0085119E-1,1.0083713E-1,2.2E1,1E1,-1.0128684E-1,1.0112293E-1,5.347171E-1,7.656518E-3,-3.9346676E-2],"split_indices":[2,2,0,0,4,4,0,0,1,0,0],"split_type":[0,0,0,0,0,0,0,0,0,0,0],"sum_hessian":[1.6297718E4,1.5464426E4,8.332923E2,8.0841516E2,1.4656011E4,1.4145929E4,5.1008212E2,4.9168817E2,1.365424E4,1.1528175E4,2.1260654E3],"tree_param":{"num_deleted":"0","num_feature":"5","num_nodes":"11","size_leaf_vector":"1"}},{"base_weights":[3.7182283E-5,5.0923545E-2,-1.00483395E-1,1.004801E-1,1.577747E-3,3.263088E-2,-1.00939654E-1,1.00907706E-1,2.0153732E-3,4.3964382E-2,-5.9716757E-3],"categories":[],"categories_nodes":[],"categories_segments":[],"categories_sizes":[],"default_left":[0,0,0,0,0,0,0,0,0,0,0],"id":46,"left_children":[1,3,-1,-1,5,7,-1,-1,9,-1,-1],"loss_changes":[8.1993225E2,7.183798E2,0E0,0E0,4.5563196E2,4.2093573E2,0E0,0E0,3.6889264E2,0E0,0E0],"parents":[2147483647,0,0,1,1,4,4,5,5,8,8],"right_children":[2,4,-1,-1,6,8,-1,-1,10,-1,-1],"split_conditions":[7.009767E-1,4.8940337E-1,-1.00483395E-1,1.004801E-1,7.015178E-1,3.934038E-1,-1.00939654E-1,1.00907706E-1,3.0022234E-1,4.3964382E-2,-5.9716757E-3],"split_indices":[3,3,0,0,2,2,0,0,1,0,0],"split_type":[0,0,0,0,0,0,0,0,0,0,0],"sum_hessian":[1.6032895E4,1.526103E4,7.718645E2,7.4969574E2,1.4511335E4,1.4079826E4,4.3150888E2,4.2706674E2,1.3652759E4,1.6870294E3,1.19657295E4],"tree_param":{"num_deleted":"0","num_feature":"5","num_nodes":"11","size_leaf_vector":"1"}},{"base_weights":[4.2112915E-5,4.6582527E-2,-1.00411296E-1,1.00407556E-1,1.445084E-3,3.0534703E-2,-1.01205684E-1,1.01031505E-1,2.5632721E-3,8.670356E-3,-2.8663859E-2],"categories":[],"categories_nodes":[],"categories_segments":[],"categories_sizes":[],"default_left":[0,0,0,0,0,0,0,0,0,0,0],"id":47,"left_children":[1,3,-1,-1,5,7,-1,-1,9,-1,-1],"loss_changes":[7.384254E2,6.526361E2,0E0,0E0,4.2522473E2,3.8424243E2,0E0,0E0,3.3174893E2,0E0,0E0],"parents":[2147483647,0,0,1,1,4,4,5,5,8,8],"right_children":[2,4,-1,-1,6,8,-1,-1,10,-1,-1],"split_conditions":[7.009767E-1,4.8940337E-1,-1.00411296E-1,1.00407556E-1,2.2E1,1E1,-1.01205684E-1,1.01031505E-1,5.309315E1,8.670356E-3,-2.8663859E-2],"split_indices":[3,3,0,0,4,4,0,0,0,0,0],"split_type":[0,0,0,0,0,0,0,0,0,0,0],"sum_hessian":[1.5798672E4,1.5099783E4,6.988887E2,6.7882104E2,1.4420962E4,1.4019542E4,4.0142026E2,3.881554E2,1.3631387E4,1.0559817E4,3.0715693E3],"tree_param":{"num_deleted":"0","num_feature":"5","num_nodes":"11","size_leaf_vector":"1"}},{"base_weights":[2.1558102E-5,4.3733623E-2,-1.0063731E-1,1.006239E-1,1.3750996E-3,3.1009752E-2,-1.0097581E-1,1.0083552E-1,2.6267602E-3,5.4832962E-3,-4.5530412E-2],"categories":[],"categories_nodes":[],"categories_segments":[],"categories_sizes":[],"default_left":[0,0,0,0,0,0,0,0,0,0,0],"id":48,"left_children":[1,3,-1,-1,5,7,-1,-1,9,-1,-1],"loss_changes":[6.8557776E2,6.089265E2,0E0,0E0,4.287343E2,3.8559937E2,0E0,0E0,3.2298938E2,0E0,0E0],"parents":[2147483647,0,0,1,1,4,4,5,5,8,8],"right_children":[2,4,-1,-1,6,8,-1,-1,10,-1,-1],"split_conditions":[7.015178E-1,3.934038E-1,-1.0063731E-1,1.006239E-1,2.2E1,1E1,-1.0097581E-1,1.0083552E-1,6.248371E-1,5.4832962E-3,-4.5530412E-2],"split_indices":[2,2,0,0,4,4,0,0,1,0,0],"split_type":[0,0,0,0,0,0,0,0,0,0,0],"sum_hessian":[1.5582292E4,1.4934575E4,6.4771655E2,6.285853E2,1.4305989E4,1.3899585E4,4.0640466E2,3.9129037E2,1.3508295E4,1.2126679E4,1.3816161E3],"tree_param":{"num_deleted":"0","num_feature":"5","num_nodes":"11","size_leaf_vector":"1"}},{"base_weights":[-1.0534923E-5,4.0545877E-2,-1.00318395E-1,1.0031388E-1,1.185712E-3,2.6503261E-2,-1.00673676E-1,1.0064626E-1,1.5447102E-3,4.8603963E-2,-4.38015E-3],"categories":[],"categories_nodes":[],"categories_segments":[],"categories_sizes":[],"default_left":[0,0,0,0,0,0,0,0,0,0,0],"id":49,"left_children":[1,3,-1,-1,5,7,-1,-1,9,-1,-1],"loss_changes":[6.2547815E2,5.5983905E2,0E0,0E0,3.6230234E2,3.387445E2,0E0,0E0,2.967686E2,0E0,0E0],"parents":[2147483647,0,0,1,1,4,4,5,5,8,8],"right_children":[2,4,-1,-1,6,8,-1,-1,10,-1,-1],"split_conditions":[7.009767E-1,4.8940337E-1,-1.00318395E-1,1.0031388E-1,7.015178E-1,3.934038E-1,-1.00673676E-1,1.0064626E-1,2.4266244E-1,4.8603963E-2,-4.38015E-3],"split_indices":[3,3,0,0,2,2,0,0,1,0,0],"split_type":[0,0,0,0,0,0,0,0,0,0,0],"sum_hessian":[1.5371636E4,1.4775259E4,5.9637634E2,5.794611E2,1.4195798E4,1.3848907E4,3.4689075E2,3.4298044E2,1.3505927E4,1.1550669E3,1.2350859E4],"tree_param":{"num_deleted":"0","num_feature":"5","num_nodes":"11","size_leaf_vector":"1"}},{"base_weights":[1.1998807E-6,3.702619E-2,-1.0025453E-1,1.0024947E-1,1.0901982E-3,2.4809867E-2,-1.00889206E-1,1.0074172E-1,2.0088567E-3,2.1474843E-3,-1.0060797E-1],"categories":[],"categories_nodes":[],"categories_segments":[],"categories_sizes":[],"default_left":[0,0,0,0,0,0,0,0,0,0,0],"id":50,"left_children":[1,3,-1,-1,5,7,-1,-1,9,-1,-1],"loss_changes":[5.637889E2,5.0819928E2,0E0,0E0,3.3836163E2,3.0917688E2,0E0,0E0,2.647013E2,0E0,0E0],"parents":[2147483647,0,0,1,1,4,4,5,5,8,8],"right_children":[2,4,-1,-1,6,8,-1,-1,10,-1,-1],"split_conditions":[7.009767E-1,4.8940337E-1,-1.0025453E-1,1.0024947E-1,2.2E1,1E1,-1.00889206E-1,1.0074172E-1,7.015178E-1,2.1474843E-3,-1.0060797E-1],"split_indices":[3,3,0,0,4,4,0,0,2,0,0],"split_type":[0,0,0,0,0,0,0,0,0,0,0],"sum_hessian":[1.5186576E4,1.4646626E4,5.399507E2,5.2463763E2,1.4121988E4,1.3798894E4,3.230948E2,3.1195694E2,1.3486937E4,1.32324E4,2.5453624E2],"tree_param":{"num_deleted":"0","num_feature":"5","num_nodes":"11","size_leaf_vector":"1"}},{"base_weights":[-9.534259E-5,1.0043635E-1,-3.4056157E-2,-2.4512882E-4,-1.00193284E-1,1.00579716E-1,-2.3211103E-2,-1.6636914E-3,-1.0074238E-1,8.467735E-3,-2.2746814E-2],"categories":[],"categories_nodes":[],"categories_segments":[],"categories_sizes":[],"default_left":[0,0,0,0,0,0,0,0,0,0,0],"id":51,"left_children":[1,-1,3,5,-1,-1,7,9,-1,-1,-1],"loss_changes":[5.117878E2,0E0,4.7491623E2,3.2403348E2,0E0,0E0,2.907819E2,2.616342E2,0E0,0E0,0E0],"parents":[2147483647,0,0,2,2,3,3,6,6,7,7],"right_children":[2,-1,4,6,-1,-1,8,10,-1,-1,-1],"split_conditions":[3.934038E-1,1.0043635E-1,7.009767E-1,1E1,-1.00193284E-1,1.00579716E-1,2.2E1,5.039178E1,-1.0074238E-1,8.467735E-3,-2.2746814E-2],"split_indices":[2,0,3,4,0,0,4,0,0,0,0],"split_type":[0,0,0,0,0,0,0,0,0,0,0],"sum_hessian":[1.5001051E4,4.8966476E2,1.4511387E4,1.4022534E4,4.8885178E2,3.1200754E2,1.3710527E4,1.3417772E4,2.9275424E2,9.706801E3,3.7109727E3],"tree_param":{"num_deleted":"0","num_feature":"5","num_nodes":"11","size_leaf_vector":"1"}},{"base_weights":[-8.555949E-5,3.186527E-2,-1.00368336E-1,1.001659E-1,5.442278E-4,2.2300014E-2,-1.0057236E-1,1.00407265E-1,1.976438E-3,4.774481E-3,-4.173639E-2],"categories":[],"categories_nodes":[],"categories_segments":[],"categories_sizes":[],"default_left":[0,0,0,0,0,0,0,0,0,0,0],"id":52,"left_children":[1,3,-1,-1,5,7,-1,-1,9,-1,-1],"loss_changes":[4.7588016E2,4.3687796E2,0E0,0E0,3.0506482E2,2.7215814E2,0E0,0E0,2.5651532E2,0E0,0E0],"parents":[2147483647,0,0,1,1,4,4,5,5,8,8],"right_children":[2,4,-1,-1,6,8,-1,-1,10,-1,-1],"split_conditions":[7.015178E-1,4.8940337E-1,-1.00368336E-1,1.001659E-1,2.2E1,3.934038E-1,-1.0057236E-1,1.00407265E-1,6.309585E-1,4.774481E-3,-4.173639E-2],"split_indices":[2,3,0,0,4,2,0,0,1,0,0],"split_type":[0,0,0,0,0,0,0,0,0,0,0],"sum_hessian":[1.4838751E4,1.43818545E4,4.5689667E2,4.489838E2,1.3932871E4,1.3638971E4,2.9390045E2,2.7563113E2,1.3363339E4,1.2049138E4,1.3142017E3],"tree_param":{"num_deleted":"0","num_feature":"5","num_nodes":"11","size_leaf_vector":"1"}},{"base_weights":[-1.0534728E-4,2.9305555E-2,-1.0011263E-1,1.0010568E-1,7.360412E-4,1.9464012E-2,-1.0032045E-1,1.0047635E-1,8.840632E-4,4.321481E-2,-3.9241193E-3],"categories":[],"categories_nodes":[],"categories_segments":[],"categories_sizes":[],"default_left":[0,0,0,0,0,0,0,0,0,0,0],"id":53,"left_children":[1,3,-1,-1,5,7,-1,-1,9,-1,-1],"loss_changes":[4.3239136E2,3.9610168E2,0E0,0E0,2.606321E2,2.4912212E2,0E0,0E0,2.311603E2,0E0,0E0],"parents":[2147483647,0,0,1,1,4,4,5,5,8,8],"right_children":[2,4,-1,-1,6,8,-1,-1,10,-1,-1],"split_conditions":[7.009767E-1,4.8940337E-1,-1.0011263E-1,1.0010568E-1,7.015178E-1,1E1,-1.0032045E-1,1.0047635E-1,2.4266244E-1,4.321481E-2,-3.9241193E-3],"split_indices":[3,3,0,0,2,4,0,0,1,0,0],"split_type":[0,0,0,0,0,0,0,0,0,0,0],"sum_hessian":[1.4684746E4,1.4266553E4,4.1819354E2,4.064856E2,1.3860067E4,1.3607213E4,2.5285461E2,2.5086192E2,1.3356351E4,1.136078E3,1.2220272E4],"tree_param":{"num_deleted":"0","num_feature":"5","num_nodes":"11","size_leaf_vector":"1"}},{"base_weights":[-8.343294E-5,1.0026635E-1,-2.7228225E-2,-4.3310015E-4,-1.0005426E-1,1.0034146E-1,-1.8970806E-2,-1.4158713E-3,-1.0047095E-1,5.5022812E-3,-2.856191E-2],"categories":[],"categories_nodes":[],"categories_segments":[],"categories_sizes":[],"default_left":[0,0,0,0,0,0,0,0,0,0,0],"id":54,"left_children":[1,-1,3,5,-1,-1,7,9,-1,-1,-1],"loss_changes":[3.961003E2,0E0,3.695178E2,2.566375E2,0E0,0E0,2.3431877E2,2.134288E2,0E0,0E0,0E0],"parents":[2147483647,0,0,2,2,3,3,6,6,7,7],"right_children":[2,-1,4,6,-1,-1,8,10,-1,-1,-1],"split_conditions":[3.934038E-1,1.0026635E-1,7.009767E-1,1E1,-1.0005426E-1,1.0034146E-1,2.2E1,5.166768E-1,-1.0047095E-1,5.5022812E-3,-2.856191E-2],"split_indices":[2,0,3,4,0,0,4,1,0,0,0],"split_type":[0,0,0,0,0,0,0,0,0,0,0],"sum_hessian":[1.4550152E4,3.8255026E2,1.4167602E4,1.3788994E4,3.786075E2,2.490562E2,1.3539938E4,1.330401E4,2.3592853E2,1.110043E4,2.2035796E3],"tree_param":{"num_deleted":"0","num_feature":"5","num_nodes":"11","size_leaf_vector":"1"}},{"base_weights":[-8.1230995E-5,2.5410535E-2,-1.0020371E-1,1.00026526E-1,5.4648967E-4,1.8122608E-2,-1.0032999E-1,1.0018437E-1,1.573345E-3,1.5805135E-2,-9.860589E-3],"categories":[],"categories_nodes":[],"categories_segments":[],"categories_sizes":[],"default_left":[0,0,0,0,0,0,0,0,0,0,0],"id":55,"left_children":[1,3,-1,-1,5,7,-1,-1,9,-1,-1],"loss_changes":[3.6832062E2,3.4086115E2,0E0,0E0,2.4198203E2,2.1943268E2,0E0,0E0,2.0782832E2,0E0,0E0],"parents":[2147483647,0,0,1,1,4,4,5,5,8,8],"right_children":[2,4,-1,-1,6,8,-1,-1,10,-1,-1],"split_conditions":[7.015178E-1,4.8940337E-1,-1.0020371E-1,1.00026526E-1,2.2E1,3.934038E-1,-1.0032999E-1,1.0018437E-1,3.7142467E1,1.5805135E-2,-9.860589E-3],"split_indices":[2,3,0,0,4,2,0,0,0,0,0],"split_type":[0,0,0,0,0,0,0,0,0,0,0],"sum_hessian":[1.4418411E4,1.4061629E4,3.5678143E2,3.487517E2,1.3712878E4,1.3477878E4,2.3499919E2,2.2200365E2,1.3255875E4,5.173848E3,8.0820264E3],"tree_param":{"num_deleted":"0","num_feature":"5","num_nodes":"11","size_leaf_vector":"1"}},{"base_weights":[-7.603145E-5,2.3221008E-2,-9.997534E-2,9.9966936E-2,5.724035E-4,1.5817901E-2,-1.0009947E-1,1.0022835E-1,6.929675E-4,3.956509E-3,-3.8022336E-2],"categories":[],"categories_nodes":[],"categories_segments":[],"categories_sizes":[],"default_left":[0,0,0,0,0,0,0,0,0,0,0],"id":56,"left_children":[1,3,-1,-1,5,7,-1,-1,9,-1,-1],"loss_changes":[3.3299963E2,3.09007E2,0E0,0E0,2.085482E2,2.0072276E2,0E0,0E0,1.9622227E2,0E0,0E0],"parents":[2147483647,0,0,1,1,4,4,5,5,8,8],"right_children":[2,4,-1,-1,6,8,-1,-1,10,-1,-1],"split_conditions":[7.009767E-1,4.8940337E-1,-9.997534E-2,9.9966936E-2,7.015178E-1,1E1,-1.0009947E-1,1.0022835E-1,5.990411E1,3.956509E-3,-3.8022336E-2],"split_indices":[3,3,0,0,2,4,0,0,0,0,0],"split_type":[0,0,0,0,0,0,0,0,0,0,0],"sum_hessian":[1.4296262E4,1.3971636E4,3.2462607E2,3.157462E2,1.365589E4,1.3452111E4,2.0377904E2,2.0215361E2,1.3249957E4,1.2023834E4,1.2261238E3],"tree_param":{"num_deleted":"0","num_feature":"5","num_nodes":"11","size_leaf_vector":"1"}},{"base_weights":[-8.103948E-5,1.0010314E-1,-2.1747759E-2,-5.492622E-4,-9.9916406E-2,1.0011383E-1,-1.5523604E-2,9.21754E-1,-3.0817516E-2,1.0503751E-1,2.1822182E-2,-1.6617322E-3,-1.0020911E-1],"categories":[],"categories_nodes":[],"categories_segments":[],"categories_sizes":[],"default_left":[0,0,0,0,0,0,0,0,0,0,0,0,0],"id":57,"left_children":[1,-1,3,5,-1,-1,7,9,11,-1,-1,-1,-1],"loss_changes":[3.0785217E2,0E0,2.878398E2,2.039829E2,0E0,0E0,1.9209645E2,1.9240097E1,1.8183058E2,0E0,0E0,0E0,0E0],"parents":[2147483647,0,0,2,2,3,3,6,6,7,7,8,8],"right_children":[2,-1,4,6,-1,-1,8,10,12,-1,-1,-1,-1],"split_conditions":[3.934038E-1,1.0010314E-1,7.009767E-1,1E1,-9.9916406E-2,1.0011383E-1,1.0463094E-1,6.5999913E-1,2.2E1,1.0503751E-1,2.1822182E-2,-1.6617322E-3,-1.0020911E-1],"split_indices":[2,0,3,4,0,0,1,3,4,0,0,0,0],"split_type":[0,0,0,0,0,0,0,0,0,0,0,0,0],"sum_hessian":[1.4190735E4,2.996613E2,1.3891074E4,1.3597175E4,2.9389905E2,1.9930183E2,1.3397873E4,2.1415656E2,1.3183717E4,1.8063882E2,3.3517727E1,1.2994748E4,1.8896846E2],"tree_param":{"num_deleted":"0","num_feature":"5","num_nodes":"13","size_leaf_vector":"1"}},{"base_weights":[-4.3586257E-5,2.0258509E-2,-1.0004268E-1,1.0002702E-1,5.513827E-4,1.4761495E-2,-1.0009783E-1,1.000036E-1,1.1858288E-3,3.6291645E-3,-3.6072962E-2],"categories":[],"categories_nodes":[],"categories_segments":[],"categories_sizes":[],"default_left":[0,0,0,0,0,0,0,0,0,0,0],"id":58,"left_children":[1,3,-1,-1,5,7,-1,-1,9,-1,-1],"loss_changes":[2.8628946E2,2.668249E2,0E0,0E0,1.9277594E2,1.7864345E2,0E0,0E0,1.6741008E2,0E0,0E0],"parents":[2147483647,0,0,1,1,4,4,5,5,8,8],"right_children":[2,4,-1,-1,6,8,-1,-1,10,-1,-1],"split_conditions":[7.015178E-1,3.934038E-1,-1.0004268E-1,1.0002702E-1,2.2E1,1E1,-1.0009783E-1,1.000036E-1,6.495018E-1,3.6291645E-3,-3.6072962E-2],"split_indices":[2,2,0,0,4,4,0,0,1,0,0],"split_type":[0,0,0,0,0,0,0,0,0,0,0],"sum_hessian":[1.4094075E4,1.3814694E4,2.7938007E2,2.713437E2,1.3543351E4,1.3354853E4,1.8849886E2,1.8052214E2,1.317433E4,1.2010236E4,1.1640939E3],"tree_param":{"num_deleted":"0","num_feature":"5","num_nodes":"11","size_leaf_vector":"1"}},{"base_weights":[-6.0051298E-5,9.986683E-2,-1.8942576E-2,-4.6857615E-4,-9.996753E-2,1.2423918E-2,-9.998351E-2,9.985876E-2,1.8377167E-4,5.8111404E-3,-2.0880103E-2],"categories":[],"categories_nodes":[],"categories_segments":[],"categories_sizes":[],"default_left":[0,0,0,0,0,0,0,0,0,0,0],"id":59,"left_children":[1,-1,3,5,-1,7,-1,-1,9,-1,-1],"loss_changes":[2.639536E2,0E0,2.4888373E2,1.7374252E2,0E0,1.6069922E2,0E0,0E0,1.5921649E2,0E0,0E0],"parents":[2147483647,0,0,2,2,3,3,5,5,8,8],"right_children":[2,-1,4,6,-1,8,-1,-1,10,-1,-1],"split_conditions":[4.8940337E-1,9.986683E-2,7.015178E-1,2.2E1,-9.996753E-2,3.934038E-1,-9.998351E-2,9.985876E-2,5.34137E1,5.8111404E-3,-2.0880103E-2],"split_indices":[3,0,2,4,0,2,0,0,0,0,0],"split_type":[0,0,0,0,0,0,0,0,0,0,0],"sum_hessian":[1.3994521E4,2.5871588E2,1.3735806E4,1.3482831E4,2.5297473E2,1.3312084E4,1.7074718E2,1.6221442E2,1.3149869E4,1.0296537E4,2.8533323E3],"tree_param":{"num_deleted":"0","num_feature":"5","num_nodes":"11","size_leaf_vector":"1"}},{"base_weights":[-6.097385E-5,1.7582731E-2,-9.981378E-2,9.980275E-2,4.085366E-4,8.4847724E-1,-1.3240255E-2,9.686285E-1,2.1793461E-1,9.985282E-2,-2.4505083E-2,9.936778E-2,-8.683442E-2,7.739365E-2,-6.647749E-2,-1.3299589E-3,-9.976458E-2],"categories":[],"categories_nodes":[],"categories_segments":[],"categories_sizes":[],"default_left":[0,0,0,0,0,0,0,0,0,0,0,0,0,0,0,0,0],"id":60,"left_children":[1,3,-1,-1,5,7,9,11,13,-1,15,-1,-1,-1,-1,-1,-1],"loss_changes":[2.4488171E2,2.3008652E2,0E0,0E0,1.5546759E2,1.5906006E1,1.5068079E2,9.071777E0,1.78588E1,0E0,1.4255145E2,0E0,0E0,0E0,0E0,0E0,0E0],"parents":[2147483647,0,0,1,1,4,4,5,5,6,6,7,7,8,8,10,10],"right_children":[2,4,-1,-1,6,8,10,12,14,-1,16,-1,-1,-1,-1,-1,-1],"split_conditions":[7.009767E-1,4.8940337E-1,-9.981378E-2,9.980275E-2,1.0463094E-1,6.5999913E-1,1E1,6.942695E-1,1.4E1,9.985282E-2,7.015178E-1,9.936778E-2,-8.683442E-2,7.739365E-2,-6.647749E-2,-1.3299589E-3,-9.976458E-2],"split_indices":[3,3,0,0,1,3,4,2,4,0,2,0,0,0,0,0,0],"split_type":[0,0,0,0,0,0,0,0,0,0,0,0,0,0,0,0,0],"sum_hessian":[1.3904015E4,1.3663459E4,2.4055617E2,2.3423578E2,1.3429224E4,2.1173743E2,1.3217485E4,1.7739772E2,3.4339703E1,1.4457536E2,1.307291E4,1.7546414E2,1.9335878E0,2.1144445E1,1.3195257E1,1.2925095E4,1.4781584E2],"tree_param":{"num_deleted":"0","num_feature":"5","num_nodes":"17","size_leaf_vector":"1"}},{"base_weights":[-3.8201753E-5,1.5997397E-2,-9.974902E-2,9.9859975E-2,2.899418E-4,9.977333E-2,-1.0683232E-2,3.549335E-2,-2.447197E-1,1.0809693E-2,-2.1387516E-2,-1.8394617E-2,-6.401258E-2],"categories":[],"categories_nodes":[],"categories_segments":[],"categories_sizes":[],"default_left":[0,0,0,0,0,0,0,0,0,0,0,0,0],"id":61,"left_children":[1,3,-1,-1,5,-1,7,9,11,-1,-1,-1,-1],"loss_changes":[2.2118513E2,2.1005617E2,0E0,0E0,1.4663895E2,0E0,1.4322198E2,2.0042746E2,5.2362335E1,0E0,0E0,0E0,0E0],"parents":[2147483647,0,0,1,1,4,4,6,6,7,7,8,8],"right_children":[2,4,-1,-1,6,-1,8,10,12,-1,-1,-1,-1],"split_conditions":[7.009767E-1,3.934038E-1,-9.974902E-2,9.9859975E-2,1E1,9.977333E-2,5.166768E-1,5.2575344E1,8.031548E-1,1.0809693E-2,-2.1387516E-2,-1.8394617E-2,-6.401258E-2],"split_indices":[3,2,0,0,4,0,1,0,1,0,0,0,0],"split_type":[0,0,0,0,0,0,0,0,0,0,0,0,0],"sum_hessian":[1.382662E4,1.3608821E4,2.1779912E2,2.131373E2,1.3395684E4,1.447878E2,1.32508955E4,1.1067977E4,2.1829197E3,8.572625E3,2.495351E3,1.8933749E3,2.895447E2],"tree_param":{"num_deleted":"0","num_feature":"5","num_nodes":"13","size_leaf_vector":"1"}},{"base_weights":[-2.9410646E-6,9.971492E-2,-1.4982285E-2,-1.63202E-4,-9.980138E-2,1.11026075E-2,-9.985228E-2,5.1991415E-1,-8.462554E-3,7.906005E-2,3.2364376E-2,5.5802632E-2,-2.6390522E-3],"categories":[],"categories_nodes":[],"categories_segments":[],"categories_sizes":[],"default_left":[0,0,0,0,0,0,0,0,0,0,0,0,0],"id":62,"left_children":[1,-1,3,5,-1,7,-1,9,11,-1,-1,-1,-1],"loss_changes":[2.0535385E2,0E0,1.9731566E2,1.501029E2,0E0,1.3137773E2,0E0,2.570636E1,1.2908797E2,0E0,0E0,0E0,0E0],"parents":[2147483647,0,0,2,2,3,3,5,5,7,7,8,8],"right_children":[2,-1,4,6,-1,8,-1,10,12,-1,-1,-1,-1],"split_conditions":[4.8940337E-1,9.971492E-2,7.015178E-1,2.2E1,-9.980138E-2,1.6143796E-1,-9.985228E-2,1.0463094E-1,4.042218E-1,7.906005E-2,3.2364376E-2,5.5802632E-2,-2.6390522E-3],"split_indices":[3,0,2,4,0,1,0,1,2,0,0,0,0],"split_type":[0,0,0,0,0,0,0,0,0,0,0,0,0],"sum_hessian":[1.3746288E4,2.0247194E2,1.3543816E4,1.3343663E4,2.0015398E2,1.3195746E4,1.4791615E2,4.8767587E2,1.270807E4,2.0370622E2,2.8396967E2,3.8891724E2,1.2319153E4],"tree_param":{"num_deleted":"0","num_feature":"5","num_nodes":"13","size_leaf_vector":"1"}},{"base_weights":[-8.4820485E-6,1.3968966E-2,-9.965773E-2,9.964421E-2,3.5720508E-4,9.974775E-3,-9.971156E-2,9.9567644E-2,5.330869E-4,3.0830444E-3,-2.9821629E-2],"categories":[],"categories_nodes":[],"categories_segments":[],"categories_sizes":[],"default_left":[0,0,0,0,0,0,0,0,0,0,0],"id":63,"left_children":[1,3,-1,-1,5,7,-1,-1,9,-1,-1],"loss_changes":[1.905256E2,1.8038623E2,0E0,0E0,1.27651665E2,1.2265487E2,0E0,0E0,1.1817625E2,0E0,0E0],"parents":[2147483647,0,0,1,1,4,4,5,5,8,8],"right_children":[2,4,-1,-1,6,8,-1,-1,10,-1,-1],"split_conditions":[7.009767E-1,4.8940337E-1,-9.965773E-2,9.964421E-2,2.2E1,3.934038E-1,-9.971156E-2,9.9567644E-2,5.990411E1,3.0830444E-3,-2.9821629E-2],"split_indices":[3,3,0,0,4,2,0,0,0,0,0],"split_type":[0,0,0,0,0,0,0,0,0,0,0],"sum_hessian":[1.3675862E4,1.3487676E4,1.881864E2,1.8332594E2,1.330435E4,1.3178275E4,1.26074104E2,1.2404135E2,1.3054234E4,1.1853064E4,1.2011694E3],"tree_param":{"num_deleted":"0","num_feature":"5","num_nodes":"11","size_leaf_vector":"1"}},{"base_weights":[-1.767678E-5,1.2955586E-2,-9.970231E-2,9.957011E-2,5.8898755E-4,9.865015E-3,-9.9611476E-2,9.960868E-2,8.269363E-4,2.528875E-2,-3.3775326E-3],"categories":[],"categories_nodes":[],"categories_segments":[],"categories_sizes":[],"default_left":[0,0,0,0,0,0,0,0,0,0,0],"id":64,"left_children":[1,3,-1,-1,5,7,-1,-1,9,-1,-1],"loss_changes":[1.7607188E2,1.6331212E2,0E0,0E0,1.22713776E2,1.17216194E2,0E0,0E0,1.13671974E2,0E0,0E0],"parents":[2147483647,0,0,1,1,4,4,5,5,8,8],"right_children":[2,4,-1,-1,6,8,-1,-1,10,-1,-1],"split_conditions":[7.015178E-1,4.8940337E-1,-9.970231E-2,9.957011E-2,2.2E1,1E1,-9.9611476E-2,9.960868E-2,3.0022234E-1,2.528875E-2,-3.3775326E-3],"split_indices":[2,3,0,0,4,4,0,0,1,0,0],"split_type":[0,0,0,0,0,0,0,0,0,0,0],"sum_hessian":[1.3610669E4,1.3436813E4,1.7385588E2,1.6599571E2,1.3270817E4,1.314943E4,1.21387764E2,1.1841987E2,1.303101E4,1.5721752E3,1.1458835E4],"tree_param":{"num_deleted":"0","num_feature":"5","num_nodes":"11","size_leaf_vector":"1"}},{"base_weights":[-9.864079E-6,1.2190226E-2,-9.9559546E-2,9.96246E-2,4.5494136E-4,9.95143E-2,-8.2635E-3,3.249314E-2,-2.1571554E-1,9.348919E-3,-1.7723054E-2,-4.3010544E-2,-1.0216466E-2],"categories":[],"categories_nodes":[],"categories_segments":[],"categories_sizes":[],"default_left":[0,0,0,0,0,0,0,0,0,0,0,0,0],"id":65,"left_children":[1,3,-1,-1,5,-1,7,9,11,-1,-1,-1,-1],"loss_changes":[1.6457022E2,1.5457243E2,0E0,0E0,1.14725845E2,0E0,1.1088957E2,1.4024352E2,5.238244E1,0E0,0E0,0E0,0E0],"parents":[2147483647,0,0,1,1,4,4,6,6,7,7,8,8],"right_children":[2,4,-1,-1,6,-1,8,10,12,-1,-1,-1,-1],"split_conditions":[7.009767E-1,3.934038E-1,-9.9559546E-2,9.96246E-2,1E1,9.95143E-2,5.166768E-1,5.2575344E1,4.0684933E1,9.348919E-3,-1.7723054E-2,-4.3010544E-2,-1.0216466E-2],"split_indices":[3,2,0,0,4,0,1,0,0,0,0,0,0],"split_type":[0,0,0,0,0,0,0,0,0,0,0,0,0],"sum_hessian":[1.3547073E4,1.3384051E4,1.6302289E2,1.5674088E2,1.322731E4,1.1394695E2,1.3113362E4,1.09608125E4,2.1525503E3,8.491653E3,2.4691587E3,7.443644E2,1.4081858E3],"tree_param":{"num_deleted":"0","num_feature":"5","num_nodes":"13","size_leaf_vector":"1"}},{"base_weights":[2.4793957E-5,1.149668E-2,-9.9600144E-2,9.9463575E-2,6.9559895E-4,8.971035E-3,-9.947278E-2,9.93163E-2,1.2863749E-3,7.008216E-2,-9.3383976E-4],"categories":[],"categories_nodes":[],"categories_segments":[],"categories_sizes":[],"default_left":[0,0,0,0,0,0,0,0,0,0,0],"id":66,"left_children":[1,3,-1,-1,5,7,-1,-1,9,-1,-1],"loss_changes":[1.5411526E2,1.4159456E2,0E0,0E0,1.0866472E2,9.8944214E1,0E0,0E0,9.649522E1,0E0,0E0],"parents":[2147483647,0,0,1,1,4,4,5,5,8,8],"right_children":[2,4,-1,-1,6,8,-1,-1,10,-1,-1],"split_conditions":[7.015178E-1,4.8940337E-1,-9.9600144E-2,9.9463575E-2,2.2E1,3.934038E-1,-9.947278E-2,9.93163E-2,1.0463094E-1,7.008216E-2,-9.3383976E-4],"split_indices":[2,3,0,0,4,2,0,0,1,0,0],"split_type":[0,0,0,0,0,0,0,0,0,0,0],"sum_hessian":[1.3485765E4,1.3333187E4,1.5257857E2,1.43901E2,1.3189285E4,1.3081523E4,1.0776204E2,1.0035682E2,1.2981167E4,1.9324062E2,1.2787926E4],"tree_param":{"num_deleted":"0","num_feature":"5","num_nodes":"11","size_leaf_vector":"1"}},{"base_weights":[3.40674E-5,1.0703266E-2,-9.945299E-2,9.9377535E-2,8.950809E-4,1.0401432E-2,-7.9400545E-1,3.2461308E-2,-3.1878006E-1,1.2127673E-1,-8.509283E-1,6.4045237E-3,-1.9867126E-2,7.945565E-3,-4.199345E-2,-6.760122E-3,-1.03644095E-1],"categories":[],"categories_nodes":[],"categories_segments":[],"categories_sizes":[],"default_left":[0,0,0,0,0,0,0,0,0,0,0,0,0,0,0,0,0],"id":67,"left_children":[1,3,-1,-1,5,7,9,11,13,-1,15,-1,-1,-1,-1,-1,-1],"loss_changes":[1.4256819E2,1.2817255E2,0E0,0E0,9.9473694E1,9.447165E1,1.8802681E1,8.901575E1,3.2947845E1,0E0,2.1998428E1,0E0,0E0,0E0,0E0,0E0,0E0],"parents":[2147483647,0,0,1,1,4,4,5,5,6,6,7,7,8,8,10,10],"right_children":[2,4,-1,-1,6,8,10,12,14,-1,16,-1,-1,-1,-1,-1,-1],"split_conditions":[7.009767E-1,4.8940337E-1,-9.945299E-2,9.9377535E-2,6.989262E-1,6.9992167E-1,2.241096E1,5.7841095E1,4.4795915E-1,1.2127673E-1,5.3031385E-1,6.4045237E-3,-1.9867126E-2,7.945565E-3,-4.199345E-2,-6.760122E-3,-1.03644095E-1],"split_indices":[3,3,0,0,2,1,0,0,2,0,3,0,0,0,0,0,0],"split_type":[0,0,0,0,0,0,0,0,0,0,0,0,0,0,0,0,0],"sum_hessian":[1.3433632E4,1.329203E4,1.4160121E2,1.3031453E2,1.3161716E4,1.3007148E4,1.545678E2,1.2191073E4,8.160751E2,3.7033546E0,1.5086444E2,1.0726091E4,1.4649818E3,1.6534433E2,6.507308E2,2.914865E1,1.2171579E2],"tree_param":{"num_deleted":"0","num_feature":"5","num_nodes":"17","size_leaf_vector":"1"}},{"base_weights":[-2.9783287E-5,9.6585015E-3,-9.9365756E-2,9.950697E-2,1.0640677E-4,9.924629E-2,-7.4367286E-3,-3.21788E-4,-9.9301696E-2,1.0083426E-2,-6.4920443E-3],"categories":[],"categories_nodes":[],"categories_segments":[],"categories_sizes":[],"default_left":[0,0,0,0,0,0,0,0,0,0,0],"id":68,"left_children":[1,3,-1,-1,5,-1,7,9,-1,-1,-1],"loss_changes":[1.2883612E2,1.2475812E2,0E0,0E0,9.827631E1,0E0,9.136981E1,8.454727E1,0E0,0E0,0E0],"parents":[2147483647,0,0,1,1,4,4,6,6,7,7],"right_children":[2,4,-1,-1,6,-1,8,10,-1,-1,-1],"split_conditions":[7.009767E-1,1E1,-9.9365756E-2,9.950697E-2,3.934038E-1,9.924629E-2,2.2E1,3.7142467E1,-9.9301696E-2,1.0083426E-2,-6.4920443E-3],"split_indices":[3,4,0,0,2,0,4,0,0,0,0],"split_type":[0,0,0,0,0,0,0,0,0,0,0],"sum_hessian":[1.3381421E4,1.3253187E4,1.2823381E2,1.2624605E2,1.312694E4,9.8043205E1,1.3028897E4,1.2936509E4,9.238882E1,5.0414546E3,7.895054E3],"tree_param":{"num_deleted":"0","num_feature":"5","num_nodes":"11","size_leaf_vector":"1"}},{"base_weights":[-2.3116721E-5,9.21103E-3,-9.939835E-2,9.939804E-2,5.353855E-4,9.911826E-2,-6.306474E-3,4.0220606E-4,-9.918802E-2,1.0619872E-3,-6.19754E-2],"categories":[],"categories_nodes":[],"categories_segments":[],"categories_sizes":[],"default_left":[0,0,0,0,0,0,0,0,0,0,0],"id":69,"left_children":[1,3,-1,-1,5,-1,7,9,-1,-1,-1],"loss_changes":[1.22364655E2,1.12851776E2,0E0,0E0,8.8760925E1,0E0,8.599444E1,8.186859E1,0E0,0E0,0E0],"parents":[2147483647,0,0,1,1,4,4,6,6,7,7],"right_children":[2,4,-1,-1,6,-1,8,10,-1,-1,-1],"split_conditions":[7.015178E-1,1E1,-9.939835E-2,9.939804E-2,3.934038E-1,9.911826E-2,2.2E1,6.519452E1,-9.918802E-2,1.0619872E-3,-6.19754E-2],"split_indices":[2,4,0,0,2,0,4,0,0,0,0],"split_type":[0,0,0,0,0,0,0,0,0,0,0],"sum_hessian":[1.3329845E4,1.3208129E4,1.2171616E2,1.143533E2,1.3093775E4,8.882446E1,1.3004951E4,1.291802E4,8.693179E1,1.27096E4,2.0841992E2],"tree_param":{"num_deleted":"0","num_feature":"5","num_nodes":"11","size_leaf_vector":"1"}},{"base_weights":[-3.2154134E-5,8.452914E-3,-9.924004E-2,9.921907E-2,1.718237E-4,6.3966E-3,-9.902188E-2,3.1652458E-2,-2.343517E-1,4.145323E-3,-7.136484E-2,-3.233666E-2,1.3856922E-2],"categories":[],"categories_nodes":[],"categories_segments":[],"categories_sizes":[],"default_left":[0,0,0,0,0,0,0,0,0,0,0,0,0],"id":70,"left_children":[1,3,-1,-1,5,7,-1,9,11,-1,-1,-1,-1],"loss_changes":[1.1190973E2,1.0735158E2,0E0,0E0,8.057481E1,7.8979294E1,0E0,8.590052E1,4.0984253E1,0E0,0E0,0E0,0E0],"parents":[2147483647,0,0,1,1,4,4,5,5,7,7,8,8],"right_children":[2,4,-1,-1,6,8,-1,10,12,-1,-1,-1,-1],"split_conditions":[7.009767E-1,4.8940337E-1,-9.924004E-2,9.921907E-2,7.015178E-1,6.309585E-1,-9.902188E-2,6.562466E1,2E1,4.145323E-3,-7.136484E-2,-3.233666E-2,1.3856922E-2],"split_indices":[3,3,0,0,2,1,0,0,4,0,0,0,0],"split_type":[0,0,0,0,0,0,0,0,0,0,0,0,0],"sum_hessian":[1.3288453E4,1.3176779E4,1.11674225E2,1.09004166E2,1.3067775E4,1.2987143E4,8.063289E1,1.1754859E4,1.2322827E3,1.1603221E4,1.5163893E2,9.9492957E2,2.3735321E2],"tree_param":{"num_deleted":"0","num_feature":"5","num_nodes":"13","size_leaf_vector":"1"}},{"base_weights":[-8.848113E-5,9.9264614E-2,-7.8035938E-3,-1.016232E-4,-9.9136434E-2,9.8960795E-2,-6.202361E-3,6.2919116E-1,-1.557342E-2,7.580509E-2,-2.6071188E-3,-9.787813E-4,-9.8981015E-2],"categories":[],"categories_nodes":[],"categories_segments":[],"categories_sizes":[],"default_left":[0,0,0,0,0,0,0,0,0,0,0,0,0],"id":71,"left_children":[1,-1,3,5,-1,-1,7,9,11,-1,-1,-1,-1],"loss_changes":[1.01474495E2,0E0,9.9591354E1,7.877504E1,0E0,0E0,7.72175E1,1.59347E1,7.202098E1,0E0,0E0,0E0,0E0],"parents":[2147483647,0,0,2,2,3,3,6,6,7,7,8,8],"right_children":[2,-1,4,6,-1,-1,8,10,12,-1,-1,-1,-1],"split_conditions":[1E1,9.9264614E-2,7.009767E-1,3.934038E-1,-9.9136434E-2,9.8960795E-2,1.0463094E-1,6.5999913E-1,2.2E1,7.580509E-2,-2.6071188E-3,-9.787813E-4,-9.8981015E-2],"split_indices":[4,0,3,2,0,0,1,3,4,0,0,0,0],"split_type":[0,0,0,0,0,0,0,0,0,0,0,0,0],"sum_hessian":[1.3246939E4,1.0117119E2,1.3145769E4,1.304462E4,1.01148415E2,7.8928986E1,1.296569E4,1.8748306E2,1.2778208E4,1.5654169E2,3.094136E1,1.2703775E4,7.443266E1],"tree_param":{"num_deleted":"0","num_feature":"5","num_nodes":"13","size_leaf_vector":"1"}},{"base_weights":[-5.9246E-5,7.311255E-3,-9.915209E-2,9.907793E-2,4.2772597E-5,1.0892097E-2,-5.072037E-1,1.6369859E-2,-9.883528E-2,-1.0742338E0,-1.6566865E-1,9.886377E-2,1.0890149E-3,-1.3689499E-1,-6.1265808E-2,1.5482199E-1,-3.8370453E-2],"categories":[],"categories_nodes":[],"categories_segments":[],"categories_sizes":[],"default_left":[0,0,0,0,0,0,0,0,0,0,0,0,0,0,0,0,0],"id":72,"left_children":[1,3,-1,-1,5,7,9,11,-1,13,15,-1,-1,-1,-1,-1,-1],"loss_changes":[9.654092E1,9.374021E1,0E0,0E0,7.164944E1,6.97872E1,5.262095E1,6.753574E1,0E0,1.3078003E1,6.461937E1,0E0,0E0,0E0,0E0,0E0,0E0],"parents":[2147483647,0,0,1,1,4,4,5,5,6,6,7,7,9,9,10,10],"right_children":[2,4,-1,-1,6,8,10,12,-1,14,16,-1,-1,-1,-1,-1,-1],"split_conditions":[7.015178E-1,4.8940337E-1,-9.915209E-2,9.907793E-2,8.031548E-1,2.2E1,5.855212E-1,1E1,-9.883528E-2,8.6096925E-1,5.912854E-1,9.886377E-2,1.0890149E-3,-1.3689499E-1,-6.1265808E-2,1.5482199E-1,-3.8370453E-2],"split_indices":[2,3,0,0,1,4,3,4,0,1,3,0,0,0,0,0,0],"split_type":[0,0,0,0,0,0,0,0,0,0,0,0,0,0,0,0,0],"sum_hessian":[1.3209093E4,1.3112606E4,9.648617E1,9.520719E1,1.3017399E4,1.2745763E4,2.7163632E2,1.2677251E4,6.851182E1,1.0130328E2,1.7033305E2,7.0043144E1,1.2607208E4,6.062708E1,4.0676205E1,1.853516E1,1.5179788E2],"tree_param":{"num_deleted":"0","num_feature":"5","num_nodes":"17","size_leaf_vector":"1"}},{"base_weights":[-8.572082E-5,6.673473E-3,-9.898669E-2,9.9030934E-2,-7.776E-6,3.7553954E-1,-1.3796573E-2,7.016289E-1,2.750152E-1,9.868448E-2,-1.8936662E-2,7.855236E-2,-2.4879994E-2,1.4068194E-2,7.177081E-2,-1.3888509E-3,-9.865698E-2],"categories":[],"categories_nodes":[],"categories_segments":[],"categories_sizes":[],"default_left":[0,0,0,0,0,0,0,0,0,0,0,0,0,0,0,0,0],"id":73,"left_children":[1,3,-1,-1,5,7,9,11,13,-1,15,-1,-1,-1,-1,-1,-1],"loss_changes":[8.814074E1,8.5996216E1,0E0,0E0,6.731397E1,1.4898247E1,6.451031E1,8.793835E0,2.0923677E1,0E0,6.0926857E1,0E0,0E0,0E0,0E0,0E0,0E0],"parents":[2147483647,0,0,1,1,4,4,5,5,6,6,7,7,8,8,10,10],"right_children":[2,4,-1,-1,6,8,10,12,14,-1,16,-1,-1,-1,-1,-1,-1],"split_conditions":[7.009767E-1,3.934038E-1,-9.898669E-2,9.9030934E-2,1.6143796E-1,8.042661E-2,1E1,6.812407E-1,2E1,9.868448E-2,7.015178E-1,7.855236E-2,-2.4879994E-2,1.4068194E-2,7.177081E-2,-1.3888509E-3,-9.865698E-2],"split_indices":[3,2,0,0,1,1,4,3,4,0,2,0,0,0,0,0,0],"split_type":[0,0,0,0,0,0,0,0,0,0,0,0,0,0,0,0,0],"sum_hessian":[1.3172769E4,1.3084408E4,8.835988E1,8.72817E1,1.2997127E4,4.593794E2,1.2537747E4,1.0683599E2,3.525434E2,6.309864E1,1.2474648E4,9.832989E1,8.506101E0,2.7148135E2,8.106207E1,1.2410915E4,6.373354E1],"tree_param":{"num_deleted":"0","num_feature":"5","num_nodes":"17","size_leaf_vector":"1"}},{"base_weights":[-5.231916E-5,9.8923005E-2,-6.4483504E-3,-3.1330928E-4,-9.8861866E-2,3.0082755E-2,-1.5694958E-1,5.721854E-2,-2.4942036E-1,-3.7562168E-1,-4.026787E-2,6.198537E-3,-9.806671E-2,-1.7509056E-2,-6.50205E-2,-1.3724324E-2,-7.952421E-2,9.530069E-2,-7.731388E-3],"categories":[],"categories_nodes":[],"categories_segments":[],"categories_sizes":[],"default_left":[0,0,0,0,0,0,0,0,0,0,0,0,0,0,0,0,0,0,0],"id":74,"left_children":[1,-1,3,5,-1,7,9,11,13,15,17,-1,-1,-1,-1,-1,-1,-1,-1],"loss_changes":[8.3147705E1,0E0,7.8672485E1,6.178632E1,0E0,8.244471E1,5.379691E1,4.9076214E1,2.8543251E1,7.3280594E1,5.0718826E1,0E0,0E0,0E0,0E0,0E0,0E0,0E0,0E0],"parents":[2147483647,0,0,2,2,3,3,5,5,6,6,7,7,8,8,9,9,10,10],"right_children":[2,-1,4,6,-1,8,10,12,14,16,18,-1,-1,-1,-1,-1,-1,-1,-1],"split_conditions":[4.8940337E-1,9.8923005E-2,7.009767E-1,5.166768E-1,-9.8861866E-2,6.008767E1,4.0684933E1,2.2E1,6.562466E1,1.7E1,4.042218E-1,6.198537E-3,-9.806671E-2,-1.7509056E-2,-6.50205E-2,-1.3724324E-2,-7.952421E-2,9.530069E-2,-7.731388E-3],"split_indices":[3,0,3,1,0,0,0,4,0,4,2,0,0,0,0,0,0,0,0],"split_type":[0,0,0,0,0,0,0,0,0,0,0,0,0,0,0,0,0,0,0],"sum_hessian":[1.313872E4,8.341331E1,1.3055307E4,1.2975258E4,8.00485E1,1.0867226E4,2.1080325E3,9.906264E3,9.609623E2,7.3268854E2,1.3753439E3,9.861909E3,4.435377E1,8.118355E2,1.4912672E2,4.68098E2,2.6459055E2,4.8562588E1,1.3267814E3],"tree_param":{"num_deleted":"0","num_feature":"5","num_nodes":"19","size_leaf_vector":"1"}},{"base_weights":[-8.954623E-5,5.8287513E-3,-9.886706E-2,9.886017E-2,-6.473809E-5,9.856432E-2,-4.679962E-3,7.923509E-2,-5.8131315E-2,-9.578815E-3,2.0622456E-2,4.2504724E-2,-8.028495E-3],"categories":[],"categories_nodes":[],"categories_segments":[],"categories_sizes":[],"default_left":[0,0,0,0,0,0,0,0,0,0,0,0,0],"id":75,"left_children":[1,3,-1,-1,5,-1,7,9,11,-1,-1,-1,-1],"loss_changes":[7.666962E1,7.544815E1,0E0,0E0,5.891617E1,0E0,5.782258E1,1.1151146E2,8.433034E1,0E0,0E0,0E0,0E0],"parents":[2147483647,0,0,1,1,4,4,6,6,7,7,8,8],"right_children":[2,4,-1,-1,6,-1,8,10,12,-1,-1,-1,-1],"split_conditions":[7.015178E-1,3.934038E-1,-9.886706E-2,9.886017E-2,1E1,9.856432E-2,3.7142467E1,5.0599796E-1,3.0022234E-1,-9.578815E-3,2.0622456E-2,4.2504724E-2,-8.028495E-3],"split_indices":[2,2,0,0,4,0,0,1,1,0,0,0,0],"split_type":[0,0,0,0,0,0,0,0,0,0,0,0,0],"sum_hessian":[1.3102328E4,1.3025344E4,7.698419E1,7.665075E1,1.2948693E4,5.9354458E1,1.2889339E4,5.0152495E3,7.8740894E3,2.1089016E3,2.906348E3,3.4440073E2,7.5296885E3],"tree_param":{"num_deleted":"0","num_feature":"5","num_nodes":"13","size_leaf_vector":"1"}},{"base_weights":[-3.937304E-5,9.8751746E-2,-5.6774667E-3,-2.1244836E-4,-9.8803125E-2,4.224446E-3,-9.843587E-2,1.3724763E-2,-4.5078024E-1,5.4785985E-2,6.0297997E-4,-1.00124314E-1,-1.2887892E-2],"categories":[],"categories_nodes":[],"categories_segments":[],"categories_sizes":[],"default_left":[0,0,0,0,0,0,0,0,0,0,0,0,0],"id":76,"left_children":[1,-1,3,5,-1,7,-1,9,11,-1,-1,-1,-1],"loss_changes":[7.280369E1,0E0,6.979829E1,5.646527E1,0E0,5.5653557E1,0E0,5.182981E1,4.653024E1,0E0,0E0,0E0,0E0],"parents":[2147483647,0,0,2,2,3,3,5,5,7,7,8,8],"right_children":[2,-1,4,6,-1,8,-1,10,12,-1,-1,-1,-1],"split_conditions":[4.8940337E-1,9.8751746E-2,2.2E1,7.015178E-1,-9.8803125E-2,8.031548E-1,-9.843587E-2,1.0463094E-1,5.855212E-1,5.4785985E-2,6.0297997E-4,-1.00124314E-1,-1.2887892E-2],"split_indices":[3,0,4,2,0,1,0,1,3,0,0,0,0],"split_type":[0,0,0,0,0,0,0,0,0,0,0,0,0],"sum_hessian":[1.3073517E4,7.322615E1,1.300029E4,1.2929362E4,7.0928246E1,1.2872324E4,5.703748E1,1.2610002E4,2.6232202E2,1.7808783E2,1.2431914E4,9.601776E1,1.6630424E2],"tree_param":{"num_deleted":"0","num_feature":"5","num_nodes":"13","size_leaf_vector":"1"}},{"base_weights":[-7.281932E-5,5.208859E-3,-9.864965E-2,9.868582E-2,-3.5565256E-5,9.83538E-2,-4.174423E-3,2.0804918E-1,-2.2923516E-2,-1.023419E-2,3.2334596E-2,-1.5592038E-2,6.36437E-4],"categories":[],"categories_nodes":[],"categories_segments":[],"categories_sizes":[],"default_left":[0,0,0,0,0,0,0,0,0,0,0,0,0],"id":77,"left_children":[1,3,-1,-1,5,-1,7,9,11,-1,-1,-1,-1],"loss_changes":[6.797744E1,6.681363E1,0E0,0E0,5.255954E1,0E0,5.116284E1,3.738627E1,4.6019844E1,0E0,0E0,0E0,0E0],"parents":[2147483647,0,0,1,1,4,4,6,6,7,7,8,8],"right_children":[2,4,-1,-1,6,-1,8,10,12,-1,-1,-1,-1],"split_conditions":[7.009767E-1,3.934038E-1,-9.864965E-2,9.868582E-2,1E1,9.83538E-2,2.4266244E-1,2.7372602E1,5.0599796E-1,-1.023419E-2,3.2334596E-2,-1.5592038E-2,6.36437E-4],"split_indices":[3,2,0,0,4,0,1,0,1,0,0,0,0],"split_type":[0,0,0,0,0,0,0,0,0,0,0,0,0],"sum_hessian":[1.3045575E4,1.2977086E4,6.848942E1,6.796652E1,1.2909119E4,5.31021E1,1.2856018E4,1.0427612E3,1.1813256E4,2.8246042E2,7.6030084E2,2.131184E3,9.682072E3],"tree_param":{"num_deleted":"0","num_feature":"5","num_nodes":"13","size_leaf_vector":"1"}},{"base_weights":[-2.7863041E-5,9.856261E-2,-5.003278E-3,-1.3680312E-4,-9.8614454E-2,3.8281502E-3,-9.8217435E-2,9.8145686E-2,1.5047181E-5,8.6415646E-4,-4.1984566E-2],"categories":[],"categories_nodes":[],"categories_segments":[],"categories_sizes":[],"default_left":[0,0,0,0,0,0,0,0,0,0,0],"id":78,"left_children":[1,-1,3,5,-1,7,-1,-1,9,-1,-1],"loss_changes":[6.3887093E1,0E0,6.1889576E1,5.0229168E1,0E0,4.789536E1,0E0,0E0,4.636167E1,0E0,0E0],"parents":[2147483647,0,0,2,2,3,3,5,5,8,8],"right_children":[2,-1,4,6,-1,8,-1,-1,10,-1,-1],"split_conditions":[4.8940337E-1,9.856261E-2,2.2E1,7.015178E-1,-9.8614454E-2,3.934038E-1,-9.8217435E-2,9.8145686E-2,8.031548E-1,8.6415646E-4,-4.1984566E-2],"split_indices":[3,0,4,2,0,2,0,0,1,0,0],"split_type":[0,0,0,0,0,0,0,0,0,0,0],"sum_hessian":[1.3025442E4,6.4430084E1,1.2961013E4,1.2898038E4,6.2974323E1,1.2847164E4,5.087402E1,4.8917744E1,1.2798246E4,1.2541545E4,2.5670096E2],"tree_param":{"num_deleted":"0","num_feature":"5","num_nodes":"11","size_leaf_vector":"1"}},{"base_weights":[-3.5468216E-5,4.619796E-3,-9.844736E-2,9.839862E-2,1.0391822E-4,9.812758E-2,-3.6107292E-3,-2.0579331E-5,-9.806582E-2,7.331834E-3,-4.680148E-3],"categories":[],"categories_nodes":[],"categories_segments":[],"categories_sizes":[],"default_left":[0,0,0,0,0,0,0,0,0,0,0],"id":79,"left_children":[1,3,-1,-1,5,-1,7,9,-1,-1,-1],"loss_changes":[5.9583294E1,5.723078E1,0E0,0E0,4.6954193E1,0E0,4.5019394E1,4.3878284E1,0E0,0E0,0E0],"parents":[2147483647,0,0,1,1,4,4,6,6,7,7],"right_children":[2,4,-1,-1,6,-1,8,10,-1,-1,-1],"split_conditions":[7.009767E-1,4.8940337E-1,-9.844736E-2,9.839862E-2,1E1,9.812758E-2,2.2E1,3.7142467E1,-9.806582E-2,7.331834E-3,-4.680148E-3],"split_indices":[3,3,0,0,4,0,4,0,0,0,0],"split_type":[0,0,0,0,0,0,0,0,0,0,0],"sum_hessian":[1.2999456E4,1.2939264E4,6.0192577E1,5.8393837E1,1.288087E4,4.7589577E1,1.283328E4,1.2787294E4,4.5986744E1,4.9798154E3,7.807478E3],"tree_param":{"num_deleted":"0","num_feature":"5","num_nodes":"11","size_leaf_vector":"1"}},{"base_weights":[-3.03381E-5,4.1959323E-3,-9.827384E-2,9.830397E-2,-9.8533965E-6,5.059146E-3,-6.5584683E-1,1.4074497E-1,-1.9503457E-2,2.5413808E-1,-9.1210175E-1,-1.6410539E-2,2.1231102E-2,-2.9638527E-2,1.5072026E-3,-4.3813985E-2,1.4809111E-1,1.2679191E-1,-1.02964394E-1],"categories":[],"categories_nodes":[],"categories_segments":[],"categories_sizes":[],"default_left":[0,0,0,0,0,0,0,0,0,0,0,0,0,0,0,0,0,0,0],"id":80,"left_children":[1,3,-1,-1,5,7,9,11,13,15,17,-1,-1,-1,-1,-1,-1,-1,-1],"loss_changes":[5.3883556E1,5.3182842E1,0E0,0E0,4.2769527E1,4.2550972E1,2.3241192E1,4.2729534E1,1.0349754E2,1.9726189E1,2.1090103E1,0E0,0E0,0E0,0E0,0E0,0E0,0E0,0E0],"parents":[2147483647,0,0,1,1,4,4,5,5,6,6,7,7,8,8,9,9,10,10],"right_children":[2,4,-1,-1,6,8,10,12,14,16,18,-1,-1,-1,-1,-1,-1,-1,-1],"split_conditions":[7.009767E-1,3.934038E-1,-9.827384E-2,9.830397E-2,6.989262E-1,3.5179836E-1,5.3031385E-1,2.6863014E1,5.0599796E-1,5.264122E-1,2.241096E1,-1.6410539E-2,2.1231102E-2,-2.9638527E-2,1.5072026E-3,-4.3813985E-2,1.4809111E-1,1.2679191E-1,-1.02964394E-1],"split_indices":[3,2,0,0,2,1,3,0,1,3,0,0,0,0,0,0,0,0,0],"split_type":[0,0,0,0,0,0,0,0,0,0,0,0,0,0,0,0,0,0,0],"sum_hessian":[1.2972022E4,1.2917465E4,5.455759E1,5.426914E1,1.2863195E4,1.2765522E4,9.767313E1,1.9559523E3,1.080957E4,2.1463282E1,7.620984E1,3.7162894E2,1.5843234E3,1.1991509E3,9.610419E3,1.4131573E1,7.3317094E0,3.3981636E0,7.2811676E1],"tree_param":{"num_deleted":"0","num_feature":"5","num_nodes":"19","size_leaf_vector":"1"}},{"base_weights":[-3.319517E-5,9.8185845E-2,-4.0608607E-3,-1.4451859E-4,-9.8205216E-2,2.4871437E-2,-1.3392498E-1,4.8350096E-2,-2.1866024E-1,-3.702505E-1,-1.0959167E-2,4.9143624E-2,4.051353E-3,-1.50856E-2,-5.887056E-2,-1.6070057E-2,-7.528557E-2,8.7694995E-2,-4.355232E-3],"categories":[],"categories_nodes":[],"categories_segments":[],"categories_sizes":[],"default_left":[0,0,0,0,0,0,0,0,0,0,0,0,0,0,0,0,0,0,0],"id":81,"left_children":[1,-1,3,5,-1,7,9,11,13,15,17,-1,-1,-1,-1,-1,-1,-1,-1],"loss_changes":[5.1237648E1,0E0,4.9420654E1,4.301656E1,0E0,6.1927128E1,5.8839287E1,3.4277054E1,2.3806782E1,5.5438606E1,3.86124E1,0E0,0E0,0E0,0E0,0E0,0E0,0E0,0E0],"parents":[2147483647,0,0,2,2,3,3,5,5,6,6,7,7,8,8,9,9,10,10],"right_children":[2,-1,4,6,-1,8,10,12,14,16,18,-1,-1,-1,-1,-1,-1,-1,-1],"split_conditions":[4.8940337E-1,9.8185845E-2,2.2E1,5.2263194E-1,-9.8205216E-2,6.008767E1,4.0684933E1,1.0463094E-1,6.562466E1,1.7E1,4.042218E-1,4.9143624E-2,4.051353E-3,-1.50856E-2,-5.887056E-2,-1.6070057E-2,-7.528557E-2,8.7694995E-2,-4.355232E-3],"split_indices":[3,0,4,1,0,0,0,1,0,4,2,0,0,0,0,0,0,0,0],"split_type":[0,0,0,0,0,0,0,0,0,0,0,0,0,0,0,0,0,0,0],"sum_hessian":[1.295403E4,5.1927853E1,1.2902103E4,1.2851639E4,5.0463924E1,1.0827744E4,2.0238942E3,9.876374E3,9.513704E2,6.9198016E2,1.331914E3,1.7056866E2,9.705806E3,8.0523334E2,1.4613705E2,4.4802197E2,2.4395822E2,4.624314E1,1.2856708E3],"tree_param":{"num_deleted":"0","num_feature":"5","num_nodes":"19","size_leaf_vector":"1"}},{"base_weights":[-3.851234E-5,9.821042E-2,-3.9804853E-3,-1.7186499E-4,-9.8107025E-2,9.7676404E-2,-3.2986428E-3,-2.5055543E-4,-9.757752E-2,1.348859E-3,-2.1282328E-2],"categories":[],"categories_nodes":[],"categories_segments":[],"categories_sizes":[],"default_left":[0,0,0,0,0,0,0,0,0,0,0],"id":82,"left_children":[1,-1,3,5,-1,-1,7,9,-1,-1,-1],"loss_changes":[5.00566E1,0E0,4.7921867E1,3.919009E1,0E0,0E0,3.790769E1,3.72391E1,0E0,0E0,0E0],"parents":[2147483647,0,0,2,2,3,3,6,6,7,7],"right_children":[2,-1,4,6,-1,-1,8,10,-1,-1,-1],"split_conditions":[1E1,9.821042E-2,7.015178E-1,3.934038E-1,-9.8107025E-2,9.7676404E-2,7.009767E-1,6.9992167E-1,-9.757752E-2,1.348859E-3,-2.1282328E-2],"split_indices":[4,0,2,2,0,0,3,1,0,0,0],"split_type":[0,0,0,0,0,0,0,0,0,0,0],"sum_hessian":[1.2927233E4,5.0685955E1,1.2876548E4,1.2827547E4,4.900061E1,3.9931377E1,1.2787615E4,1.2748657E4,3.895857E1,1.197558E4,7.730773E2],"tree_param":{"num_deleted":"0","num_feature":"5","num_nodes":"11","size_leaf_vector":"1"}},{"base_weights":[-4.0231113E-5,9.800171E-2,-3.6190113E-3,-1.4329547E-4,-9.794557E-2,9.7550385E-2,-3.1626835E-3,-2.0814517E-4,-9.752792E-2,6.3590164E-4,-4.1479196E-2],"categories":[],"categories_nodes":[],"categories_segments":[],"categories_sizes":[],"default_left":[0,0,0,0,0,0,0,0,0,0,0],"id":83,"left_children":[1,-1,3,5,-1,-1,7,9,-1,-1,-1],"loss_changes":[4.526685E1,0E0,4.3614452E1,3.7752644E1,0E0,0E0,3.6694218E1,3.468417E1,0E0,0E0,0E0],"parents":[2147483647,0,0,2,2,3,3,6,6,7,7],"right_children":[2,-1,4,6,-1,-1,8,10,-1,-1,-1],"split_conditions":[1E1,9.800171E-2,2.2E1,4.8940337E-1,-9.794557E-2,9.7550385E-2,7.015178E-1,6.519452E1,-9.752792E-2,6.3590164E-4,-4.1479196E-2],"split_indices":[4,0,4,3,0,0,2,0,0,0,0],"split_type":[0,0,0,0,0,0,0,0,0,0,0],"sum_hessian":[1.2904051E4,4.5956352E1,1.2858095E4,1.2813456E4,4.4638565E1,3.853847E1,1.2774917E4,1.2737206E4,3.7711773E1,1.253956E4,1.976466E2],"tree_param":{"num_deleted":"0","num_feature":"5","num_nodes":"11","size_leaf_vector":"1"}},