# Pure Python inference logic for CreditNeverBefore
# Generated by m2cgen; no dependencies required for prediction
import math
def sigmoid(x):
    if x < 0.0:
        z = math.exp(x)
        return z / (1.0 + z)
    return 1.0 / (1.0 + math.exp(-x))
def score(input):
    if input[1] < 0.4149567:
        if input[1] < 0.2594678:
            if input[2] < 0.60451925:
                if input[3] < 0.7501118:
                    if input[0] < 49.953922:
                        var0 = 0.17845054
                    else:
                        var0 = 0.14207987
                else:
                    if input[1] < 0.1648771:
                        var0 = 0.1397606
                    else:
                        var0 = 0.063606
            else:
                if input[0] < 47.65519:
                    if input[3] < 0.55011344:
                        var0 = 0.14071578
                    else:
                        var0 = 0.044455756
                else:
                    if input[1] < 0.09665054:
                        var0 = 0.05017587
                    else:
                        var0 = -0.070361726
        else:
            if input[2] < 0.8293373:
                if input[3] < 0.54720646:
                    if input[0] < 39.997562:
                        var0 = 0.1318662
                    else:
                        var0 = 0.042815816
                else:
                    if input[0] < 43.64436:
                        var0 = 0.024131414
                    else:
                        var0 = -0.07769986
            else:
                if input[0] < 30.436344:
                    if input[1] < 0.3386852:
                        var0 = 0.009022963
                    else:
                        var0 = -0.15555556
                else:
                    var0 = -0.19540231
    else:
        if input[1] < 0.67353845:
            if input[2] < 0.3721461:
                if input[0] < 49.432632:
                    if input[3] < 0.52193445:
                        var0 = 0.0755404
                    else:
                        var0 = -0.031590644
                else:
                    if input[1] < 0.45764422:
                        var0 = -0.015850497
                    else:
                        var0 = -0.12507278
            else:
                if input[0] < 38.096275:
                    if input[3] < 0.63948727:
                        var0 = -0.061072487
                    else:
                        var0 = -0.16356581
                else:
                    if input[3] < 0.0976793:
                        var0 = -0.0914292
                    else:
                        var0 = -0.19130842
        else:
            if input[2] < 0.29602346:
                if input[1] < 0.75199986:
                    if input[3] < 0.3720221:
                        var0 = -0.02407109
                    else:
                        var0 = -0.14409676
                else:
                    if input[0] < 21.113441:
                        var0 = -0.023067564
                    else:
                        var0 = -0.18831202
            else:
                if input[3] < 0.99188805:
                    var0 = -0.19478275
                else:
                    if input[0] < 24.366991:
                        var0 = 0.06299919
                    else:
                        var0 = -0.15555556
    if input[1] < 0.4149567:
        if input[2] < 0.60451925:
            if input[1] < 0.2594678:
                if input[0] < 42.262836:
                    if input[3] < 0.7501118:
                        var1 = 0.16661018
                    else:
                        var1 = 0.13455467
                else:
                    if input[2] < 0.37596452:
                        var1 = 0.14205153
                    else:
                        var1 = 0.082721375
            else:
                if input[3] < 0.6860671:
                    if input[0] < 39.258602:
                        var1 = 0.12841944
                    else:
                        var1 = 0.05063648
                else:
                    if input[2] < 0.28010893:
                        var1 = 0.03189891
                    else:
                        var1 = -0.10553306
        else:
            if input[1] < 0.22639751:
                if input[0] < 53.882935:
                    if input[3] < 0.71289444:
                        var1 = 0.119371295
                    else:
                        var1 = 0.011478891
                else:
                    if input[2] < 0.73814577:
                        var1 = 0.044814114
                    else:
                        var1 = -0.08726423
            else:
                if input[2] < 0.8293373:
                    if input[3] < 0.2518409:
                        var1 = 0.077886485
                    else:
                        var1 = -0.047145333
                else:
                    if input[0] < 30.436344:
                        var1 = -0.054125607
                    else:
                        var1 = -0.16232343
    else:
        if input[1] < 0.5075505:
            if input[2] < 0.3721461:
                if input[0] < 54.26073:
                    if input[3] < 0.80150026:
                        var1 = 0.10283804
                    else:
                        var1 = -0.051921602
                else:
                    if input[0] < 63.901463:
                        var1 = -0.11154049
                    else:
                        var1 = 0.02248597
            else:
                if input[0] < 25.847363:
                    if input[3] < 0.6182064:
                        var1 = 0.07113391
                    else:
                        var1 = -0.13845126
                else:
                    if input[3] < 0.0976793:
                        var1 = -0.035465125
                    else:
                        var1 = -0.14721823
        else:
            if input[1] < 0.6971681:
                if input[2] < 0.4079951:
                    if input[0] < 37.24329:
                        var1 = 0.010512084
                    else:
                        var1 = -0.10193961
                else:
                    if input[0] < 31.05111:
                        var1 = -0.10307212
                    else:
                        var1 = -0.17127794
            else:
                if input[0] < 29.066072:
                    if input[2] < 0.059141666:
                        var1 = -0.012088225
                    else:
                        var1 = -0.15204424
                else:
                    if input[1] < 0.7213598:
                        var1 = -0.14496808
                    else:
                        var1 = -0.17903833
    if input[1] < 0.4149567:
        if input[2] < 0.45041138:
            if input[1] < 0.24044622:
                if input[0] < 66.11788:
                    if input[3] < 0.61130023:
                        var2 = 0.15213798
                    else:
                        var2 = 0.12131412
                else:
                    if input[2] < 0.4173629:
                        var2 = 0.09027039
                    else:
                        var2 = -0.14946108
            else:
                if input[0] < 45.043438:
                    if input[3] < 0.37565613:
                        var2 = 0.14546244
                    else:
                        var2 = 0.08244666
                else:
                    if input[3] < 0.6860671:
                        var2 = 0.059316974
                    else:
                        var2 = -0.063102834
        else:
            if input[1] < 0.24044622:
                if input[0] < 47.65519:
                    if input[3] < 0.5664358:
                        var2 = 0.12747116
                    else:
                        var2 = 0.059443813
                else:
                    if input[2] < 0.7260814:
                        var2 = 0.05662455
                    else:
                        var2 = -0.045816466
            else:
                if input[0] < 34.651882:
                    if input[2] < 0.77918696:
                        var2 = 0.065811925
                    else:
                        var2 = -0.04764835
                else:
                    if input[3] < 0.21702541:
                        var2 = 0.015994972
                    else:
                        var2 = -0.10895976
    else:
        if input[1] < 0.5075505:
            if input[2] < 0.3721461:
                if input[0] < 50.09985:
                    if input[3] < 0.3675927:
                        var2 = 0.12733655
                    else:
                        var2 = 0.0351111
                else:
                    if input[4] < 149.96707:
                        var2 = -0.0007676485
                    else:
                        var2 = -0.108619355
            else:
                if input[0] < 29.847977:
                    if input[2] < 0.67660487:
                        var2 = 0.063362464
                    else:
                        var2 = -0.09076038
                else:
                    if input[3] < 0.14776227:
                        var2 = -0.052338578
                    else:
                        var2 = -0.14636686
        else:
            if input[1] < 0.6971681:
                if input[2] < 0.36725855:
                    if input[0] < 32.33612:
                        var2 = 0.032594174
                    else:
                        var2 = -0.08065851
                else:
                    if input[0] < 43.38262:
                        var2 = -0.11096209
                    else:
                        var2 = -0.16622525
            else:
                if input[0] < 29.066072:
                    if input[2] < 0.059141666:
                        var2 = -0.010990676
                    else:
                        var2 = -0.13979957
                else:
                    if input[1] < 0.7213598:
                        var2 = -0.13289878
                    else:
                        var2 = -0.16541654
    if input[1] < 0.41149577:
        if input[2] < 0.45041138:
            if input[1] < 0.27641279:
                if input[3] < 0.61130023:
                    if input[0] < 49.953922:
                        var3 = 0.14629914
                    else:
                        var3 = 0.11828392
                else:
                    if input[1] < 0.17319112:
                        var3 = 0.11956934
                    else:
                        var3 = 0.06511573
            else:
                if input[0] < 38.891884:
                    if input[3] < 0.47845614:
                        var3 = 0.13808821
                    else:
                        var3 = 0.054812938
                else:
                    if input[3] < 0.13474427:
                        var3 = 0.117409185
                    else:
                        var3 = -0.011685465
        else:
            if input[1] < 0.2445198:
                if input[0] < 47.65519:
                    if input[3] < 0.6028352:
                        var3 = 0.1151279
                    else:
                        var3 = 0.04890283
                else:
                    if input[3] < 0.3009151:
                        var3 = 0.07331658
                    else:
                        var3 = -0.027402082
            else:
                if input[0] < 34.651882:
                    if input[2] < 0.77918696:
                        var3 = 0.06195407
                    else:
                        var3 = -0.040310264
                else:
                    if input[3] < 0.21702541:
                        var3 = 0.014461483
                    else:
                        var3 = -0.1034854
    else:
        if input[1] < 0.6426065:
            if input[2] < 0.3721461:
                if input[0] < 54.26073:
                    if input[4] < 103.03472:
                        var3 = 0.08529824
                    else:
                        var3 = -0.00034380372
                else:
                    if input[1] < 0.63530076:
                        var3 = -0.10141476
                    else:
                        var3 = 0.07582664
            else:
                if input[0] < 38.096275:
                    if input[3] < 0.63948727:
                        var3 = -0.03347612
                    else:
                        var3 = -0.12992057
                else:
                    if input[3] < 0.0976793:
                        var3 = -0.059307456
                    else:
                        var3 = -0.15104133
        else:
            if input[1] < 0.7213598:
                if input[2] < 0.27042523:
                    if input[4] < 144.13393:
                        var3 = -0.0035763893
                    else:
                        var3 = -0.118360005
                else:
                    if input[0] < 39.79963:
                        var3 = -0.10706563
                    else:
                        var3 = -0.15932485
            else:
                if input[0] < 29.066072:
                    if input[2] < 0.059141666:
                        var3 = -0.0022080438
                    else:
                        var3 = -0.13392779
                else:
                    var3 = -0.15475678
    if input[1] < 0.46240616:
        if input[1] < 0.2594678:
            if input[2] < 0.60451925:
                if input[0] < 38.096275:
                    if input[3] < 0.74650645:
                        var4 = 0.13926905
                    else:
                        var4 = 0.10862634
                else:
                    if input[1] < 0.079948165:
                        var4 = 0.1285454
                    else:
                        var4 = 0.08157181
            else:
                if input[0] < 53.882935:
                    if input[3] < 0.55011344:
                        var4 = 0.095356494
                    else:
                        var4 = 0.015046643
                else:
                    if input[2] < 0.7260814:
                        var4 = 0.03469431
                    else:
                        var4 = -0.074710555
        else:
            if input[2] < 0.39645725:
                if input[0] < 45.043438:
                    if input[3] < 0.54335713:
                        var4 = 0.118938245
                    else:
                        var4 = 0.048784114
                else:
                    if input[3] < 0.2726734:
                        var4 = 0.068096004
                    else:
                        var4 = -0.014264494
            else:
                if input[2] < 0.8293373:
                    if input[3] < 0.6909544:
                        var4 = 0.013535276
                    else:
                        var4 = -0.10473459
                else:
                    if input[0] < 30.436344:
                        var4 = -0.032962818
                    else:
                        var4 = -0.15684254
    else:
        if input[1] < 0.67353845:
            if input[2] < 0.36725855:
                if input[0] < 46.45197:
                    if input[3] < 0.5070682:
                        var4 = 0.056027927
                    else:
                        var4 = -0.05578342
                else:
                    if input[2] < 0.030627206:
                        var4 = 0.03097373
                    else:
                        var4 = -0.109436326
            else:
                if input[0] < 40.39623:
                    if input[3] < 0.5801518:
                        var4 = -0.036197167
                    else:
                        var4 = -0.124739185
                else:
                    if input[3] < 0.0976793:
                        var4 = -0.085983016
                    else:
                        var4 = -0.14787553
        else:
            if input[2] < 0.29602346:
                if input[1] < 0.75199986:
                    if input[3] < 0.3720221:
                        var4 = 0.008868366
                    else:
                        var4 = -0.10559185
                else:
                    if input[0] < 20.20038:
                        var4 = 0.07052389
                    else:
                        var4 = -0.13753349
            else:
                if input[3] < 0.99188805:
                    var4 = -0.1456321
                else:
                    if input[2] < 0.34035194:
                        var4 = 0.08783465
                    else:
                        var4 = -0.117188014
    if input[1] < 0.5075505:
        if input[1] < 0.30766857:
            if input[2] < 0.7898317:
                if input[0] < 36.463123:
                    if input[3] < 0.87299955:
                        var5 = 0.12611775
                    else:
                        var5 = 0.07402773
                else:
                    if input[2] < 0.44275317:
                        var5 = 0.09533929
                    else:
                        var5 = 0.034293238
            else:
                if input[1] < 0.14657412:
                    if input[0] < 53.882935:
                        var5 = 0.07517373
                    else:
                        var5 = -0.04696756
                else:
                    if input[0] < 46.45197:
                        var5 = -0.008561712
                    else:
                        var5 = -0.122882545
        else:
            if input[2] < 0.3721461:
                if input[0] < 50.643673:
                    if input[3] < 0.49677175:
                        var5 = 0.09978442
                    else:
                        var5 = 0.01657701
                else:
                    if input[2] < 0.13235511:
                        var5 = 0.022886863
                    else:
                        var5 = -0.06121363
            else:
                if input[3] < 0.12522842:
                    if input[2] < 0.82080245:
                        var5 = 0.058923274
                    else:
                        var5 = -0.08260977
                else:
                    if input[0] < 25.847363:
                        var5 = 0.013455229
                    else:
                        var5 = -0.09014616
    else:
        if input[2] < 0.41132635:
            if input[1] < 0.7213598:
                if input[3] < 0.5070682:
                    if input[0] < 37.24329:
                        var5 = 0.053144813
                    else:
                        var5 = -0.055077177
                else:
                    if input[4] < 18.187342:
                        var5 = 0.0771304
                    else:
                        var5 = -0.11967995
            else:
                if input[0] < 29.066072:
                    if input[1] < 0.9125066:
                        var5 = -0.02346323
                    else:
                        var5 = -0.14002554
                else:
                    if input[0] < 32.184837:
                        var5 = -0.09788831
                    else:
                        var5 = -0.14088325
        else:
            if input[1] < 0.6693766:
                if input[0] < 31.05111:
                    if input[0] < 30.436344:
                        var5 = -0.083652414
                    else:
                        var5 = 0.14536445
                else:
                    if input[2] < 0.5234481:
                        var5 = -0.09719996
                    else:
                        var5 = -0.1396126
            else:
                var5 = -0.13958907
    if input[1] < 0.5075505:
        if input[1] < 0.26945978:
            if input[2] < 0.60451925:
                if input[3] < 0.73864806:
                    if input[1] < 0.1648771:
                        var6 = 0.11801199
                    else:
                        var6 = 0.08771373
                else:
                    if input[0] < 45.22726:
                        var6 = 0.092383124
                    else:
                        var6 = 0.017346617
            else:
                if input[3] < 0.5327291:
                    if input[0] < 54.836246:
                        var6 = 0.08340343
                    else:
                        var6 = -0.007542
                else:
                    if input[2] < 0.86229956:
                        var6 = 0.0202118
                    else:
                        var6 = -0.09122484
        else:
            if input[2] < 0.39645725:
                if input[0] < 42.60599:
                    if input[3] < 0.49677175:
                        var6 = 0.104048565
                    else:
                        var6 = 0.042061556
                else:
                    if input[3] < 0.3306729:
                        var6 = 0.04806279
                    else:
                        var6 = -0.026234282
            else:
                if input[0] < 39.628635:
                    if input[3] < 0.70965713:
                        var6 = 0.023058338
                    else:
                        var6 = -0.069451325
                else:
                    if input[3] < 0.21702541:
                        var6 = -0.011365281
                    else:
                        var6 = -0.1196959
    else:
        if input[1] < 0.7213598:
            if input[2] < 0.27042523:
                if input[3] < 0.08353686:
                    if input[0] < 44.022472:
                        var6 = 0.12816726
                    else:
                        var6 = -0.00807475
                else:
                    if input[4] < 144.13393:
                        var6 = -0.0030662117
                    else:
                        var6 = -0.08893938
            else:
                if input[0] < 37.24329:
                    if input[3] < 0.5801518:
                        var6 = -0.03775434
                    else:
                        var6 = -0.12894334
                else:
                    if input[3] < 0.0976793:
                        var6 = -0.08952379
                    else:
                        var6 = -0.13040118
        else:
            if input[0] < 29.066072:
                if input[2] < 0.41132635:
                    if input[0] < 28.863354:
                        var6 = -0.06418552
                    else:
                        var6 = 0.12430394
                else:
                    if input[0] < 28.367863:
                        var6 = -0.13774218
                    else:
                        var6 = -0.060973465
            else:
                var6 = -0.13355498
    if input[1] < 0.5075505:
        if input[1] < 0.24044622:
            if input[2] < 0.60451925:
                if input[0] < 38.096275:
                    if input[3] < 0.74650645:
                        var7 = 0.12180515
                    else:
                        var7 = 0.08855326
                else:
                    if input[2] < 0.37596452:
                        var7 = 0.09649892
                    else:
                        var7 = 0.046002228
            else:
                if input[0] < 46.32979:
                    if input[3] < 0.55011344:
                        var7 = 0.0883119
                    else:
                        var7 = 0.020783037
                else:
                    if input[1] < 0.07176574:
                        var7 = 0.05207425
                    else:
                        var7 = -0.044541113
        else:
            if input[2] < 0.73136836:
                if input[0] < 39.258602:
                    if input[3] < 0.72488856:
                        var7 = 0.07625286
                    else:
                        var7 = -0.0012405835
                else:
                    if input[3] < 0.2726734:
                        var7 = 0.047570247
                    else:
                        var7 = -0.036596593
            else:
                if input[0] < 42.787037:
                    if input[3] < 0.13474427:
                        var7 = 0.06677425
                    else:
                        var7 = -0.06988154
                else:
                    if input[1] < 0.26608053:
                        var7 = -0.025612706
                    else:
                        var7 = -0.13094005
    else:
        if input[1] < 0.7213598:
            if input[2] < 0.4079951:
                if input[3] < 0.5070682:
                    if input[0] < 37.24329:
                        var7 = 0.05084191
                    else:
                        var7 = -0.04581304
                else:
                    if input[4] < 11.59672:
                        var7 = 0.096645154
                    else:
                        var7 = -0.10291298
            else:
                if input[0] < 31.05111:
                    if input[0] < 30.436344:
                        var7 = -0.081135884
                    else:
                        var7 = 0.122377515
                else:
                    if input[2] < 0.5234481:
                        var7 = -0.096166804
                    else:
                        var7 = -0.12988417
        else:
            if input[0] < 29.066072:
                if input[2] < 0.41132635:
                    if input[1] < 0.9125066:
                        var7 = -0.016500844
                    else:
                        var7 = -0.13066366
                else:
                    if input[0] < 28.367863:
                        var7 = -0.1324696
                    else:
                        var7 = -0.057149816
            else:
                if input[2] < 0.086596146:
                    if input[2] < 0.07756298:
                        var7 = -0.1286022
                    else:
                        var7 = 0.02749466
                else:
                    var7 = -0.13037477
    if input[1] < 0.4149567:
        if input[2] < 0.45041138:
            if input[1] < 0.17688727:
                if input[0] < 63.901463:
                    if input[3] < 0.9069923:
                        var8 = 0.110296845
                    else:
                        var8 = 0.05052359
                else:
                    if input[2] < 0.4173629:
                        var8 = 0.06642636
                    else:
                        var8 = -0.15878707
            else:
                if input[3] < 0.54720646:
                    if input[0] < 64.24578:
                        var8 = 0.08594447
                    else:
                        var8 = -0.007397674
                else:
                    if input[2] < 0.09961837:
                        var8 = 0.08394007
                    else:
                        var8 = -0.007867752
        else:
            if input[1] < 0.14657412:
                if input[0] < 34.651882:
                    if input[2] < 0.8777956:
                        var8 = 0.11484349
                    else:
                        var8 = 0.054877557
                else:
                    if input[3] < 0.9639979:
                        var8 = 0.043436255
                    else:
                        var8 = -0.17471196
            else:
                if input[3] < 0.47845614:
                    if input[0] < 54.080544:
                        var8 = 0.048073363
                    else:
                        var8 = -0.039913535
                else:
                    if input[0] < 37.24329:
                        var8 = -0.0054634423
                    else:
                        var8 = -0.08700475
    else:
        if input[1] < 0.67353845:
            if input[2] < 0.3721461:
                if input[0] < 54.26073:
                    if input[4] < 119.569275:
                        var8 = 0.06372197
                    else:
                        var8 = -0.019184342
                else:
                    if input[1] < 0.4842476:
                        var8 = -0.014350082
                    else:
                        var8 = -0.09862152
            else:
                if input[0] < 38.096275:
                    if input[2] < 0.7159666:
                        var8 = -0.010484245
                    else:
                        var8 = -0.08709665
                else:
                    if input[3] < 0.0976793:
                        var8 = -0.045958977
                    else:
                        var8 = -0.122109905
        else:
            if input[2] < 0.29602346:
                if input[1] < 0.75199986:
                    if input[3] < 0.3720221:
                        var8 = 0.01954232
                    else:
                        var8 = -0.08160002
                else:
                    if input[0] < 21.113441:
                        var8 = 0.013745241
                    else:
                        var8 = -0.11719109
            else:
                if input[3] < 0.99188805:
                    if input[0] < 28.526836:
                        var8 = -0.10889919
                    else:
                        var8 = -0.12641929
                else:
                    if input[2] < 0.34035194:
                        var8 = 0.092929095
                    else:
                        var8 = -0.09569266
    if input[1] < 0.5075505:
        if input[1] < 0.30766857:
            if input[2] < 0.7898317:
                if input[3] < 0.67260206:
                    if input[0] < 49.953922:
                        var9 = 0.09981828
                    else:
                        var9 = 0.05559952
                else:
                    if input[0] < 42.433533:
                        var9 = 0.06978464
                    else:
                        var9 = -0.00087542005
            else:
                if input[1] < 0.14657412:
                    if input[0] < 53.882935:
                        var9 = 0.057270754
                    else:
                        var9 = -0.04500527
                else:
                    if input[0] < 26.980139:
                        var9 = 0.047278862
                    else:
                        var9 = -0.07023952
        else:
            if input[2] < 0.31301787:
                if input[0] < 42.262836:
                    if input[3] < 0.3720221:
                        var9 = 0.10234518
                    else:
                        var9 = 0.04023128
                else:
                    if input[4] < 246.21571:
                        var9 = 0.020579074
                    else:
                        var9 = -0.06533042
            else:
                if input[3] < 0.34046844:
                    if input[2] < 0.74602395:
                        var9 = 0.02251495
                    else:
                        var9 = -0.06175269
                else:
                    if input[0] < 38.096275:
                        var9 = -0.03137996
                    else:
                        var9 = -0.09616207
    else:
        if input[1] < 0.7213598:
            if input[2] < 0.4079951:
                if input[3] < 0.5070682:
                    if input[0] < 37.24329:
                        var9 = 0.04568462
                    else:
                        var9 = -0.039433476
                else:
                    if input[4] < 7.8450027:
                        var9 = 0.11105347
                    else:
                        var9 = -0.091420926
            else:
                if input[0] < 31.05111:
                    if input[0] < 30.436344:
                        var9 = -0.0710012
                    else:
                        var9 = 0.1168639
                else:
                    if input[2] < 0.5234481:
                        var9 = -0.085886605
                    else:
                        var9 = -0.12145273
        else:
            if input[0] < 29.066072:
                if input[2] < 0.41132635:
                    if input[1] < 0.9125066:
                        var9 = -0.007823692
                    else:
                        var9 = -0.12156802
                else:
                    if input[0] < 28.367863:
                        var9 = -0.12471738
                    else:
                        var9 = -0.04608107
            else:
                if input[2] < 0.086596146:
                    if input[2] < 0.07756298:
                        var9 = -0.12104305
                    else:
                        var9 = 0.03226431
                else:
                    var9 = -0.122629665
    if input[1] < 0.5075505:
        if input[1] < 0.19164641:
            if input[2] < 0.61727196:
                if input[0] < 63.901463:
                    if input[3] < 0.57608384:
                        var10 = 0.104103744
                    else:
                        var10 = 0.07106962
                else:
                    if input[1] < 0.062649444:
                        var10 = 0.094500236
                    else:
                        var10 = -0.038040735
            else:
                if input[0] < 35.743923:
                    if input[3] < 0.47845614:
                        var10 = 0.10286047
                    else:
                        var10 = 0.04037375
                else:
                    if input[3] < 0.23511992:
                        var10 = 0.06296822
                    else:
                        var10 = -0.013492058
        else:
            if input[2] < 0.31301787:
                if input[3] < 0.71289444:
                    if input[0] < 57.719646:
                        var10 = 0.07650085
                    else:
                        var10 = 0.024333019
                else:
                    if input[0] < 32.33612:
                        var10 = 0.06437938
                    else:
                        var10 = -0.023938619
            else:
                if input[0] < 38.096275:
                    if input[3] < 0.7209435:
                        var10 = 0.038593378
                    else:
                        var10 = -0.061430015
                else:
                    if input[3] < 0.22015043:
                        var10 = 0.0026234994
                    else:
                        var10 = -0.07009482
    else:
        if input[1] < 0.7213598:
            if input[2] < 0.27042523:
                if input[3] < 0.08353686:
                    if input[0] < 44.022472:
                        var10 = 0.11451004
                    else:
                        var10 = 0.0026670087
                else:
                    if input[4] < 144.13393:
                        var10 = 0.0030375912
                    else:
                        var10 = -0.072691284
            else:
                if input[0] < 37.24329:
                    if input[3] < 0.63276666:
                        var10 = -0.025086774
                    else:
                        var10 = -0.118713155
                else:
                    if input[3] < 0.0976793:
                        var10 = -0.0675387
                    else:
                        var10 = -0.112939395
        else:
            if input[0] < 29.066072:
                if input[2] < 0.41132635:
                    if input[4] < 34.46883:
                        var10 = 0.086136125
                    else:
                        var10 = -0.05249662
                else:
                    if input[0] < 28.367863:
                        var10 = -0.121328436
                    else:
                        var10 = -0.04315293
            else:
                if input[2] < 0.086596146:
                    if input[2] < 0.07756298:
                        var10 = -0.1177563
                    else:
                        var10 = 0.029265687
                else:
                    var10 = -0.1194188
    if input[1] < 0.38151532:
        if input[2] < 0.81679225:
            if input[3] < 0.7209435:
                if input[0] < 37.67035:
                    if input[1] < 0.32277694:
                        var11 = 0.095134385
                    else:
                        var11 = 0.05271094
                else:
                    if input[1] < 0.07176574:
                        var11 = 0.098999806
                    else:
                        var11 = 0.03563113
            else:
                if input[1] < 0.110388964:
                    if input[0] < 64.080864:
                        var11 = 0.070886336
                    else:
                        var11 = -0.06737459
                else:
                    if input[2] < 0.29602346:
                        var11 = 0.033034988
                    else:
                        var11 = -0.044551305
        else:
            if input[3] < 0.5250513:
                if input[0] < 42.787037:
                    if input[1] < 0.22304565:
                        var11 = 0.08649748
                    else:
                        var11 = -0.011868005
                else:
                    if input[1] < 0.051807445:
                        var11 = 0.08783347
                    else:
                        var11 = -0.09898456
            else:
                if input[1] < 0.19164641:
                    if input[0] < 62.00285:
                        var11 = -0.059296597
                    else:
                        var11 = 0.06604536
                else:
                    if input[1] < 0.24902266:
                        var11 = -0.1526605
                    else:
                        var11 = -0.08559435
    else:
        if input[1] < 0.67353845:
            if input[2] < 0.69921255:
                if input[0] < 30.831118:
                    if input[3] < 0.2965274:
                        var11 = 0.086622864
                    else:
                        var11 = 0.006902687
                else:
                    if input[2] < 0.12855154:
                        var11 = 0.024517022
                    else:
                        var11 = -0.05731339
            else:
                if input[0] < 38.096275:
                    if input[3] < 0.0760202:
                        var11 = 0.068272434
                    else:
                        var11 = -0.08400817
                else:
                    var11 = -0.12562709
        else:
            if input[2] < 0.29602346:
                if input[1] < 0.75199986:
                    if input[3] < 0.3720221:
                        var11 = 0.022796629
                    else:
                        var11 = -0.06821388
                else:
                    if input[0] < 32.184837:
                        var11 = -0.05900484
                    else:
                        var11 = -0.11892568
            else:
                if input[3] < 0.99188805:
                    if input[0] < 28.526836:
                        var11 = -0.09630319
                    else:
                        var11 = -0.11690451
                else:
                    if input[0] < 24.366991:
                        var11 = 0.09468181
                    else:
                        var11 = -0.08491366
    if input[1] < 0.5075505:
        if input[1] < 0.1648771:
            if input[2] < 0.60451925:
                if input[1] < 0.026213532:
                    var12 = 0.11743456
                else:
                    if input[3] < 0.88867056:
                        var12 = 0.080264926
                    else:
                        var12 = -0.00021926429
            else:
                if input[0] < 53.882935:
                    if input[4] < 155.83562:
                        var12 = 0.07319007
                    else:
                        var12 = 0.026376585
                else:
                    if input[3] < 0.23511992:
                        var12 = 0.046569463
                    else:
                        var12 = -0.06429254
        else:
            if input[2] < 0.31301787:
                if input[3] < 0.358973:
                    if input[0] < 57.355545:
                        var12 = 0.09027244
                    else:
                        var12 = 0.017072903
                else:
                    if input[4] < 190.38391:
                        var12 = 0.045537733
                    else:
                        var12 = -0.010344469
            else:
                if input[3] < 0.86886317:
                    if input[0] < 27.69818:
                        var12 = 0.054359205
                    else:
                        var12 = -0.018223548
                else:
                    if input[0] < 43.64436:
                        var12 = -0.06367101
                    else:
                        var12 = -0.14168748
    else:
        if input[1] < 0.7213598:
            if input[2] < 0.4079951:
                if input[3] < 0.5070682:
                    if input[0] < 37.24329:
                        var12 = 0.041180298
                    else:
                        var12 = -0.030497132
                else:
                    if input[4] < 18.187342:
                        var12 = 0.066108935
                    else:
                        var12 = -0.08458594
            else:
                if input[0] < 31.05111:
                    if input[0] < 30.436344:
                        var12 = -0.05994239
                    else:
                        var12 = 0.10837946
                else:
                    if input[2] < 0.5234481:
                        var12 = -0.072546266
                    else:
                        var12 = -0.11226572
        else:
            if input[0] < 29.066072:
                if input[2] < 0.41132635:
                    if input[1] < 0.9125066:
                        var12 = 0.0011991974
                    else:
                        var12 = -0.11389261
                else:
                    if input[0] < 28.367863:
                        var12 = -0.116262294
                    else:
                        var12 = -0.033385113
            else:
                if input[2] < 0.086596146:
                    if input[2] < 0.07756298:
                        var12 = -0.11244663
                    else:
                        var12 = 0.03242164
                else:
                    var12 = -0.114163876
    if input[1] < 0.46755147:
        if input[2] < 0.58698004:
            if input[1] < 0.1648771:
                if input[0] < 36.692493:
                    if input[4] < 159.22166:
                        var13 = 0.112997405
                    else:
                        var13 = 0.08621213
                else:
                    if input[1] < 0.026213532:
                        var13 = 0.11175533
                    else:
                        var13 = 0.052856933
            else:
                if input[0] < 45.043438:
                    if input[3] < 0.3720221:
                        var13 = 0.08192525
                    else:
                        var13 = 0.030229246
                else:
                    if input[3] < 0.81632066:
                        var13 = 0.017848855
                    else:
                        var13 = -0.06259316
        else:
            if input[1] < 0.10664416:
                if input[3] < 0.5250513:
                    if input[0] < 39.48356:
                        var13 = 0.100874186
                    else:
                        var13 = 0.05075353
                else:
                    if input[4] < 179.12343:
                        var13 = 0.04130704
                    else:
                        var13 = -0.06890778
            else:
                if input[3] < 0.86886317:
                    if input[0] < 28.526836:
                        var13 = 0.049334757
                    else:
                        var13 = -0.030056179
                else:
                    if input[1] < 0.114444986:
                        var13 = 0.030284991
                    else:
                        var13 = -0.13234277
    else:
        if input[1] < 0.6971681:
            if input[0] < 46.45197:
                if input[4] < 92.22037:
                    if input[2] < 0.7159666:
                        var13 = 0.05481849
                    else:
                        var13 = -0.054803442
                else:
                    if input[2] < 0.6903936:
                        var13 = -0.029316125
                    else:
                        var13 = -0.103145055
            else:
                if input[2] < 0.16220427:
                    if input[3] < 0.28781614:
                        var13 = 0.073867224
                    else:
                        var13 = -0.051868852
                else:
                    if input[4] < 56.745502:
                        var13 = -0.06459456
                    else:
                        var13 = -0.11698699
        else:
            if input[0] < 29.066072:
                if input[2] < 0.41132635:
                    if input[3] < 0.43762693:
                        var13 = 0.02292601
                    else:
                        var13 = -0.07426438
                else:
                    if input[0] < 26.59111:
                        var13 = -0.113905065
                    else:
                        var13 = -0.06252427
            else:
                if input[3] < 0.42067415:
                    if input[3] < 0.40982863:
                        var13 = -0.09673141
                    else:
                        var13 = 0.036677007
                else:
                    var13 = -0.11643424
    if input[1] < 0.38151532:
        if input[2] < 0.44275317:
            if input[1] < 0.21232519:
                if input[0] < 47.65519:
                    if input[3] < 0.75617874:
                        var14 = 0.10288717
                    else:
                        var14 = 0.05698673
                else:
                    if input[4] < 254.70026:
                        var14 = 0.06625859
                    else:
                        var14 = -0.032046195
            else:
                if input[4] < 224.94867:
                    if input[0] < 60.371582:
                        var14 = 0.062016774
                    else:
                        var14 = -0.009432573
                else:
                    if input[3] < 0.3547158:
                        var14 = 0.024057275
                    else:
                        var14 = -0.0592977
        else:
            if input[3] < 0.47845614:
                if input[0] < 54.836246:
                    if input[3] < 0.015388836:
                        var14 = -0.08212825
                    else:
                        var14 = 0.05678603
                else:
                    if input[2] < 0.7230064:
                        var14 = 0.028775556
                    else:
                        var14 = -0.061444532
            else:
                if input[0] < 46.626507:
                    if input[2] < 0.8777956:
                        var14 = 0.026610686
                    else:
                        var14 = -0.081662536
                else:
                    if input[4] < 81.13762:
                        var14 = -0.0049496633
                    else:
                        var14 = -0.078285985
    else:
        if input[1] < 0.6971681:
            if input[2] < 0.19371481:
                if input[3] < 0.80150026:
                    if input[4] < 119.569275:
                        var14 = 0.060011376
                    else:
                        var14 = 0.007440743
                else:
                    if input[0] < 47.960358:
                        var14 = -0.012410486
                    else:
                        var14 = -0.13388185
            else:
                if input[0] < 44.248013:
                    if input[4] < 86.13763:
                        var14 = 0.021616867
                    else:
                        var14 = -0.05045992
                else:
                    if input[2] < 0.56523854:
                        var14 = -0.061136823
                    else:
                        var14 = -0.11250558
        else:
            if input[3] < 0.44991353:
                if input[1] < 0.8529279:
                    if input[3] < 0.40982863:
                        var14 = -0.058803916
                    else:
                        var14 = 0.06434182
                else:
                    if input[4] < 16.286514:
                        var14 = -0.04061008
                    else:
                        var14 = -0.11451522
            else:
                if input[0] < 20.20038:
                    var14 = 0.03685277
                else:
                    if input[3] < 0.99188805:
                        var14 = -0.11400862
                    else:
                        var14 = -0.026933348
    if input[1] < 0.5075505:
        if input[1] < 0.30766857:
            if input[2] < 0.37596452:
                if input[0] < 44.883343:
                    if input[4] < 155.83562:
                        var15 = 0.10033902
                    else:
                        var15 = 0.071957506
                else:
                    if input[3] < 0.73143446:
                        var15 = 0.0649475
                    else:
                        var15 = -0.0056701335
            else:
                if input[0] < 35.102562:
                    if input[2] < 0.78660715:
                        var15 = 0.07361032
                    else:
                        var15 = 0.016964098
                else:
                    if input[3] < 0.227046:
                        var15 = 0.048364468
                    else:
                        var15 = -0.015606852
        else:
            if input[2] < 0.74602395:
                if input[3] < 0.3720221:
                    if input[0] < 64.24578:
                        var15 = 0.04133269
                    else:
                        var15 = -0.13238214
                else:
                    if input[2] < 0.19719452:
                        var15 = 0.020725382
                    else:
                        var15 = -0.037788223
            else:
                if input[0] < 34.08835:
                    if input[3] < 0.5539253:
                        var15 = 0.008757995
                    else:
                        var15 = -0.105040744
                else:
                    if input[1] < 0.31913877:
                        var15 = 0.0003887303
                    else:
                        var15 = -0.11333159
    else:
        if input[1] < 0.7213598:
            if input[2] < 0.4079951:
                if input[3] < 0.5070682:
                    if input[0] < 44.022472:
                        var15 = 0.029002875
                    else:
                        var15 = -0.03692327
                else:
                    if input[4] < 18.187342:
                        var15 = 0.059800085
                    else:
                        var15 = -0.07483965
            else:
                if input[0] < 31.05111:
                    if input[0] < 30.436344:
                        var15 = -0.050388243
                    else:
                        var15 = 0.1072392
                else:
                    if input[2] < 0.5234481:
                        var15 = -0.0625713
                    else:
                        var15 = -0.10552521
        else:
            if input[0] < 29.066072:
                if input[2] < 0.059141666:
                    if input[1] < 0.80536956:
                        var15 = 0.14694326
                    else:
                        var15 = -0.056620754
                else:
                    if input[3] < 0.41702905:
                        var15 = -0.03765015
                    else:
                        var15 = -0.10476529
            else:
                if input[2] < 0.086596146:
                    if input[2] < 0.07756298:
                        var15 = -0.106174424
                    else:
                        var15 = 0.04342666
                else:
                    if input[2] < 0.80765676:
                        var15 = -0.11248022
                    else:
                        var15 = -0.08990369
    if input[1] < 0.5515902:
        if input[1] < 0.26945978:
            if input[2] < 0.37596452:
                if input[3] < 0.6681633:
                    if input[0] < 63.203724:
                        var16 = 0.085245624
                    else:
                        var16 = 0.035694517
                else:
                    if input[4] < 139.31087:
                        var16 = 0.07073476
                    else:
                        var16 = 0.012975278
            else:
                if input[3] < 0.30518204:
                    if input[0] < 37.67035:
                        var16 = 0.087652914
                    else:
                        var16 = 0.036131438
                else:
                    if input[0] < 66.649:
                        var16 = 0.008976298
                    else:
                        var16 = -0.107709765
        else:
            if input[2] < 0.7230064:
                if input[0] < 24.916964:
                    if input[4] < 218.43253:
                        var16 = 0.08256674
                    else:
                        var16 = 0.0034267716
                else:
                    if input[3] < 0.30518204:
                        var16 = 0.027806893
                    else:
                        var16 = -0.018224752
            else:
                if input[0] < 36.26844:
                    if input[3] < 0.0760202:
                        var16 = 0.09051671
                    else:
                        var16 = -0.03923416
                else:
                    if input[3] < 0.06953853:
                        var16 = -0.023054043
                    else:
                        var16 = -0.11338748
    else:
        if input[3] < 0.54720646:
            if input[0] < 37.24329:
                if input[2] < 0.46118712:
                    if input[4] < 104.379196:
                        var16 = 0.08860427
                    else:
                        var16 = -0.020252457
                else:
                    if input[0] < 26.20099:
                        var16 = -0.11847134
                    else:
                        var16 = -0.024048047
            else:
                if input[3] < 0.10160256:
                    if input[4] < 278.8191:
                        var16 = -0.040142592
                    else:
                        var16 = 0.10630528
                else:
                    if input[2] < 0.17140877:
                        var16 = -0.058195222
                    else:
                        var16 = -0.10926075
        else:
            if input[4] < 12.651673:
                if input[1] < 0.67353845:
                    if input[1] < 0.63249326:
                        var16 = -0.054479044
                    else:
                        var16 = 0.14658754
                else:
                    var16 = -0.09486553
            else:
                if input[4] < 297.50317:
                    if input[2] < 0.13704354:
                        var16 = -0.07218461
                    else:
                        var16 = -0.111535266
                else:
                    var16 = 0.069220364
    if input[1] < 0.5515902:
        if input[1] < 0.110388964:
            if input[3] < 0.52193445:
                if input[2] < 0.656682:
                    if input[1] < 0.062649444:
                        var17 = 0.09954689
                    else:
                        var17 = 0.06825009
                else:
                    if input[0] < 40.94671:
                        var17 = 0.087525316
                    else:
                        var17 = 0.025707042
            else:
                if input[2] < 0.8356679:
                    if input[4] < 285.03897:
                        var17 = 0.053583827
                    else:
                        var17 = -0.088082306
                else:
                    if input[4] < 226.40565:
                        var17 = -0.011260341
                    else:
                        var17 = -0.17240712
        else:
            if input[2] < 0.20104669:
                if input[1] < 0.24902266:
                    if input[0] < 66.649:
                        var17 = 0.088439845
                    else:
                        var17 = -0.037946906
                else:
                    if input[0] < 54.63858:
                        var17 = 0.0473033
                    else:
                        var17 = -0.023022989
            else:
                if input[0] < 46.626507:
                    if input[3] < 0.6152848:
                        var17 = 0.027228946
                    else:
                        var17 = -0.020089192
                else:
                    if input[2] < 0.7230064:
                        var17 = -0.01843659
                    else:
                        var17 = -0.08655279
    else:
        if input[1] < 0.7213598:
            if input[3] < 0.0976793:
                if input[2] < 0.38875973:
                    if input[4] < 268.63474:
                        var17 = 0.025835877
                    else:
                        var17 = 0.1525398
                else:
                    if input[1] < 0.6217127:
                        var17 = 0.046258148
                    else:
                        var17 = -0.1075163
            else:
                if input[0] < 37.24329:
                    if input[3] < 0.63276666:
                        var17 = 0.0009074797
                    else:
                        var17 = -0.08972793
                else:
                    if input[2] < 0.17140877:
                        var17 = -0.032931965
                    else:
                        var17 = -0.10044674
        else:
            if input[0] < 29.066072:
                if input[2] < 0.41132635:
                    if input[1] < 0.9125066:
                        var17 = 0.015707215
                    else:
                        var17 = -0.10412347
                else:
                    if input[0] < 28.367863:
                        var17 = -0.10781886
                    else:
                        var17 = -0.010405713
            else:
                if input[2] < 0.086596146:
                    if input[2] < 0.07756298:
                        var17 = -0.103379846
                    else:
                        var17 = 0.042436164
                else:
                    if input[2] < 0.80765676:
                        var17 = -0.10998082
                    else:
                        var17 = -0.08440258
    if input[1] < 0.4149567:
        if input[2] < 0.8777956:
            if input[3] < 0.227046:
                if input[0] < 61.385746:
                    if input[4] < 285.03897:
                        var18 = 0.07340372
                    else:
                        var18 = -0.025865808
                else:
                    if input[2] < 0.7230064:
                        var18 = 0.035604514
                    else:
                        var18 = -0.13691054
            else:
                if input[1] < 0.08866121:
                    if input[2] < 0.48750266:
                        var18 = 0.0738899
                    else:
                        var18 = 0.036826473
                else:
                    if input[2] < 0.105013974:
                        var18 = 0.06997075
                    else:
                        var18 = -0.0018784814
        else:
            if input[1] < 0.21501775:
                if input[3] < 0.15085591:
                    if input[0] < 53.882935:
                        var18 = 0.09443083
                    else:
                        var18 = -0.060041036
                else:
                    if input[4] < 263.6754:
                        var18 = -0.01533208
                    else:
                        var18 = -0.13572836
            else:
                if input[0] < 28.72405:
                    if input[3] < 0.17377363:
                        var18 = -0.13225482
                    else:
                        var18 = 0.044870846
                else:
                    if input[1] < 0.23255292:
                        var18 = -0.05554163
                    else:
                        var18 = -0.12938343
    else:
        if input[1] < 0.7213598:
            if input[2] < 0.7230064:
                if input[4] < 117.33251:
                    if input[3] < 0.8489855:
                        var18 = 0.03268657
                    else:
                        var18 = -0.0937764
                else:
                    if input[0] < 43.849827:
                        var18 = -0.017256515
                    else:
                        var18 = -0.073332824
            else:
                if input[3] < 0.0760202:
                    if input[0] < 30.831118:
                        var18 = 0.08871307
                    else:
                        var18 = -0.106055215
                else:
                    if input[3] < 0.49677175:
                        var18 = -0.078546435
                    else:
                        var18 = -0.11502925
        else:
            if input[0] < 29.066072:
                if input[2] < 0.41132635:
                    if input[1] < 0.9125066:
                        var18 = 0.014100398
                    else:
                        var18 = -0.10139393
                else:
                    if input[3] < 0.10522573:
                        var18 = -0.007210118
                    else:
                        var18 = -0.10701326
            else:
                if input[2] < 0.086596146:
                    if input[2] < 0.07756298:
                        var18 = -0.10164892
                    else:
                        var18 = 0.03834673
                else:
                    if input[2] < 0.80765676:
                        var18 = -0.108769886
                    else:
                        var18 = -0.08173665
    if input[1] < 0.5515902:
        if input[1] < 0.18738942:
            if input[0] < 36.081116:
                if input[2] < 0.79335773:
                    if input[4] < 159.22166:
                        var19 = 0.09572911
                    else:
                        var19 = 0.059957653
                else:
                    if input[3] < 0.47845614:
                        var19 = 0.07132532
                    else:
                        var19 = -0.0038792666
            else:
                if input[3] < 0.9639979:
                    if input[1] < 0.047595263:
                        var19 = 0.064700216
                    else:
                        var19 = 0.013491379
                else:
                    if input[1] < 0.026213532:
                        var19 = 0.020502282
                    else:
                        var19 = -0.19612014
        else:
            if input[2] < 0.84557825:
                if input[2] < 0.09375486:
                    if input[4] < 274.89618:
                        var19 = 0.05642761
                    else:
                        var19 = -0.07785685
                else:
                    if input[3] < 0.6182064:
                        var19 = 0.013594376
                    else:
                        var19 = -0.029361984
            else:
                if input[0] < 31.387077:
                    if input[0] < 30.221107:
                        var19 = -0.047252323
                    else:
                        var19 = 0.084928006
                else:
                    if input[1] < 0.23255292:
                        var19 = -0.03784225
                    else:
                        var19 = -0.11568581
    else:
        if input[1] < 0.8529279:
            if input[3] < 0.49677175:
                if input[0] < 37.24329:
                    if input[0] < 26.20099:
                        var19 = -0.039110444
                    else:
                        var19 = 0.0373103
                else:
                    if input[3] < 0.10160256:
                        var19 = 0.0113351
                    else:
                        var19 = -0.08252989
            else:
                if input[4] < 18.187342:
                    if input[0] < 39.79963:
                        var19 = 0.08509084
                    else:
                        var19 = -0.07578446
                else:
                    if input[4] < 297.50317:
                        var19 = -0.09173223
                    else:
                        var19 = 0.057745196
        else:
            if input[0] < 20.20038:
                var19 = 0.055972215
            else:
                if input[4] < 16.286514:
                    if input[4] < 14.976356:
                        var19 = -0.093796335
                    else:
                        var19 = 0.107422315
                else:
                    var19 = -0.10943289
    if input[1] < 0.30766857:
        if input[2] < 0.37596452:
            if input[0] < 44.883343:
                if input[4] < 155.83562:
                    if input[3] < 0.97045165:
                        var20 = 0.092337295
                    else:
                        var20 = -0.035207912
                else:
                    if input[3] < 0.86481684:
                        var20 = 0.07172521
                    else:
                        var20 = -0.00700086
            else:
                if input[3] < 0.67260206:
                    if input[4] < 290.79407:
                        var20 = 0.055761147
                    else:
                        var20 = -0.10819363
                else:
                    if input[1] < 0.031040723:
                        var20 = 0.09938597
                    else:
                        var20 = -0.03382506
        else:
            if input[0] < 35.102562:
                if input[2] < 0.78660715:
                    if input[3] < 0.9418731:
                        var20 = 0.06744331
                    else:
                        var20 = -0.054796387
                else:
                    if input[1] < 0.21501775:
                        var20 = 0.03086847
                    else:
                        var20 = -0.06464566
            else:
                if input[3] < 0.227046:
                    if input[2] < 0.73814577:
                        var20 = 0.058347788
                    else:
                        var20 = -0.005937924
                else:
                    if input[3] < 0.9639979:
                        var20 = -0.011799083
                    else:
                        var20 = -0.14163935
    else:
        if input[1] < 0.7213598:
            if input[2] < 0.7339487:
                if input[0] < 54.44043:
                    if input[4] < 103.03472:
                        var20 = 0.03182493
                    else:
                        var20 = -0.013091552
                else:
                    if input[3] < 0.0976793:
                        var20 = 0.024898978
                    else:
                        var20 = -0.05621014
            else:
                if input[3] < 0.49677175:
                    if input[4] < 68.45182:
                        var20 = 0.03267111
                    else:
                        var20 = -0.06533733
                else:
                    if input[4] < 19.16058:
                        var20 = -0.028960777
                    else:
                        var20 = -0.11224919
        else:
            if input[0] < 29.066072:
                if input[2] < 0.41132635:
                    if input[1] < 0.9125066:
                        var20 = 0.017122695
                    else:
                        var20 = -0.09633519
                else:
                    if input[0] < 28.367863:
                        var20 = -0.104141735
                    else:
                        var20 = 0.0009617768
            else:
                if input[2] < 0.086596146:
                    if input[2] < 0.07756298:
                        var20 = -0.09875524
                    else:
                        var20 = 0.041130416
                else:
                    if input[2] < 0.80765676:
                        var20 = -0.10691686
                    else:
                        var20 = -0.07622755
    if input[1] < 0.46755147:
        if input[2] < 0.20104669:
            if input[1] < 0.24902266:
                if input[3] < 0.40982863:
                    if input[2] < 0.16220427:
                        var21 = 0.10004003
                    else:
                        var21 = 0.055685718
                else:
                    if input[2] < 0.09375486:
                        var21 = 0.085261986
                    else:
                        var21 = 0.034016367
            else:
                if input[0] < 44.883343:
                    if input[3] < 0.80150026:
                        var21 = 0.068653405
                    else:
                        var21 = 0.011701418
                else:
                    if input[4] < 224.94867:
                        var21 = 0.015471378
                    else:
                        var21 = -0.08023816
        else:
            if input[1] < 0.10664416:
                if input[3] < 0.52193445:
                    if input[4] < 78.99899:
                        var21 = 0.09212232
                    else:
                        var21 = 0.047861893
                else:
                    if input[4] < 271.22195:
                        var21 = 0.027353883
                    else:
                        var21 = -0.1147406
            else:
                if input[3] < 0.86886317:
                    if input[0] < 27.69818:
                        var21 = 0.045992136
                    else:
                        var21 = -0.0073046745
                else:
                    if input[2] < 0.55258954:
                        var21 = -0.029343827
                    else:
                        var21 = -0.11409324
    else:
        if input[1] < 0.7607968:
            if input[0] < 46.626507:
                if input[4] < 103.03472:
                    if input[2] < 0.7230064:
                        var21 = 0.04192784
                    else:
                        var21 = -0.054268904
                else:
                    if input[3] < 0.7806129:
                        var21 = -0.022089532
                    else:
                        var21 = -0.10740065
            else:
                if input[2] < 0.16220427:
                    if input[3] < 0.31467786:
                        var21 = 0.049127452
                    else:
                        var21 = -0.04105973
                else:
                    if input[1] < 0.47526276:
                        var21 = -0.0035112263
                    else:
                        var21 = -0.09558208
        else:
            if input[0] < 32.184837:
                if input[4] < 153.3914:
                    if input[2] < 0.41132635:
                        var21 = 0.03656809
                    else:
                        var21 = -0.0729518
                else:
                    if input[2] < 0.059141666:
                        var21 = 0.015624942
                    else:
                        var21 = -0.10907491
            else:
                if input[3] < 0.10160256:
                    if input[3] < 0.09428884:
                        var21 = -0.09525984
                    else:
                        var21 = 0.13300191
                else:
                    var21 = -0.106160596
    if input[1] < 0.5515902:
        if input[1] < 0.10664416:
            if input[3] < 0.52193445:
                if input[4] < 78.99899:
                    if input[3] < 0.44582933:
                        var22 = 0.09658549
                    else:
                        var22 = 0.049607385
                else:
                    if input[0] < 61.385746:
                        var22 = 0.05909242
                    else:
                        var22 = -0.027714783
            else:
                if input[2] < 0.8356679:
                    if input[4] < 285.03897:
                        var22 = 0.03849897
                    else:
                        var22 = -0.06959482
                else:
                    if input[4] < 62.872623:
                        var22 = 0.055177994
                    else:
                        var22 = -0.08120552
        else:
            if input[2] < 0.20104669:
                if input[1] < 0.24902266:
                    if input[4] < 26.890833:
                        var22 = -0.037559178
                    else:
                        var22 = 0.07498243
                else:
                    if input[0] < 42.262836:
                        var22 = 0.04933787
                    else:
                        var22 = -0.0038388483
            else:
                if input[0] < 46.626507:
                    if input[1] < 0.36269:
                        var22 = 0.022776764
                    else:
                        var22 = -0.018553238
                else:
                    if input[2] < 0.7230064:
                        var22 = -0.016421475
                    else:
                        var22 = -0.0763565
    else:
        if input[3] < 0.54720646:
            if input[0] < 37.24329:
                if input[2] < 0.46118712:
                    if input[4] < 104.379196:
                        var22 = 0.07661262
                    else:
                        var22 = -0.009867146
                else:
                    if input[0] < 26.20099:
                        var22 = -0.112848975
                    else:
                        var22 = -0.006538552
            else:
                if input[3] < 0.10160256:
                    if input[4] < 179.94745:
                        var22 = -0.05437019
                    else:
                        var22 = 0.06046599
                else:
                    if input[2] < 0.17140877:
                        var22 = -0.039283857
                    else:
                        var22 = -0.099637605
        else:
            if input[4] < 12.651673:
                if input[1] < 0.67353845:
                    if input[1] < 0.63249326:
                        var22 = -0.049344093
                    else:
                        var22 = 0.13824533
                else:
                    var22 = -0.08455632
            else:
                if input[4] < 297.50317:
                    if input[2] < 0.13704354:
                        var22 = -0.05243032
                    else:
                        var22 = -0.10356527
                else:
                    var22 = 0.07467708
    if input[1] < 0.5949475:
        if input[2] < 0.09375486:
            if input[1] < 0.27641279:
                if input[0] < 66.649:
                    if input[3] < 0.9529257:
                        var23 = 0.09266785
                    else:
                        var23 = 0.0064840945
                else:
                    if input[0] < 68.662796:
                        var23 = -0.12916075
                    else:
                        var23 = 0.08133977
            else:
                if input[0] < 54.63858:
                    if input[3] < 0.80150026:
                        var23 = 0.07147735
                    else:
                        var23 = -0.010376039
                else:
                    if input[0] < 63.901463:
                        var23 = -0.1079972
                    else:
                        var23 = 0.033697873
        else:
            if input[1] < 0.30766857:
                if input[3] < 0.30518204:
                    if input[2] < 0.7159666:
                        var23 = 0.061551668
                    else:
                        var23 = 0.0066208243
                else:
                    if input[0] < 47.65519:
                        var23 = 0.023165656
                    else:
                        var23 = -0.020269256
            else:
                if input[0] < 64.886536:
                    if input[3] < 0.49677175:
                        var23 = 0.008059814
                    else:
                        var23 = -0.03734317
                else:
                    if input[0] < 69.619156:
                        var23 = -0.12470038
                    else:
                        var23 = 0.025659159
    else:
        if input[2] < 0.49345:
            if input[1] < 0.75199986:
                if input[3] < 0.0976793:
                    if input[2] < 0.06961305:
                        var23 = 0.1196716
                    else:
                        var23 = 0.016806817
                else:
                    if input[2] < 0.45041138:
                        var23 = -0.036668833
                    else:
                        var23 = 0.05523922
            else:
                if input[0] < 32.184837:
                    if input[4] < 130.79152:
                        var23 = 0.030137766
                    else:
                        var23 = -0.087221086
                else:
                    var23 = -0.10407106
        else:
            if input[3] < 0.44991353:
                if input[3] < 0.41702905:
                    if input[1] < 0.6540153:
                        var23 = -0.03609237
                    else:
                        var23 = -0.09040713
                else:
                    if input[0] < 36.922825:
                        var23 = 0.14425233
                    else:
                        var23 = -0.07451284
            else:
                var23 = -0.10627671
    if input[1] < 0.5949475:
        if input[2] < 0.8777956:
            if input[0] < 64.24578:
                if input[1] < 0.1648771:
                    if input[4] < 141.57797:
                        var24 = 0.06169786
                    else:
                        var24 = 0.022303676
                else:
                    if input[3] < 0.6909544:
                        var24 = 0.01880754
                    else:
                        var24 = -0.021137854
            else:
                if input[3] < 0.7360569:
                    if input[3] < 0.7273682:
                        var24 = -0.024429364
                    else:
                        var24 = 0.15458304
                else:
                    if input[4] < 295.24548:
                        var24 = -0.11696728
                    else:
                        var24 = 0.034719497
        else:
            if input[1] < 0.21501775:
                if input[2] < 0.8968193:
                    if input[4] < 241.73863:
                        var24 = -0.14406283
                    else:
                        var24 = 0.026679773
                else:
                    if input[4] < 247.23134:
                        var24 = 0.016130697
                    else:
                        var24 = -0.093286745
            else:
                if input[0] < 31.220795:
                    if input[1] < 0.3386852:
                        var24 = 0.03330627
                    else:
                        var24 = -0.06926604
                else:
                    if input[1] < 0.5789277:
                        var24 = -0.11443094
                    else:
                        var24 = 0.062399894
    else:
        if input[1] < 0.8529279:
            if input[2] < 0.34035194:
                if input[0] < 32.184837:
                    if input[3] < 0.49677175:
                        var24 = 0.05989298
                    else:
                        var24 = -0.03658157
                else:
                    if input[3] < 0.09428884:
                        var24 = 0.03708817
                    else:
                        var24 = -0.05163262
            else:
                if input[3] < 0.49677175:
                    if input[0] < 37.24329:
                        var24 = -0.0058313804
                    else:
                        var24 = -0.082653835
                else:
                    if input[4] < 12.651673:
                        var24 = 0.0028442058
                    else:
                        var24 = -0.10648494
        else:
            if input[0] < 20.20038:
                var24 = 0.054995384
            else:
                if input[4] < 16.286514:
                    if input[4] < 14.976356:
                        var24 = -0.08552072
                    else:
                        var24 = 0.10067614
                else:
                    var24 = -0.106039084
    if input[1] < 0.46755147:
        if input[2] < 0.37596452:
            if input[0] < 44.883343:
                if input[1] < 0.2975002:
                    if input[4] < 144.13393:
                        var25 = 0.08443203
                    else:
                        var25 = 0.049011722
                else:
                    if input[3] < 0.8410865:
                        var25 = 0.04215872
                    else:
                        var25 = -0.041569583
            else:
                if input[1] < 0.122012965:
                    if input[3] < 0.6182064:
                        var25 = 0.0748057
                    else:
                        var25 = 0.015907599
                else:
                    if input[4] < 289.68826:
                        var25 = 0.004949211
                    else:
                        var25 = -0.12820739
        else:
            if input[3] < 0.227046:
                if input[3] < 0.015388836:
                    if input[2] < 0.68640804:
                        var25 = 0.046379477
                    else:
                        var25 = -0.18519787
                else:
                    if input[1] < 0.39026308:
                        var25 = 0.0416895
                    else:
                        var25 = -0.02462478
            else:
                if input[4] < 89.87573:
                    if input[3] < 0.89218086:
                        var25 = 0.027422387
                    else:
                        var25 = -0.06945057
                else:
                    if input[0] < 52.668213:
                        var25 = -0.0101308925
                    else:
                        var25 = -0.0631725
    else:
        if input[1] < 0.8529279:
            if input[0] < 46.626507:
                if input[4] < 104.379196:
                    if input[2] < 0.48025024:
                        var25 = 0.04498423
                    else:
                        var25 = -0.026992856
                else:
                    if input[3] < 0.7806129:
                        var25 = -0.019470518
                    else:
                        var25 = -0.102495454
            else:
                if input[2] < 0.16220427:
                    if input[0] < 49.206978:
                        var25 = -0.115965486
                    else:
                        var25 = 0.0027366334
                else:
                    if input[1] < 0.84605217:
                        var25 = -0.08557173
                    else:
                        var25 = 0.1097221
        else:
            if input[0] < 20.20038:
                var25 = 0.051362235
            else:
                if input[4] < 16.286514:
                    if input[0] < 22.664593:
                        var25 = 0.096344896
                    else:
                        var25 = -0.08340909
                else:
                    var25 = -0.10515779
    if input[1] < 0.656256:
        if input[1] < 0.10664416:
            if input[3] < 0.52193445:
                if input[4] < 78.99899:
                    if input[3] < 0.44582933:
                        var26 = 0.08908933
                    else:
                        var26 = 0.0397317
                else:
                    if input[0] < 61.385746:
                        var26 = 0.050584473
                    else:
                        var26 = -0.030655626
            else:
                if input[2] < 0.4173629:
                    if input[1] < 0.026213532:
                        var26 = 0.09824906
                    else:
                        var26 = 0.020862503
                else:
                    if input[4] < 271.22195:
                        var26 = 0.008497101
                    else:
                        var26 = -0.1567816
        else:
            if input[3] < 0.86886317:
                if input[2] < 0.07756298:
                    if input[4] < 247.23134:
                        var26 = 0.059542824
                    else:
                        var26 = -0.02020327
                else:
                    if input[0] < 38.096275:
                        var26 = 0.017420618
                    else:
                        var26 = -0.014052138
            else:
                if input[2] < 0.2875745:
                    if input[4] < 262.25204:
                        var26 = 0.0061638295
                    else:
                        var26 = -0.16710147
                else:
                    if input[0] < 46.32979:
                        var26 = -0.051560838
                    else:
                        var26 = -0.11793766
    else:
        if input[2] < 0.41132635:
            if input[4] < 146.71906:
                if input[3] < 0.2554239:
                    if input[1] < 0.6945476:
                        var26 = 0.044380512
                    else:
                        var26 = -0.09815877
                else:
                    if input[3] < 0.43762693:
                        var26 = 0.11301684
                    else:
                        var26 = -0.035246193
            else:
                if input[3] < 0.0976793:
                    if input[1] < 0.7369457:
                        var26 = 0.07060429
                    else:
                        var26 = -0.07973762
                else:
                    if input[0] < 24.586184:
                        var26 = 0.004355114
                    else:
                        var26 = -0.09477779
        else:
            if input[3] < 0.10522573:
                if input[3] < 0.0976793:
                    var26 = -0.09812092
                else:
                    var26 = 0.22452079
            else:
                if input[1] < 0.7607968:
                    if input[1] < 0.756545:
                        var26 = -0.08327513
                    else:
                        var26 = 0.115863316
                else:
                    var26 = -0.102821805
    if input[1] < 0.30766857:
        if input[0] < 35.94848:
            if input[2] < 0.78660715:
                if input[4] < 179.12343:
                    if input[3] < 0.7501118:
                        var27 = 0.08144104
                    else:
                        var27 = 0.03193776
                else:
                    if input[3] < 0.2784149:
                        var27 = 0.07081713
                    else:
                        var27 = 0.0072470196
            else:
                if input[1] < 0.21501775:
                    if input[3] < 0.47845614:
                        var27 = 0.055437524
                    else:
                        var27 = -0.008303524
                else:
                    if input[2] < 0.87071836:
                        var27 = -0.17997752
                    else:
                        var27 = 0.0034130865
        else:
            if input[1] < 0.026213532:
                if input[2] < 0.61727196:
                    if input[3] < 0.041779716:
                        var27 = 0.010198998
                    else:
                        var27 = 0.09397289
                else:
                    if input[0] < 42.433533:
                        var27 = -0.097079806
                    else:
                        var27 = 0.034971897
            else:
                if input[3] < 0.8529908:
                    if input[2] < 0.20555173:
                        var27 = 0.043307178
                    else:
                        var27 = -0.00059145055
                else:
                    if input[4] < 132.33429:
                        var27 = -0.004145257
                    else:
                        var27 = -0.09143816
    else:
        if input[1] < 0.8529279:
            if input[2] < 0.8584259:
                if input[3] < 0.80150026:
                    if input[2] < 0.12855154:
                        var27 = 0.026682192
                    else:
                        var27 = -0.011604297
                else:
                    if input[0] < 47.960358:
                        var27 = -0.028203165
                    else:
                        var27 = -0.091706775
            else:
                if input[3] < 0.0760202:
                    if input[0] < 30.831118:
                        var27 = 0.06320179
                    else:
                        var27 = -0.084822044
                else:
                    if input[1] < 0.3386852:
                        var27 = -0.0017112273
                    else:
                        var27 = -0.10405081
        else:
            if input[0] < 22.664593:
                if input[4] < 83.70424:
                    if input[0] < 22.036663:
                        var27 = 0.008045336
                    else:
                        var27 = 0.09496379
                else:
                    var27 = -0.08129399
            else:
                var27 = -0.10308436
    if input[1] < 0.5515902:
        if input[2] < 0.8777956:
            if input[0] < 64.24578:
                if input[3] < 0.30518204:
                    if input[1] < 0.36269:
                        var28 = 0.046510305
                    else:
                        var28 = 0.007836845
                else:
                    if input[1] < 0.08866121:
                        var28 = 0.03562818
                    else:
                        var28 = 0.00075845333
            else:
                if input[3] < 0.7360569:
                    if input[3] < 0.5577892:
                        var28 = -0.03482988
                    else:
                        var28 = 0.040808767
                else:
                    if input[4] < 104.379196:
                        var28 = -0.030547088
                    else:
                        var28 = -0.122670926
        else:
            if input[0] < 33.330284:
                if input[3] < 0.47845614:
                    if input[1] < 0.3386852:
                        var28 = 0.06934683
                    else:
                        var28 = -0.02176647
                else:
                    if input[3] < 0.80150026:
                        var28 = -0.08838183
                    else:
                        var28 = 0.058845937
            else:
                if input[1] < 0.19934855:
                    if input[2] < 0.94543576:
                        var28 = -0.06736805
                    else:
                        var28 = 0.004065669
                else:
                    var28 = -0.11053445
    else:
        if input[1] < 0.8529279:
            if input[3] < 0.49677175:
                if input[0] < 37.24329:
                    if input[0] < 26.20099:
                        var28 = -0.03169186
                    else:
                        var28 = 0.037753027
                else:
                    if input[3] < 0.10160256:
                        var28 = 0.019679645
                    else:
                        var28 = -0.06500025
            else:
                if input[4] < 18.187342:
                    if input[2] < 0.11658642:
                        var28 = 0.10016384
                    else:
                        var28 = -0.03954042
                else:
                    if input[0] < 69.619156:
                        var28 = -0.07485114
                    else:
                        var28 = 0.083366685
        else:
            if input[0] < 22.664593:
                if input[4] < 83.70424:
                    if input[4] < 16.286514:
                        var28 = 0.08901594
                    else:
                        var28 = 0.0073365695
                else:
                    var28 = -0.07926431
            else:
                var28 = -0.102378026
    if input[1] < 0.656256:
        if input[2] < 0.5744382:
            if input[1] < 0.026213532:
                if input[2] < 0.48750266:
                    if input[3] < 0.030327229:
                        var29 = 0.011693742
                    else:
                        var29 = 0.097844176
                else:
                    if input[3] < 0.6523277:
                        var29 = 0.0775632
                    else:
                        var29 = -0.081026874
            else:
                if input[3] < 0.3306729:
                    if input[0] < 61.60342:
                        var29 = 0.03824872
                    else:
                        var29 = -0.01497539
                else:
                    if input[2] < 0.09961837:
                        var29 = 0.03283388
                    else:
                        var29 = -0.007293971
        else:
            if input[1] < 0.26945978:
                if input[3] < 0.011393591:
                    var29 = -0.16320822
                else:
                    if input[3] < 0.15469252:
                        var29 = 0.050491024
                    else:
                        var29 = -0.004165483
            else:
                if input[0] < 38.891884:
                    if input[4] < 70.96198:
                        var29 = 0.06139065
                    else:
                        var29 = -0.031046543
                else:
                    if input[3] < 0.09133412:
                        var29 = -0.0021475987
                    else:
                        var29 = -0.08229777
    else:
        if input[2] < 0.41132635:
            if input[4] < 146.71906:
                if input[3] < 0.2554239:
                    if input[1] < 0.6945476:
                        var29 = 0.039461877
                    else:
                        var29 = -0.093761556
                else:
                    if input[3] < 0.43762693:
                        var29 = 0.102843285
                    else:
                        var29 = -0.027064616
            else:
                if input[3] < 0.2312057:
                    if input[1] < 0.7436001:
                        var29 = 0.050272148
                    else:
                        var29 = -0.091793016
                else:
                    if input[2] < 0.059141666:
                        var29 = 0.012014973
                    else:
                        var29 = -0.11041289
        else:
            if input[3] < 0.10522573:
                if input[3] < 0.0976793:
                    var29 = -0.09591208
                else:
                    var29 = 0.19355308
            else:
                if input[1] < 0.7607968:
                    if input[1] < 0.756545:
                        var29 = -0.07842782
                    else:
                        var29 = 0.1075445
                else:
                    var29 = -0.101264074
    if input[1] < 0.4149567:
        if input[4] < 228.33554:
            if input[0] < 28.02422:
                if input[3] < 0.6182064:
                    if input[4] < 205.17693:
                        var30 = 0.074054785
                    else:
                        var30 = -0.076642685
                else:
                    if input[4] < 53.819885:
                        var30 = 0.07093422
                    else:
                        var30 = -0.010010921
            else:
                if input[2] < 0.8777956:
                    if input[3] < 0.13474427:
                        var30 = 0.051166754
                    else:
                        var30 = 0.010447909
                else:
                    if input[4] < 175.89261:
                        var30 = -0.056605186
                    else:
                        var30 = 0.017001297
        else:
            if input[2] < 0.82080245:
                if input[1] < 0.26608053:
                    if input[2] < 0.810745:
                        var30 = 0.0060473126
                    else:
                        var30 = 0.14599942
                else:
                    if input[3] < 0.06953853:
                        var30 = 0.09671578
                    else:
                        var30 = -0.059485734
            else:
                if input[3] < 0.09133412:
                    if input[3] < 0.021729916:
                        var30 = -0.061079886
                    else:
                        var30 = 0.08380763
                else:
                    if input[1] < 0.047595263:
                        var30 = -0.03196458
                    else:
                        var30 = -0.105221055
    else:
        if input[2] < 0.4173629:
            if input[4] < 117.33251:
                if input[3] < 0.8489855:
                    if input[1] < 0.5825635:
                        var30 = 0.05575773
                    else:
                        var30 = -0.0067533045
                else:
                    if input[1] < 0.6143312:
                        var30 = -0.14433676
                    else:
                        var30 = 0.015251904
            else:
                if input[0] < 42.985474:
                    if input[0] < 42.05093:
                        var30 = -0.01347544
                    else:
                        var30 = 0.13827641
                else:
                    if input[0] < 63.901463:
                        var30 = -0.072537094
                    else:
                        var30 = 0.00028129082
        else:
            if input[0] < 31.05111:
                if input[1] < 0.6540153:
                    if input[3] < 0.7806129:
                        var30 = 0.023899727
                    else:
                        var30 = -0.10023232
                else:
                    if input[3] < 0.10522573:
                        var30 = -0.0009670962
                    else:
                        var30 = -0.08497555
            else:
                if input[3] < 0.10160256:
                    if input[3] < 0.0760202:
                        var30 = -0.08755195
                    else:
                        var30 = 0.11277445
                else:
                    if input[0] < 39.79963:
                        var30 = -0.0360314
                    else:
                        var30 = -0.09815449
    if input[1] < 0.30766857:
        if input[0] < 37.454132:
            if input[2] < 0.5910797:
                if input[3] < 0.5717503:
                    if input[4] < 277.98743:
                        var31 = 0.076873586
                    else:
                        var31 = 0.024408696
                else:
                    if input[2] < 0.28331718:
                        var31 = 0.05325262
                    else:
                        var31 = 0.0024308905
            else:
                if input[3] < 0.87665987:
                    if input[2] < 0.635966:
                        var31 = -0.073023744
                    else:
                        var31 = 0.030294735
                else:
                    if input[3] < 0.92955285:
