# Pure Python inference logic for CreditNeverBefore
# Generated by m2cgen; no dependencies required for prediction
import math
def sigmoid(x):
    if x < 0.0:
        z = math.exp(x)
        return z / (1.0 + z)
    return 1.0 / (1.0 + math.exp(-x))
def score(input):
    if input[3] < 0.44538596:
        if input[1] < 0.5887995:
            if input[3] < 0.27338958:
                if input[4] < 173.51425:
                    if input[2] < 0.52610064:
                        var0 = 0.18296175
                    else:
                        var0 = 0.14175276
                else:
                    if input[1] < 0.28128594:
                        var0 = 0.14972681
                    else:
                        var0 = 0.07015962
            else:
                if input[1] < 0.26304862:
                    if input[2] < 0.68250185:
                        var0 = 0.15321258
                    else:
                        var0 = 0.056137588
                else:
                    if input[2] < 0.39621446:
                        var0 = 0.08351874
                    else:
                        var0 = -0.04965857
        else:
            if input[3] < 0.17343481:
                if input[2] < 0.47389856:
                    if input[4] < 97.69883:
                        var0 = 0.13816668
                    else:
                        var0 = 0.040334422
                else:
                    if input[1] < 0.80529535:
                        var0 = -0.023275148
                    else:
                        var0 = -0.13433447
            else:
                if input[4] < 185.27441:
                    if input[1] < 0.77792186:
                        var0 = -0.03173613
                    else:
                        var0 = -0.13306235
                else:
                    if input[0] < 20.86465:
                        var0 = -0.038991597
                    else:
                        var0 = -0.1929917
    else:
        if input[1] < 0.27043933:
            if input[3] < 0.73083854:
                if input[4] < 138.7051:
                    if input[2] < 0.6181535:
                        var0 = 0.13143115
                    else:
                        var0 = 0.011437095
                else:
                    if input[2] < 0.3169306:
                        var0 = 0.055594724
                    else:
                        var0 = -0.06624097
            else:
                if input[4] < 104.61839:
                    if input[2] < 0.38312864:
                        var0 = 0.055475563
                    else:
                        var0 = -0.10949536
                else:
                    if input[3] < 0.73895454:
                        var0 = 0.023463687
                    else:
                        var0 = -0.16474506
        else:
            if input[3] < 0.55113727:
                if input[1] < 0.61655366:
                    if input[0] < 39.688564:
                        var0 = 0.04069839
                    else:
                        var0 = -0.124950744
                else:
                    if input[0] < 20.37535:
                        var0 = 0.10858245
                    else:
                        var0 = -0.1717395
            else:
                if input[4] < 39.400196:
                    if input[1] < 0.67468524:
                        var0 = -0.06101234
                    else:
                        var0 = -0.18503475
                else:
                    if input[1] < 0.5444663:
                        var0 = -0.1668332
                    else:
                        var0 = -0.19500683
    if input[3] < 0.44538596:
        if input[1] < 0.5887995:
            if input[3] < 0.18602847:
                if input[1] < 0.44159925:
                    if input[4] < 267.8931:
                        var1 = 0.16085425
                    else:
                        var1 = 0.09400698
                else:
                    if input[2] < 0.3390035:
                        var1 = 0.1473812
                    else:
                        var1 = 0.07047376
            else:
                if input[1] < 0.28128594:
                    if input[2] < 0.5816282:
                        var1 = 0.1474205
                    else:
                        var1 = 0.07329372
                else:
                    if input[4] < 195.50415:
                        var1 = 0.07514939
                    else:
                        var1 = -0.06636199
        else:
            if input[3] < 0.17343481:
                if input[2] < 0.47389856:
                    if input[3] < 0.10450755:
                        var1 = 0.10649691
                    else:
                        var1 = 0.008049159
                else:
                    if input[1] < 0.80529535:
                        var1 = -0.020988747
                    else:
                        var1 = -0.1217463
            else:
                if input[4] < 185.27441:
                    if input[2] < 0.25341946:
                        var1 = -0.0013146411
                    else:
                        var1 = -0.10245802
                else:
                    if input[0] < 20.86465:
                        var1 = -0.036138292
                    else:
                        var1 = -0.17558062
    else:
        if input[1] < 0.27043933:
            if input[3] < 0.73083854:
                if input[4] < 138.7051:
                    if input[2] < 0.6181535:
                        var1 = 0.11891838
                    else:
                        var1 = 0.010316196
                else:
                    if input[1] < 0.084670074:
                        var1 = 0.060106214
                    else:
                        var1 = -0.057750758
            else:
                if input[4] < 61.91796:
                    if input[2] < 0.3322365:
                        var1 = 0.07686495
                    else:
                        var1 = -0.06733971
                else:
                    if input[2] < 0.37879854:
                        var1 = -0.09050971
                    else:
                        var1 = -0.15641151
        else:
            if input[3] < 0.58951205:
                if input[1] < 0.4662369:
                    if input[4] < 89.308334:
                        var1 = 0.05907282
                    else:
                        var1 = -0.06752824
                else:
                    if input[2] < 0.1459983:
                        var1 = -0.048219796
                    else:
                        var1 = -0.15895455
            else:
                if input[4] < 39.400196:
                    if input[1] < 0.67468524:
                        var1 = -0.052483417
                    else:
                        var1 = -0.17804901
                else:
                    if input[2] < 0.1403958:
                        var1 = -0.1360781
                    else:
                        var1 = -0.17588413
    if input[3] < 0.40525207:
        if input[1] < 0.5887995:
            if input[2] < 0.5151751:
                if input[4] < 172.39882:
                    if input[1] < 0.47526276:
                        var2 = 0.15478002
                    else:
                        var2 = 0.117065385
                else:
                    if input[1] < 0.27043933:
                        var2 = 0.13460396
                    else:
                        var2 = 0.05157681
            else:
                if input[3] < 0.21222813:
                    if input[1] < 0.4231102:
                        var2 = 0.12579745
                    else:
                        var2 = 0.047312807
                else:
                    if input[1] < 0.2134167:
                        var2 = 0.09023936
                    else:
                        var2 = -0.031729873
        else:
            if input[2] < 0.47389856:
                if input[3] < 0.13237539:
                    if input[4] < 191.66713:
                        var2 = 0.10304693
                    else:
                        var2 = 0.023147123
                else:
                    if input[4] < 49.45041:
                        var2 = 0.09607884
                    else:
                        var2 = -0.08507826
            else:
                if input[1] < 0.8285743:
                    if input[4] < 185.27441:
                        var2 = -0.026783118
                    else:
                        var2 = -0.13267186
                else:
                    if input[4] < 293.6901:
                        var2 = -0.14559339
                    else:
                        var2 = 0.083955385
    else:
        if input[1] < 0.35110492:
            if input[3] < 0.6786148:
                if input[4] < 133.52977:
                    if input[2] < 0.6267924:
                        var2 = 0.120162144
                    else:
                        var2 = 0.012914618
                else:
                    if input[2] < 0.3169306:
                        var2 = 0.054817166
                    else:
                        var2 = -0.045197986
            else:
                if input[2] < 0.38312864:
                    if input[4] < 110.13987:
                        var2 = 0.031664997
                    else:
                        var2 = -0.09759644
                else:
                    if input[1] < 0.19518405:
                        var2 = -0.09979743
                    else:
                        var2 = -0.17318036
        else:
            if input[4] < 125.942024:
                if input[1] < 0.72928137:
                    if input[2] < 0.3230294:
                        var2 = -0.0074936473
                    else:
                        var2 = -0.11825406
                else:
                    if input[0] < 20.37535:
                        var2 = -0.016627787
                    else:
                        var2 = -0.16388002
            else:
                if input[2] < 0.1403958:
                    if input[4] < 298.40488:
                        var2 = -0.1344973
                    else:
                        var2 = 0.08463347
                else:
                    if input[1] < 0.4148107:
                        var2 = -0.13977589
                    else:
                        var2 = -0.16849153
    if input[3] < 0.52973264:
        if input[1] < 0.5887995:
            if input[3] < 0.27338958:
                if input[4] < 154.28606:
                    if input[1] < 0.50322884:
                        var3 = 0.14001462
                    else:
                        var3 = 0.082605526
                else:
                    if input[1] < 0.28128594:
                        var3 = 0.11720436
                    else:
                        var3 = 0.051138144
            else:
                if input[4] < 133.52977:
                    if input[1] < 0.2748452:
                        var3 = 0.12185278
                    else:
                        var3 = 0.043874193
                else:
                    if input[2] < 0.47389856:
                        var3 = 0.047533404
                    else:
                        var3 = -0.061703574
        else:
            if input[3] < 0.17343481:
                if input[2] < 0.47389856:
                    if input[4] < 191.66713:
                        var3 = 0.08656352
                    else:
                        var3 = -0.006011318
                else:
                    if input[1] < 0.8795624:
                        var3 = -0.024709545
                    else:
                        var3 = -0.12890618
            else:
                if input[4] < 111.17189:
                    if input[2] < 0.47060335:
                        var3 = -0.0005331623
                    else:
                        var3 = -0.09697607
                else:
                    if input[1] < 0.7537062:
                        var3 = -0.092543855
                    else:
                        var3 = -0.16000488
    else:
        if input[1] < 0.21671194:
            if input[3] < 0.73895454:
                if input[2] < 0.3879198:
                    if input[4] < 228.7546:
                        var3 = 0.11056425
                    else:
                        var3 = -0.0056149093
                else:
                    if input[0] < 36.772297:
                        var3 = 0.043772556
                    else:
                        var3 = -0.07241761
            else:
                if input[4] < 61.91796:
                    if input[3] < 0.96168715:
                        var3 = 0.046944153
                    else:
                        var3 = -0.14157186
                else:
                    if input[4] < 124.7899:
                        var3 = -0.06219532
                    else:
                        var3 = -0.13520502
        else:
            if input[4] < 54.71964:
                if input[3] < 0.7241321:
                    if input[2] < 0.5936545:
                        var3 = 0.015950652
                    else:
                        var3 = -0.14331011
                else:
                    if input[2] < 0.27106014:
                        var3 = -0.07479353
                    else:
                        var3 = -0.15316956
            else:
                if input[2] < 0.1403958:
                    if input[4] < 117.45116:
                        var3 = -0.044128947
                    else:
                        var3 = -0.13408221
                else:
                    if input[3] < 0.66909105:
                        var3 = -0.12907796
                    else:
                        var3 = -0.15833227
    if input[3] < 0.52973264:
        if input[1] < 0.50723326:
            if input[3] < 0.33260462:
                if input[2] < 0.6787924:
                    if input[4] < 147.52568:
                        var4 = 0.13805538
                    else:
                        var4 = 0.10170837
                else:
                    if input[4] < 89.308334:
                        var4 = 0.11765623
                    else:
                        var4 = 0.03673192
            else:
                if input[4] < 133.52977:
                    if input[1] < 0.2748452:
                        var4 = 0.10609479
                    else:
                        var4 = 0.032185193
                else:
                    if input[2] < 0.44235978:
                        var4 = 0.04645183
                    else:
                        var4 = -0.06059913
        else:
            if input[3] < 0.17343481:
                if input[2] < 0.47389856:
                    if input[4] < 98.5106:
                        var4 = 0.110101044
                    else:
                        var4 = 0.029114306
                else:
                    if input[1] < 0.76939255:
                        var4 = 0.015408101
                    else:
                        var4 = -0.086583845
            else:
                if input[4] < 111.17189:
                    if input[2] < 0.47060335:
                        var4 = 0.026988197
                    else:
                        var4 = -0.08633841
                else:
                    if input[1] < 0.7537062:
                        var4 = -0.082872644
                    else:
                        var4 = -0.15024878
    else:
        if input[1] < 0.21671194:
            if input[3] < 0.73895454:
                if input[2] < 0.3879198:
                    if input[4] < 258.1978:
                        var4 = 0.096472174
                    else:
                        var4 = -0.039963063
                else:
                    if input[1] < 0.084670074:
                        var4 = 0.047305636
                    else:
                        var4 = -0.062608205
            else:
                if input[4] < 61.91796:
                    if input[1] < 0.013292678:
                        var4 = 0.13994628
                    else:
                        var4 = 0.0021484047
                else:
                    if input[0] < 68.118996:
                        var4 = -0.11227037
                    else:
                        var4 = 0.043499764
        else:
            if input[4] < 54.71964:
                if input[3] < 0.7241321:
                    if input[1] < 0.5683177:
                        var4 = 0.037155274
                    else:
                        var4 = -0.097468205
                else:
                    if input[2] < 0.27106014:
                        var4 = -0.06832357
                    else:
                        var4 = -0.14307763
            else:
                if input[2] < 0.35945967:
                    if input[1] < 0.6368554:
                        var4 = -0.09154403
                    else:
                        var4 = -0.14433809
                else:
                    if input[0] < 20.623493:
                        var4 = -0.07764234
                    else:
                        var4 = -0.14666635
    if input[3] < 0.37817907:
        if input[1] < 0.50723326:
            if input[4] < 178.62672:
                if input[2] < 0.6642502:
                    if input[1] < 0.28128594:
                        var5 = 0.13398278
                    else:
                        var5 = 0.11023613
                else:
                    if input[1] < 0.2748452:
                        var5 = 0.10747477
                    else:
                        var5 = 0.045771863
            else:
                if input[3] < 0.18602847:
                    if input[2] < 0.7438539:
                        var5 = 0.108374946
                    else:
                        var5 = 0.042087484
                else:
                    if input[1] < 0.24850407:
                        var5 = 0.06852752
                    else:
                        var5 = -0.02341249
        else:
            if input[2] < 0.47389856:
                if input[4] < 98.5106:
                    if input[2] < 0.12860027:
                        var5 = 0.118546024
                    else:
                        var5 = 0.06376589
                else:
                    if input[1] < 0.75703996:
                        var5 = 0.036705106
                    else:
                        var5 = -0.097644195
            else:
                if input[1] < 0.8285743:
                    if input[3] < 0.23050809:
                        var5 = -0.002039128
                    else:
                        var5 = -0.09368277
                else:
                    if input[4] < 283.57675:
                        var5 = -0.12229431
                    else:
                        var5 = 0.030658085
    else:
        if input[1] < 0.35110492:
            if input[3] < 0.66909105:
                if input[4] < 203.27017:
                    if input[2] < 0.6181535:
                        var5 = 0.08866897
                    else:
                        var5 = 0.0038339985
                else:
                    if input[1] < 0.084670074:
                        var5 = 0.050329693
                    else:
                        var5 = -0.0616252
            else:
                if input[4] < 104.61839:
                    if input[1] < 0.04455454:
                        var5 = 0.09128096
                    else:
                        var5 = -0.047344185
                else:
                    if input[3] < 0.82663375:
                        var5 = -0.07075167
                    else:
                        var5 = -0.13789214
        else:
            if input[4] < 31.168474:
                if input[1] < 0.71153516:
                    if input[2] < 0.47060335:
                        var5 = 0.056947112
                    else:
                        var5 = -0.073862895
                else:
                    if input[1] < 0.7537062:
                        var5 = -0.08505121
                    else:
                        var5 = -0.14683639
            else:
                if input[2] < 0.1459983:
                    if input[3] < 0.5481732:
                        var5 = -0.020769848
                    else:
                        var5 = -0.10829967
                else:
                    if input[3] < 0.58951205:
                        var5 = -0.1082623
                    else:
                        var5 = -0.1395009
    if input[3] < 0.52973264:
        if input[1] < 0.5887995:
            if input[3] < 0.1821155:
                if input[2] < 0.41507807:
                    if input[4] < 274.5398:
                        var6 = 0.1290864
                    else:
                        var6 = -0.03208445
                else:
                    if input[1] < 0.3042718:
                        var6 = 0.10946598
                    else:
                        var6 = 0.057318237
            else:
                if input[2] < 0.44235978:
                    if input[4] < 119.85469:
                        var6 = 0.111420825
                    else:
                        var6 = 0.051586073
                else:
                    if input[1] < 0.27043933:
                        var6 = 0.053471554
                    else:
                        var6 = -0.04673895
        else:
            if input[3] < 0.10450755:
                if input[2] < 0.5216839:
                    if input[1] < 0.97658163:
                        var6 = 0.078547575
                    else:
                        var6 = -0.14061958
                else:
                    if input[0] < 50.60793:
                        var6 = -0.0051041082
                    else:
                        var6 = -0.09992183
            else:
                if input[4] < 186.42491:
                    if input[1] < 0.8285743:
                        var6 = -0.015693273
                    else:
                        var6 = -0.09711183
                else:
                    if input[1] < 0.68216205:
                        var6 = -0.068775974
                    else:
                        var6 = -0.13617145
    else:
        if input[1] < 0.20983638:
            if input[3] < 0.82663375:
                if input[2] < 0.3879198:
                    if input[4] < 228.7546:
                        var6 = 0.08024513
                    else:
                        var6 = -0.032640897
                else:
                    if input[0] < 36.772297:
                        var6 = 0.03856328
                    else:
                        var6 = -0.06059594
            else:
                if input[4] < 104.61839:
                    if input[1] < 0.09763632:
                        var6 = 0.058028884
                    else:
                        var6 = -0.09471398
                else:
                    if input[3] < 0.9675238:
                        var6 = -0.14182973
                    else:
                        var6 = -0.09507645
        else:
            if input[4] < 92.093925:
                if input[2] < 0.36274853:
                    if input[1] < 0.59316355:
                        var6 = 0.016446507
                    else:
                        var6 = -0.09794226
                else:
                    if input[1] < 0.3978606:
                        var6 = -0.06927491
                    else:
                        var6 = -0.13046454
            else:
                if input[4] < 298.40488:
                    if input[3] < 0.66542894:
                        var6 = -0.108157985
                    else:
                        var6 = -0.13382696
                else:
                    if input[2] < 0.047801897:
                        var6 = 0.10088503
                    else:
                        var6 = -0.083833836
    if input[3] < 0.37817907:
        if input[1] < 0.50723326:
            if input[4] < 173.51425:
                if input[2] < 0.6642502:
                    if input[3] < 0.33260462:
                        var7 = 0.11595189
                    else:
                        var7 = 0.07741117
                else:
                    if input[4] < 89.308334:
                        var7 = 0.0983892
                    else:
                        var7 = 0.034478735
            else:
                if input[2] < 0.6787924:
                    if input[1] < 0.12016242:
                        var7 = 0.12165487
                    else:
                        var7 = 0.054950982
                else:
                    if input[3] < 0.11221158:
                        var7 = 0.06142785
                    else:
                        var7 = -0.045836914
        else:
            if input[2] < 0.36624256:
                if input[1] < 0.7746319:
                    if input[4] < 195.50415:
                        var7 = 0.08395132
                    else:
                        var7 = 0.014926501
                else:
                    if input[4] < 97.69883:
                        var7 = 0.054539848
                    else:
                        var7 = -0.083439924
            else:
                if input[3] < 0.16505186:
                    if input[4] < 48.358135:
                        var7 = 0.059976984
                    else:
                        var7 = -0.027616018
                else:
                    if input[4] < 18.227009:
                        var7 = 0.03932909
                    else:
                        var7 = -0.093241915
    else:
        if input[1] < 0.3978606:
            if input[3] < 0.73083854:
                if input[1] < 0.084670074:
                    if input[0] < 54.114487:
                        var7 = 0.102364115
                    else:
                        var7 = 0.02086906
                else:
                    if input[2] < 0.5446194:
                        var7 = 0.03425531
                    else:
                        var7 = -0.05265643
            else:
                if input[4] < 104.61839:
                    if input[2] < 0.38312864:
                        var7 = 0.025919754
                    else:
                        var7 = -0.080457814
                else:
                    if input[3] < 0.73895454:
                        var7 = 0.016067022
                    else:
                        var7 = -0.11207563
        else:
            if input[2] < 0.14945522:
                if input[1] < 0.7537062:
                    if input[4] < 122.781105:
                        var7 = 0.02180797
                    else:
                        var7 = -0.08092933
                else:
                    if input[0] < 20.37535:
                        var7 = 0.039186683
                    else:
                        var7 = -0.13025658
            else:
                if input[1] < 0.6368554:
                    if input[2] < 0.47389856:
                        var7 = -0.05417977
                    else:
                        var7 = -0.120209694
                else:
                    if input[4] < 12.599482:
                        var7 = -0.07522314
                    else:
                        var7 = -0.13154607
    if input[3] < 0.46009842:
        if input[1] < 0.47922283:
            if input[2] < 0.54045206:
                if input[4] < 191.66713:
                    if input[3] < 0.17872871:
                        var8 = 0.12248223
                    else:
                        var8 = 0.094894335
                else:
                    if input[1] < 0.10832863:
                        var8 = 0.11381067
                    else:
                        var8 = 0.046842337
            else:
                if input[4] < 91.063515:
                    if input[1] < 0.1524319:
                        var8 = 0.11980641
                    else:
                        var8 = 0.068034165
                else:
                    if input[3] < 0.20157163:
                        var8 = 0.06437907
                    else:
                        var8 = -0.025713846
        else:
            if input[3] < 0.11484444:
                if input[2] < 0.343581:
                    if input[1] < 0.97658163:
                        var8 = 0.090133816
                    else:
                        var8 = -0.13404247
                else:
                    if input[1] < 0.6368554:
                        var8 = 0.047728937
                    else:
                        var8 = -0.026822945
            else:
                if input[4] < 195.50415:
                    if input[1] < 0.8285743:
                        var8 = 0.007101737
                    else:
                        var8 = -0.08130827
                else:
                    if input[0] < 21.090239:
                        var8 = 0.013393171
                    else:
                        var8 = -0.11197686
    else:
        if input[1] < 0.17501955:
            if input[3] < 0.73083854:
                if input[4] < 275.8747:
                    if input[1] < 0.084670074:
                        var8 = 0.08423663
                    else:
                        var8 = 0.014398298
                else:
                    if input[1] < 0.013292678:
                        var8 = 0.0657097
                    else:
                        var8 = -0.16699784
            else:
                if input[4] < 133.52977:
                    if input[2] < 0.5030221:
                        var8 = 0.055115193
                    else:
                        var8 = -0.07604785
                else:
                    if input[0] < 69.23793:
                        var8 = -0.09588218
                    else:
                        var8 = 0.10433283
        else:
            if input[4] < 125.942024:
                if input[3] < 0.7241321:
                    if input[1] < 0.65797395:
                        var8 = 0.007184797
                    else:
                        var8 = -0.100722805
                else:
                    if input[4] < 2.4153616:
                        var8 = 0.045359187
                    else:
                        var8 = -0.1081024
            else:
                if input[3] < 0.6037752:
                    if input[0] < 46.06901:
                        var8 = -0.050689515
                    else:
                        var8 = -0.12752219
                else:
                    if input[4] < 298.40488:
                        var8 = -0.12377917
                    else:
                        var8 = 0.03566287
    if input[3] < 0.52973264:
        if input[1] < 0.43885875:
            if input[3] < 0.18602847:
                if input[2] < 0.81929874:
                    if input[4] < 267.8931:
                        var9 = 0.10828195
                    else:
                        var9 = 0.048080277
                else:
                    if input[1] < 0.23183468:
                        var9 = 0.094245054
                    else:
                        var9 = -0.015923865
            else:
                if input[4] < 133.52977:
                    if input[2] < 0.8754764:
                        var9 = 0.08203327
                    else:
                        var9 = -0.006596667
                else:
                    if input[2] < 0.47389856:
                        var9 = 0.051653713
                    else:
                        var9 = -0.023540592
        else:
            if input[3] < 0.17343481:
                if input[2] < 0.52610064:
                    if input[4] < 270.58853:
                        var9 = 0.060005583
                    else:
                        var9 = -0.06971758
                else:
                    if input[4] < 48.358135:
                        var9 = 0.057296317
                    else:
                        var9 = -0.038351078
            else:
                if input[4] < 111.17189:
                    if input[2] < 0.47060335:
                        var9 = 0.040828284
                    else:
                        var9 = -0.06382838
                else:
                    if input[1] < 0.7537062:
                        var9 = -0.060395785
                    else:
                        var9 = -0.12630868
    else:
        if input[1] < 0.20573908:
            if input[3] < 0.82663375:
                if input[4] < 269.1767:
                    if input[2] < 0.20104669:
                        var9 = 0.080302715
                    else:
                        var9 = 0.008259411
                else:
                    if input[1] < 0.026881684:
                        var9 = 0.0855112
                    else:
                        var9 = -0.15251526
            else:
                if input[4] < 104.61839:
                    if input[1] < 0.09763632:
                        var9 = 0.053441077
                    else:
                        var9 = -0.08177347
                else:
                    if input[3] < 0.9675238:
                        var9 = -0.1280927
                    else:
                        var9 = -0.07587472
        else:
            if input[2] < 0.36274853:
                if input[4] < 117.45116:
                    if input[1] < 0.5444663:
                        var9 = 0.021751398
                    else:
                        var9 = -0.07754806
                else:
                    if input[3] < 0.5438913:
                        var9 = 0.017430997
                    else:
                        var9 = -0.10923483
            else:
                if input[4] < 29.947752:
                    if input[1] < 0.3978606:
                        var9 = 0.0012958959
                    else:
                        var9 = -0.10502546
                else:
                    if input[3] < 0.66542894:
                        var9 = -0.10328493
                    else:
                        var9 = -0.12748027
    if input[3] < 0.37817907:
        if input[1] < 0.6707229:
            if input[1] < 0.28128594:
                if input[2] < 0.4860327:
                    if input[4] < 293.6901:
                        var10 = 0.10451948
                    else:
                        var10 = -0.056656923
                else:
                    if input[4] < 128.68704:
                        var10 = 0.09397461
                    else:
                        var10 = 0.04122526
            else:
                if input[4] < 195.50415:
                    if input[0] < 59.75574:
                        var10 = 0.06870822
                    else:
                        var10 = 0.003578835
                else:
                    if input[3] < 0.09679961:
                        var10 = 0.06453653
                    else:
                        var10 = -0.04071682
        else:
            if input[4] < 98.5106:
                if input[2] < 0.24605027:
                    if input[0] < 57.264057:
                        var10 = 0.05983102
                    else:
                        var10 = 0.1147519
                else:
                    if input[3] < 0.27338958:
                        var10 = 0.017214376
                    else:
                        var10 = -0.09380116
            else:
                if input[3] < 0.10112042:
                    if input[1] < 0.8795624:
                        var10 = 0.018445348
                    else:
                        var10 = -0.11200817
                else:
                    if input[3] < 0.3667777:
                        var10 = -0.102513306
                    else:
                        var10 = 0.036483742
    else:
        if input[1] < 0.3978606:
            if input[3] < 0.66909105:
                if input[1] < 0.084670074:
                    if input[0] < 53.883686:
                        var10 = 0.092946865
                    else:
                        var10 = 0.012087013
                else:
                    if input[2] < 0.722039:
                        var10 = 0.025739474
                    else:
                        var10 = -0.062764704
            else:
                if input[2] < 0.3322365:
                    if input[4] < 127.56343:
                        var10 = 0.03445229
                    else:
                        var10 = -0.05927486
                else:
                    if input[4] < 19.185501:
                        var10 = 0.019266123
                    else:
                        var10 = -0.096722506
        else:
            if input[1] < 0.72928137:
                if input[4] < 125.942024:
                    if input[3] < 0.7349894:
                        var10 = -0.006338939
                    else:
                        var10 = -0.100806914
                else:
                    if input[2] < 0.18882091:
                        var10 = -0.05917364
                    else:
                        var10 = -0.11631852
            else:
                if input[0] < 20.37535:
                    if input[2] < 0.03671131:
                        var10 = 0.09823796
                    else:
                        var10 = -0.09032233
                else:
                    if input[3] < 0.40525207:
                        var10 = -0.072061956
                    else:
                        var10 = -0.12260001
    if input[3] < 0.33260462:
        if input[1] < 0.67468524:
            if input[1] < 0.28128594:
                if input[2] < 0.5030221:
                    if input[4] < 188.69609:
                        var11 = 0.112404086
                    else:
                        var11 = 0.08183791
                else:
                    if input[4] < 128.68704:
                        var11 = 0.090153866
                    else:
                        var11 = 0.04412001
            else:
                if input[2] < 0.36624256:
                    if input[0] < 66.53556:
                        var11 = 0.08137468
                    else:
                        var11 = -0.048446998
                else:
                    if input[4] < 202.13004:
                        var11 = 0.03706843
                    else:
                        var11 = -0.04315852
        else:
            if input[4] < 98.5106:
                if input[2] < 0.8475953:
                    if input[3] < 0.17872871:
                        var11 = 0.059303112
                    else:
                        var11 = -0.002118469
                else:
                    if input[0] < 56.56688:
                        var11 = -0.13269177
                    else:
                        var11 = 0.002472719
            else:
                if input[3] < 0.10112042:
                    if input[1] < 0.8795624:
                        var11 = 0.019420352
                    else:
                        var11 = -0.10398736
                else:
                    if input[0] < 21.981363:
                        var11 = 0.05187868
                    else:
                        var11 = -0.10005677
    else:
        if input[1] < 0.3235916:
            if input[3] < 0.73083854:
                if input[0] < 36.772297:
                    if input[4] < 243.28845:
                        var11 = 0.080252916
                    else:
                        var11 = -0.03411689
                else:
                    if input[2] < 0.44235978:
                        var11 = 0.036018286
                    else:
                        var11 = -0.045371357
            else:
                if input[1] < 0.1371832:
                    if input[2] < 0.8028013:
                        var11 = 0.0027838154
                    else:
                        var11 = -0.13002482
                else:
                    if input[2] < 0.10556479:
                        var11 = 0.015534486
                    else:
                        var11 = -0.10399085
        else:
            if input[1] < 0.6368554:
                if input[2] < 0.47389856:
                    if input[3] < 0.7198188:
                        var11 = 0.010545985
                    else:
                        var11 = -0.08407806
                else:
                    if input[4] < 89.308334:
                        var11 = -0.045432825
                    else:
                        var11 = -0.11570654
            else:
                if input[2] < 0.1459983:
                    if input[4] < 24.026196:
                        var11 = 0.058991004
                    else:
                        var11 = -0.07736861
                else:
                    if input[4] < 12.599482:
                        var11 = -0.06341446
                    else:
                        var11 = -0.11654871
    if input[3] < 0.52973264:
        if input[1] < 0.43885875:
            if input[3] < 0.18602847:
                if input[2] < 0.65586734:
                    if input[4] < 280.26212:
                        var12 = 0.10088288
                    else:
                        var12 = 0.005203068
                else:
                    if input[1] < 0.11198332:
                        var12 = 0.100828424
                    else:
                        var12 = 0.036824483
            else:
                if input[4] < 133.52977:
                    if input[2] < 0.6892005:
                        var12 = 0.07797284
                    else:
                        var12 = 0.026552578
                else:
                    if input[0] < 63.755383:
                        var12 = 0.019804472
                    else:
                        var12 = -0.087438405
        else:
            if input[4] < 111.17189:
                if input[2] < 0.47389856:
                    if input[1] < 0.7245785:
                        var12 = 0.07598057
                    else:
                        var12 = 0.009055333
                else:
                    if input[3] < 0.26087773:
                        var12 = 0.016155519
                    else:
                        var12 = -0.07397071
            else:
                if input[3] < 0.15734246:
                    if input[1] < 0.76119953:
                        var12 = 0.02722166
                    else:
                        var12 = -0.056621592
                else:
                    if input[0] < 37.164623:
                        var12 = -0.02899181
                    else:
                        var12 = -0.09473215
    else:
        if input[1] < 0.20573908:
            if input[3] < 0.82663375:
                if input[4] < 275.8747:
                    if input[1] < 0.05226415:
                        var12 = 0.06993141
                    else:
                        var12 = 0.0056259283
                else:
                    if input[1] < 0.013292678:
                        var12 = 0.03161791
                    else:
                        var12 = -0.14009501
            else:
                if input[4] < 104.61839:
                    if input[1] < 0.09763632:
                        var12 = 0.050677806
                    else:
                        var12 = -0.07015779
                else:
                    if input[3] < 0.9675238:
                        var12 = -0.12034666
                    else:
                        var12 = -0.06559565
        else:
            if input[2] < 0.36274853:
                if input[4] < 117.45116:
                    if input[3] < 0.8784193:
                        var12 = 0.00757443
                    else:
                        var12 = -0.094608
                else:
                    if input[3] < 0.5438913:
                        var12 = 0.020396221
                    else:
                        var12 = -0.09927022
            else:
                if input[4] < 29.947752:
                    if input[2] < 0.65586734:
                        var12 = -0.0057773753
                    else:
                        var12 = -0.108089566
                else:
                    if input[3] < 0.58951205:
                        var12 = -0.07917025
                    else:
                        var12 = -0.11598261
    if input[3] < 0.40525207:
        if input[1] < 0.6707229:
            if input[1] < 0.1524319:
                if input[2] < 0.6018785:
                    if input[4] < 293.6901:
                        var13 = 0.10178405
                    else:
                        var13 = -0.04952817
                else:
                    if input[0] < 54.904835:
                        var13 = 0.08318623
                    else:
                        var13 = 0.011968928
            else:
                if input[2] < 0.74080056:
                    if input[4] < 172.39882:
                        var13 = 0.06741788
                    else:
                        var13 = 0.020302312
                else:
                    if input[0] < 45.085796:
                        var13 = 0.020589989
                    else:
                        var13 = -0.06432452
        else:
            if input[4] < 98.5106:
                if input[3] < 0.26087773:
                    if input[2] < 0.27106014:
                        var13 = 0.07909282
                    else:
                        var13 = 0.01144353
                else:
                    if input[0] < 65.19311:
                        var13 = -0.06570153
                    else:
                        var13 = 0.06446132
            else:
                if input[3] < 0.10112042:
                    if input[2] < 0.11295812:
                        var13 = 0.094814464
                    else:
                        var13 = -0.03195106
                else:
                    if input[0] < 21.981363:
                        var13 = 0.04354814
                    else:
                        var13 = -0.08611103
    else:
        if input[1] < 0.3978606:
            if input[3] < 0.66909105:
                if input[4] < 203.27017:
                    if input[0] < 36.772297:
                        var13 = 0.06993296
                    else:
                        var13 = 0.0112771345
                else:
                    if input[2] < 0.75615156:
                        var13 = -0.014600418
                    else:
                        var13 = -0.120322846
            else:
                if input[4] < 61.91796:
                    if input[3] < 0.9195156:
                        var13 = 0.0346969
                    else:
                        var13 = -0.099062376
                else:
                    if input[2] < 0.37879854:
                        var13 = -0.027284885
                    else:
                        var13 = -0.096379474
        else:
            if input[4] < 125.942024:
                if input[1] < 0.72928137:
                    if input[3] < 0.7349894:
                        var13 = -0.0007859624
                    else:
                        var13 = -0.08856805
                else:
                    if input[0] < 20.37535:
                        var13 = 0.03506644
                    else:
                        var13 = -0.11175455
            else:
                if input[4] < 298.40488:
                    if input[1] < 0.4148107:
                        var13 = -0.03188518
                    else:
                        var13 = -0.109427445
                else:
                    if input[2] < 0.047801897:
                        var13 = 0.12339342
                    else:
                        var13 = -0.067691535
    if input[3] < 0.33260462:
        if input[1] < 0.50322884:
            if input[4] < 153.00742:
                if input[2] < 0.5151751:
                    if input[4] < 147.52568:
                        var14 = 0.09819961
                    else:
                        var14 = 0.03900504
                else:
                    if input[1] < 0.4231102:
                        var14 = 0.06899766
                    else:
                        var14 = -0.0075519467
            else:
                if input[2] < 0.7438539:
                    if input[1] < 0.26698747:
                        var14 = 0.07276494
                    else:
                        var14 = 0.02553843
                else:
                    if input[0] < 37.34349:
                        var14 = 0.049874917
                    else:
                        var14 = -0.058655202
        else:
            if input[2] < 0.1559421:
                if input[3] < 0.17872871:
                    if input[0] < 60.559288:
                        var14 = 0.09253828
                    else:
                        var14 = 0.0025191987
                else:
                    if input[4] < 187.54044:
                        var14 = 0.036685567
                    else:
                        var14 = -0.13010086
            else:
                if input[1] < 0.82550126:
                    if input[4] < 195.50415:
                        var14 = 0.017576331
                    else:
                        var14 = -0.047233697
                else:
                    if input[4] < 97.69883:
                        var14 = -0.015954826
                    else:
                        var14 = -0.08689644
    else:
        if input[1] < 0.20983638:
            if input[3] < 0.82663375:
                if input[0] < 29.874104:
                    if input[0] < 21.090239:
                        var14 = -0.10948068
                    else:
                        var14 = 0.08096815
                else:
                    if input[2] < 0.51101804:
                        var14 = 0.04121097
                    else:
                        var14 = -0.032799408
            else:
                if input[4] < 104.61839:
                    if input[2] < 0.47060335:
                        var14 = 0.044171438
                    else:
                        var14 = -0.07407138
                else:
                    if input[3] < 0.9675238:
                        var14 = -0.11566124
                    else:
                        var14 = -0.060404647
        else:
            if input[1] < 0.6368554:
                if input[2] < 0.44235978:
                    if input[3] < 0.7198188:
                        var14 = 0.016152
                    else:
                        var14 = -0.06857049
                else:
                    if input[3] < 0.61157435:
                        var14 = -0.04498491
                    else:
                        var14 = -0.106111065
            else:
                if input[2] < 0.1459983:
                    if input[4] < 24.026196:
                        var14 = 0.060843516
                    else:
                        var14 = -0.06511789
                else:
                    if input[4] < 12.599482:
                        var14 = -0.051202517
                    else:
                        var14 = -0.10874572
    if input[3] < 0.52973264:
        if input[1] < 0.4148107:
            if input[3] < 0.21222813:
                if input[4] < 261.5736:
                    if input[2] < 0.77988803:
                        var15 = 0.08930634
                    else:
                        var15 = 0.046169084
                else:
                    if input[1] < 0.12813792:
                        var15 = 0.09315079
                    else:
                        var15 = -0.018723655
            else:
                if input[0] < 30.432266:
                    if input[1] < 0.3398611:
                        var15 = 0.08329401
                    else:
                        var15 = 0.0038973417
                else:
                    if input[1] < 0.10832863:
                        var15 = 0.060713273
                    else:
                        var15 = -0.00888482
        else:
            if input[3] < 0.17343481:
                if input[2] < 0.1559421:
                    if input[4] < 267.8931:
                        var15 = 0.07977288
                    else:
                        var15 = -0.020233372
                else:
                    if input[4] < 125.942024:
                        var15 = 0.032791767
                    else:
                        var15 = -0.020327603
            else:
                if input[2] < 0.1936402:
                    if input[1] < 0.7746319:
                        var15 = 0.0398701
                    else:
                        var15 = -0.063489996
                else:
                    if input[4] < 161.92506:
                        var15 = -0.029273394
                    else:
                        var15 = -0.09249234
    else:
        if input[1] < 0.20573908:
            if input[1] < 0.013292678:
                if input[2] < 0.81550854:
                    if input[4] < 124.06784:
                        var15 = 0.115623794
                    else:
                        var15 = 0.03597731
                else:
                    var15 = -0.10086755
            else:
                if input[4] < 236.86566:
                    if input[3] < 0.9710055:
                        var15 = 0.0075627784
                    else:
                        var15 = -0.12132981
                else:
                    if input[3] < 0.7241321:
                        var15 = -0.047201958
                    else:
                        var15 = -0.11902056
        else:
            if input[2] < 0.36274853:
                if input[4] < 117.45116:
                    if input[1] < 0.5444663:
                        var15 = 0.026205173
                    else:
                        var15 = -0.05413661
                else:
                    if input[3] < 0.5438913:
                        var15 = 0.024703002
                    else:
                        var15 = -0.090630986
            else:
                if input[4] < 29.947752:
                    if input[2] < 0.65586734:
                        var15 = 0.004264783
                    else:
                        var15 = -0.098772235
                else:
                    if input[3] < 0.66542894:
                        var15 = -0.08149213
                    else:
                        var15 = -0.114276074
    if input[3] < 0.52973264:
        if input[1] < 0.4148107:
            if input[3] < 0.1821155:
                if input[4] < 267.8931:
                    if input[2] < 0.65586734:
                        var16 = 0.09350189
                    else:
                        var16 = 0.051392794
                else:
                    if input[1] < 0.12813792:
                        var16 = 0.10046548
                    else:
                        var16 = -0.034230754
            else:
                if input[4] < 93.1032:
                    if input[1] < 0.13342007:
                        var16 = 0.088216655
                    else:
                        var16 = 0.045004483
                else:
                    if input[2] < 0.44742337:
                        var16 = 0.040165484
                    else:
                        var16 = -0.020763556
        else:
            if input[2] < 0.47389856:
                if input[4] < 244.47511:
                    if input[0] < 46.30303:
                        var16 = 0.047528155
                    else:
                        var16 = -0.0052758185
                else:
                    if input[2] < 0.3390035:
                        var16 = -0.025216594
                    else:
                        var16 = -0.16007386
            else:
                if input[3] < 0.26087773:
                    if input[1] < 0.76939255:
                        var16 = 0.008682764
                    else:
                        var16 = -0.057442963
                else:
                    if input[4] < 11.394733:
                        var16 = 0.019742163
                    else:
                        var16 = -0.085600756
    else:
        if input[1] < 0.20573908:
            if input[2] < 0.3879198:
                if input[4] < 127.56343:
                    if input[3] < 0.55113727:
                        var16 = -0.11166711
                    else:
                        var16 = 0.058687557
                else:
                    if input[3] < 0.73895454:
                        var16 = 0.027565459
                    else:
                        var16 = -0.08144477
            else:
                if input[0] < 23.259222:
                    if input[0] < 21.59486:
                        var16 = -0.09650331
                    else:
                        var16 = 0.11110975
                else:
                    if input[1] < 0.1371832:
                        var16 = -0.017608143
                    else:
                        var16 = -0.08700245
        else:
            if input[2] < 0.36274853:
                if input[4] < 117.45116:
                    if input[3] < 0.8784193:
                        var16 = 0.013055152
                    else:
                        var16 = -0.08133002
                else:
                    if input[3] < 0.5438913:
                        var16 = 0.022381295
                    else:
                        var16 = -0.086848915
            else:
                if input[4] < 46.520817:
                    if input[1] < 0.3978606:
                        var16 = 0.011616349
                    else:
                        var16 = -0.09135393
                else:
                    if input[0] < 20.623493:
                        var16 = -0.0037062888
                    else:
                        var16 = -0.104546025
    if input[3] < 0.33260462:
        if input[1] < 0.6707229:
            if input[2] < 0.36624256:
                if input[0] < 66.53556:
                    if input[3] < 0.16072005:
                        var17 = 0.08948215
                    else:
                        var17 = 0.052586675
                else:
                    if input[2] < 0.21906047:
                        var17 = 0.040508267
                    else:
                        var17 = -0.1846887
            else:
                if input[1] < 0.23183468:
                    if input[0] < 37.758244:
                        var17 = 0.08325166
                    else:
                        var17 = 0.038878422
                else:
                    if input[4] < 235.5775:
                        var17 = 0.02055376
                    else:
                        var17 = -0.04675291
        else:
            if input[4] < 98.5106:
                if input[2] < 0.8475953:
                    if input[1] < 0.85535616:
                        var17 = 0.050581433
                    else:
                        var17 = -0.003860762
                else:
                    if input[0] < 56.56688:
                        var17 = -0.124918796
                    else:
                        var17 = 0.005570993
            else:
                if input[3] < 0.10112042:
                    if input[1] < 0.8795624:
                        var17 = 0.016547555
                    else:
                        var17 = -0.08540393
                else:
                    if input[0] < 21.981363:
                        var17 = 0.044865105
                    else:
                        var17 = -0.08366902
    else:
        if input[1] < 0.605934:
            if input[4] < 133.52977:
                if input[2] < 0.8713692:
                    if input[3] < 0.7039333:
                        var17 = 0.04045983
                    else:
                        var17 = -0.018311927
                else:
                    if input[0] < 25.569155:
                        var17 = 0.04544589
                    else:
                        var17 = -0.09970413
            else:
                if input[3] < 0.66909105:
                    if input[0] < 52.008564:
                        var17 = 0.0016871942
                    else:
                        var17 = -0.0719169
                else:
                    if input[1] < 0.1371832:
                        var17 = -0.031447258
                    else:
                        var17 = -0.09828944
        else:
            if input[2] < 0.1459983:
                if input[2] < 0.1200443:
                    if input[4] < 5.012241:
                        var17 = 0.12997995
                    else:
                        var17 = -0.07202689
                else:
                    if input[0] < 55.26323:
                        var17 = -0.040580735
                    else:
                        var17 = 0.24102938
            else:
                if input[4] < 12.599482:
                    if input[1] < 0.71153516:
                        var17 = 0.057793926
                    else:
                        var17 = -0.1054251
                else:
                    if input[3] < 0.5185417:
                        var17 = -0.076671444
                    else:
                        var17 = -0.11210431
    if input[3] < 0.45750505:
        if input[1] < 0.28128594:
            if input[2] < 0.21906047:
                if input[3] < 0.44538596:
                    if input[1] < 0.15986705:
                        var18 = 0.10905434
                    else:
                        var18 = 0.08184386
                else:
                    if input[1] < 0.061939:
                        var18 = -0.031081056
                    else:
                        var18 = 0.05958144
            else:
                if input[1] < 0.10832863:
                    if input[4] < 110.13987:
                        var18 = 0.096297
                    else:
                        var18 = 0.05468097
                else:
                    if input[0] < 30.432266:
                        var18 = 0.07331102
                    else:
                        var18 = 0.0029909627
        else:
            if input[4] < 67.24223:
                if input[2] < 0.8932383:
                    if input[1] < 0.85535616:
                        var18 = 0.059066016
                    else:
                        var18 = -0.012625954
                else:
                    if input[3] < 0.10450755:
                        var18 = 0.03695476
                    else:
                        var18 = -0.12502316
            else:
                if input[3] < 0.13650969:
                    if input[0] < 62.526684:
                        var18 = 0.026962778
                    else:
                        var18 = -0.07188084
                else:
                    if input[1] < 0.76119953:
                        var18 = -0.020632593
                    else:
                        var18 = -0.08515687
    else:
        if input[1] < 0.50723326:
            if input[4] < 135.91576:
                if input[2] < 0.3715505:
                    if input[3] < 0.8816506:
                        var18 = 0.055781793
                    else:
                        var18 = -0.03436958
                else:
                    if input[1] < 0.04455454:
                        var18 = 0.06334765
                    else:
                        var18 = -0.032455537
            else:
                if input[1] < 0.1371832:
                    if input[3] < 0.49599528:
                        var18 = -0.13481605
                    else:
                        var18 = 0.002102191
                else:
                    if input[3] < 0.7115295:
                        var18 = -0.046537243
                    else:
                        var18 = -0.10444492
        else:
            if input[2] < 0.1459983:
                if input[4] < 13.914051:
                    if input[1] < 0.7537062:
                        var18 = 0.17739546
                    else:
                        var18 = -0.076526925
                else:
                    if input[2] < 0.1200443:
                        var18 = -0.06315095
                    else:
                        var18 = 0.055646803
            else:
                if input[3] < 0.5185417:
                    if input[1] < 0.6307763:
                        var18 = 0.0092643425
                    else:
                        var18 = -0.09164976
                else:
                    if input[4] < 23.041777:
                        var18 = -0.059752405
                    else:
                        var18 = -0.107160166
    if input[3] < 0.27338958:
        if input[1] < 0.51042634:
            if input[4] < 202.13004:
                if input[2] < 0.52610064:
                    if input[0] < 33.71012:
                        var19 = 0.10498132
                    else:
                        var19 = 0.073380105
                else:
                    if input[1] < 0.10832863:
                        var19 = 0.07847761
                    else:
                        var19 = 0.03215668
            else:
                if input[2] < 0.6059305:
                    if input[3] < 0.075003:
                        var19 = 0.084280126
                    else:
                        var19 = 0.023284258
                else:
                    if input[3] < 0.11484444:
                        var19 = 0.020449406
                    else:
                        var19 = -0.08732896
        else:
            if input[2] < 0.1559421:
                if input[4] < 190.41025:
                    if input[0] < 67.37678:
                        var19 = 0.07309617
                    else:
                        var19 = -0.12338715
                else:
                    if input[4] < 227.89494:
                        var19 = -0.10366483
                    else:
                        var19 = 0.047527026
            else:
                if input[4] < 49.45041:
                    if input[3] < 0.021926804:
                        var19 = -0.081044994
                    else:
                        var19 = 0.04319341
                else:
                    if input[1] < 0.77792186:
                        var19 = -0.005535961
                    else:
                        var19 = -0.06276577
    else:
        if input[1] < 0.67468524:
            if input[2] < 0.47389856:
                if input[4] < 14.988666:
                    if input[0] < 66.34745:
                        var19 = 0.09580824
                    else:
                        var19 = -0.075988725
                else:
                    if input[3] < 0.73895454:
                        var19 = 0.017531333
                    else:
                        var19 = -0.04002487
            else:
                if input[1] < 0.23183468:
                    if input[0] < 28.66634:
                        var19 = 0.052561224
                    else:
                        var19 = -0.02693208
                else:
                    if input[3] < 0.61157435:
                        var19 = -0.04162122
                    else:
                        var19 = -0.093482666
        else:
            if input[3] < 0.5646926:
                if input[2] < 0.1459983:
                    if input[2] < 0.032306015:
                        var19 = -0.11441057
                    else:
                        var19 = 0.025432875
                else:
                    if input[4] < 110.13987:
                        var19 = -0.044418942
                    else:
                        var19 = -0.1040982
            else:
                if input[0] < 69.63259:
                    var19 = -0.11008352
                else:
                    var19 = 0.06425529
    if input[3] < 0.66909105:
        if input[1] < 0.47922283:
            if input[3] < 0.18602847:
                if input[2] < 0.4860327:
                    if input[4] < 280.26212:
                        var20 = 0.08579432
                    else:
                        var20 = -0.054103103
                else:
                    if input[0] < 60.08374:
                        var20 = 0.052366998
                    else:
                        var20 = -0.024452778
            else:
                if input[4] < 92.093925:
                    if input[2] < 0.8754764:
                        var20 = 0.05176679
                    else:
                        var20 = -0.026474128
                else:
                    if input[2] < 0.74080056:
                        var20 = 0.012981476
                    else:
                        var20 = -0.058686342
        else:
            if input[3] < 0.17343481:
                if input[2] < 0.1559421:
                    if input[0] < 56.17157:
                        var20 = 0.08049034
                    else:
                        var20 = 0.006633335
                else:
                    if input[4] < 125.942024:
                        var20 = 0.018985545
                    else:
                        var20 = -0.020829251
            else:
                if input[4] < 236.86566:
                    if input[1] < 0.76119953:
                        var20 = -0.004969507
                    else:
                        var20 = -0.06473852
                else:
                    if input[1] < 0.48701614:
                        var20 = -0.0073906067
                    else:
                        var20 = -0.11198304
    else:
        if input[1] < 0.24850407:
            if input[2] < 0.3322365:
                if input[0] < 63.044308:
                    if input[0] < 41.544247:
                        var20 = 0.04897904
                    else:
                        var20 = -0.048831444
                else:
                    if input[2] < 0.16985987:
                        var20 = 0.15026838
                    else:
                        var20 = 0.020621475
            else:
                if input[0] < 24.080471:
                    if input[4] < 53.78417:
                        var20 = 0.13116302
                    else:
                        var20 = -0.03126045
                else:
                    if input[1] < 0.04455454:
                        var20 = -0.0039246827
                    else:
                        var20 = -0.08401456
        else:
            if input[4] < 13.914051:
                if input[3] < 0.8477497:
                    if input[2] < 0.52929956:
                        var20 = 0.09386697
                    else:
                        var20 = -0.07872068
                else:
                    if input[2] < 0.03671131:
                        var20 = 0.07580455
                    else:
                        var20 = -0.110156916
            else:
                if input[0] < 69.63259:
                    if input[4] < 298.40488:
                        var20 = -0.08912279
                    else:
                        var20 = 0.12958123
                else:
                    if input[3] < 0.7349894:
                        var20 = 0.14122301
                    else:
                        var20 = -0.058857728
    if input[3] < 0.33260462:
        if input[1] < 0.28128594:
            if input[2] < 0.22210076:
                if input[1] < 0.0056482735:
                    var21 = 0.019433057
                else:
                    if input[0] < 29.705084:
                        var21 = 0.07085071
                    else:
                        var21 = 0.10277039
            else:
                if input[4] < 178.62672:
                    if input[3] < 0.21597447:
                        var21 = 0.079347245
                    else:
                        var21 = 0.03638675
                else:
                    if input[0] < 37.758244:
                        var21 = 0.058153886
                    else:
                        var21 = -0.013245973
        else:
            if input[4] < 98.5106:
                if input[2] < 0.42558122:
                    if input[1] < 0.68616635:
                        var21 = 0.08308607
                    else:
                        var21 = 0.029204149
                else:
                    if input[1] < 0.4231102:
                        var21 = 0.058805287
                    else:
                        var21 = -0.0036039427
            else:
                if input[1] < 0.76939255:
                    if input[3] < 0.040201865:
                        var21 = 0.060459632
                    else:
                        var21 = -0.0091869775
                else:
                    if input[0] < 50.60793:
                        var21 = -0.029894123
                    else:
                        var21 = -0.10991035
    else:
        if input[1] < 0.6368554:
            if input[0] < 36.772297:
                if input[3] < 0.55864614:
                    if input[4] < 258.1978:
                        var21 = 0.060743183
                    else:
                        var21 = -0.057267338
                else:
                    if input[4] < 76.75989:
                        var21 = 0.032146115
                    else:
                        var21 = -0.04752135
            else:
                if input[1] < 0.05226415:
                    if input[2] < 0.73690945:
                        var21 = 0.061334547
                    else:
                        var21 = -0.040967714
                else:
                    if input[2] < 0.71171755:
                        var21 = -0.023193374
                    else:
                        var21 = -0.08001377
        else:
            if input[2] < 0.1459983:
                if input[4] < 117.45116:
                    if input[2] < 0.0903196:
                        var21 = -0.05460274
                    else:
                        var21 = 0.07505242
                else:
                    if input[2] < 0.047801897:
                        var21 = -0.005441408
                    else:
                        var21 = -0.10814666
            else:
                if input[3] < 0.4491768:
                    if input[1] < 0.7079324:
                        var21 = -0.1198146
                    else:
                        var21 = -0.038811486
                else:
                    if input[4] < 12.599482:
                        var21 = -0.04820123
                    else:
                        var21 = -0.104651846
    if input[3] < 0.7241321:
        if input[1] < 0.12016242:
            if input[0] < 36.971264:
                if input[3] < 0.5398287:
                    if input[4] < 224.17091:
                        var22 = 0.10130246
                    else:
                        var22 = 0.04916957
                else:
                    if input[1] < 0.09763632:
                        var22 = 0.056164708
                    else:
                        var22 = -0.07896288
            else:
                if input[2] < 0.6511499:
                    if input[0] < 38.723198:
                        var22 = -0.06656
                    else:
                        var22 = 0.05897798
                else:
                    if input[1] < 0.048976794:
                        var22 = 0.039241567
                    else:
                        var22 = -0.056965
        else:
            if input[3] < 0.10112042:
                if input[2] < 0.343581:
                    if input[1] < 0.97658163:
                        var22 = 0.06914227
                    else:
                        var22 = -0.09516318
                else:
                    if input[1] < 0.6368554:
                        var22 = 0.037182815
                    else:
                        var22 = -0.019415779
            else:
                if input[4] < 190.41025:
                    if input[2] < 0.6721373:
                        var22 = 0.016182823
                    else:
                        var22 = -0.032770045
                else:
                    if input[1] < 0.68216205:
                        var22 = -0.029612735
                    else:
                        var22 = -0.09539911
    else:
        if input[1] < 0.2445198:
            if input[2] < 0.8028013:
                if input[4] < 251.9202:
                    if input[3] < 0.9710055:
                        var22 = 0.023342017
                    else:
                        var22 = -0.11344623
                else:
                    var22 = -0.10655651
            else:
                if input[0] < 23.259222:
                    var22 = 0.059195366
                else:
                    var22 = -0.11673309
        else:
            if input[4] < 5.012241:
                if input[2] < 0.11295812:
                    var22 = 0.14826228
                else:
                    var22 = -0.09766807
            else:
                if input[4] < 297.26788:
                    if input[1] < 0.50322884:
                        var22 = -0.06875182
                    else:
                        var22 = -0.10370872
                else:
                    var22 = 0.09163274
    if input[3] < 0.27338958:
        if input[1] < 0.12016242:
            if input[0] < 36.971264:
                if input[0] < 22.86687:
                    if input[1] < 0.039388392:
                        var23 = 0.06416454
                    else:
                        var23 = -0.0365085
                else:
                    var23 = 0.09918507
            else:
                if input[0] < 39.85697:
                    if input[1] < 0.084670074:
                        var23 = -0.086431846
                    else:
                        var23 = 0.028126782
                else:
                    if input[4] < 153.00742:
                        var23 = 0.092556156
                    else:
                        var23 = 0.042453308
        else:
            if input[4] < 195.50415:
                if input[1] < 0.83198017:
                    if input[2] < 0.42558122:
                        var23 = 0.058237445
                    else:
                        var23 = 0.020030096
                else:
                    if input[2] < 0.47389856:
                        var23 = 0.0027934168
                    else:
                        var23 = -0.06948631
            else:
                if input[3] < 0.10112042:
                    if input[0] < 54.904835:
                        var23 = 0.036885556
                    else:
                        var23 = -0.03404806
                else:
                    if input[2] < 0.6854184:
                        var23 = -0.021878948
                    else:
                        var23 = -0.09621679
    else:
        if input[1] < 0.72928137:
            if input[4] < 133.52977:
                if input[2] < 0.07254704:
                    if input[1] < 0.6122383:
                        var23 = 0.082208835
                    else:
                        var23 = -0.07023815
                else:
                    if input[1] < 0.09763632:
                        var23 = 0.045061592
                    else:
                        var23 = -0.009334945
            else:
                if input[2] < 0.75615156:
                    if input[1] < 0.084670074:
                        var23 = 0.029545844
                    else:
                        var23 = -0.028506115
                else:
                    if input[0] < 21.417189:
                        var23 = 0.06723566
                    else:
                        var23 = -0.08343043
        else:
            if input[3] < 0.40525207:
                if input[2] < 0.55812216:
                    if input[2] < 0.54813135:
                        var23 = -0.023365391
                    else:
                        var23 = 0.20742178
                else:
                    var23 = -0.10902684
            else:
                if input[0] < 20.37535:
                    if input[2] < 0.03671131:
                        var23 = 0.11997377
                    else:
                        var23 = -0.059283424
                else:
                    if input[0] < 57.4304:
                        var23 = -0.10877134
                    else:
                        var23 = -0.07818968
    if input[3] < 0.7241321:
        if input[1] < 0.35110492:
            if input[0] < 53.666416:
                if input[3] < 0.1692348:
                    if input[1] < 0.12016242:
                        var24 = 0.0943607
                    else:
                        var24 = 0.0550474
                else:
                    if input[1] < 0.084670074:
                        var24 = 0.057628352
                    else:
                        var24 = 0.0171912
            else:
                if input[2] < 0.72568464:
                    if input[4] < 147.52568:
                        var24 = 0.045149356
                    else:
                        var24 = -0.012353582
                else:
                    if input[3] < 0.12966913:
                        var24 = 0.0319932
                    else:
                        var24 = -0.10075506
        else:
            if input[2] < 0.13704354:
                if input[1] < 0.76939255:
                    if input[4] < 217.00482:
                        var24 = 0.059271913
                    else:
                        var24 = -0.0029722303
                else:
                    if input[0] < 23.259222:
                        var24 = 0.10170481
                    else:
                        var24 = -0.044158835
            else:
                if input[3] < 0.26457104:
                    if input[4] < 67.24223:
                        var24 = 0.035784256
                    else:
                        var24 = -0.013935626
                else:
                    if input[4] < 130.79152:
                        var24 = -0.022249404
                    else:
                        var24 = -0.06764536
    else:
        if input[1] < 0.2445198:
            if input[2] < 0.8410441:
                if input[4] < 236.86566:
                    if input[3] < 0.9710055:
                        var24 = 0.02011102
                    else:
                        var24 = -0.11061213
                else:
                    if input[1] < 0.0028590206:
                        var24 = 0.06333777
                    else:
                        var24 = -0.108394794
            else:
                var24 = -0.11085855
        else:
            if input[4] < 298.40488:
                if input[4] < 5.012241:
                    if input[2] < 0.11295812:
                        var24 = 0.13708328
                    else:
                        var24 = -0.093912564
                else:
                    if input[0] < 69.63259:
                        var24 = -0.087439895
                    else:
                        var24 = 0.030396229
            else:
                var24 = 0.13404642
    if input[3] < 0.66909105:
        if input[1] < 0.4148107:
            if input[3] < 0.10450755:
                if input[2] < 0.65586734:
                    if input[4] < 280.26212:
                        var25 = 0.081106246
                    else:
                        var25 = -0.007850725
                else:
                    if input[1] < 0.23183468:
                        var25 = 0.064176574
                    else:
                        var25 = -0.004158735
            else:
                if input[4] < 187.54044:
                    if input[2] < 0.6267924:
                        var25 = 0.043997154
                    else:
                        var25 = 0.004494935
                else:
                    if input[0] < 52.912014:
                        var25 = 0.0050762803
                    else:
                        var25 = -0.042382248
        else:
            if input[2] < 0.12860027:
                if input[4] < 217.00482:
                    if input[1] < 0.76939255:
                        var25 = 0.059961494
                    else:
                        var25 = -0.0017913294
                else:
                    if input[0] < 47.80933:
                        var25 = 0.014190949
                    else:
                        var25 = -0.098006666
            else:
                if input[3] < 0.17872871:
                    if input[1] < 0.6707229:
                        var25 = 0.018826583
                    else:
                        var25 = -0.016011667
                else:
                    if input[3] < 0.20157163:
                        var25 = -0.12820284
                    else:
                        var25 = -0.029615646
    else:
        if input[2] < 0.3322365:
            if input[1] < 0.6969705:
                if input[3] < 0.8816506:
                    if input[0] < 25.774504:
                        var25 = -0.09687834
                    else:
                        var25 = 0.03748087
                else:
                    if input[1] < 0.23612848:
                        var25 = 0.007487502
                    else:
                        var25 = -0.095280446
            else:
                var25 = -0.10267096
        else:
            if input[4] < 39.400196:
                if input[0] < 41.544247:
                    if input[0] < 37.996635:
                        var25 = -0.0059789834
                    else:
                        var25 = 0.14199236
                else:
                    if input[1] < 0.09464391:
                        var25 = 0.03681086
                    else:
                        var25 = -0.09680521
            else:
                if input[1] < 0.17865273:
                    if input[0] < 39.13553:
                        var25 = 0.0037592445
                    else:
                        var25 = -0.072652355
                else:
                    var25 = -0.10735269
    if input[3] < 0.45750505:
        if input[1] < 0.28128594:
            if input[2] < 0.21906047:
                if input[2] < 0.109383754:
                    if input[1] < 0.26698747:
                        var26 = 0.10243821
                    else:
                        var26 = 0.02034398
                else:
                    if input[3] < 0.39442134:
                        var26 = 0.08129999
                    else:
                        var26 = -0.076816544
            else:
                if input[4] < 178.62672:
                    if input[3] < 0.21597447:
                        var26 = 0.06876021
                    else:
                        var26 = 0.029033054
                else:
                    if input[1] < 0.058968477:
                        var26 = 0.058358278
                    else:
                        var26 = -0.013651982
        else:
            if input[4] < 67.24223:
                if input[2] < 0.8932383:
                    if input[1] < 0.59316355:
                        var26 = 0.059309896
                    else:
                        var26 = 0.0168759
                else:
                    if input[3] < 0.10450755:
                        var26 = 0.024880942
                    else:
                        var26 = -0.114114724
            else:
                if input[0] < 62.526684:
                    if input[3] < 0.13650969:
                        var26 = 0.017638844
                    else:
                        var26 = -0.018863795
                else:
                    if input[3] < 0.28861523:
                        var26 = -0.044448283
                    else:
                        var26 = -0.12512626
    else:
        if input[1] < 0.72928137:
            if input[2] < 0.45448095:
                if input[4] < 14.988666:
                    if input[3] < 0.9195156:
                        var26 = 0.09034195
                    else:
                        var26 = -0.038925804
                else:
                    if input[3] < 0.8816506:
                        var26 = 0.0031765338
                    else:
                        var26 = -0.062404722
            else:
                if input[1] < 0.12539922:
                    if input[3] < 0.66909105:
                        var26 = 0.030696591
                    else:
                        var26 = -0.040352114
                else:
                    if input[4] < 88.3531:
                        var26 = -0.018798953
                    else:
                        var26 = -0.082992785
        else:
            if input[0] < 20.37535:
                var26 = 0.046103053
            else:
                if input[4] < 51.6024:
                    if input[4] < 49.45041:
                        var26 = -0.08347629
                    else:
                        var26 = 0.119341806
                else:
                    var26 = -0.105320804
    if input[3] < 0.52973264:
        if input[1] < 0.10832863:
            if input[2] < 0.33572432:
                if input[0] < 59.584408:
                    if input[0] < 25.415405:
                        var27 = 0.035958227
                    else:
                        var27 = 0.096682295
                else:
                    if input[3] < 0.26457104:
                        var27 = 0.061137464
                    else:
                        var27 = -0.06252322
            else:
                if input[0] < 36.971264:
                    if input[4] < 256.8557:
                        var27 = 0.083341174
                    else:
                        var27 = 0.0009786169
                else:
                    if input[1] < 0.05226415:
                        var27 = 0.04785499
                    else:
                        var27 = -0.029990075
        else:
            if input[0] < 46.30303:
                if input[1] < 0.75009185:
                    if input[2] < 0.43842584:
                        var27 = 0.044901993
                    else:
                        var27 = 0.007368069
                else:
                    if input[3] < 0.37817907:
                        var27 = -0.01226112
                    else:
                        var27 = -0.10625636
            else:
                if input[3] < 0.10112042:
                    if input[4] < 241.985:
                        var27 = 0.033166435
                    else:
                        var27 = -0.05974549
                else:
                    if input[2] < 0.7992512:
                        var27 = -0.01720676
                    else:
                        var27 = -0.070464835
    else:
        if input[1] < 0.50723326:
            if input[2] < 0.8410441:
                if input[4] < 275.8747:
                    if input[3] < 0.9710055:
                        var27 = 0.005421053
                    else:
                        var27 = -0.108348146
                else:
                    if input[1] < 0.013292678:
                        var27 = 0.024967117
                    else:
                        var27 = -0.11964376
            else:
                if input[1] < 0.17865273:
                    if input[3] < 0.7198188:
                        var27 = 0.003800593
                    else:
                        var27 = -0.10773616
                else:
                    var27 = -0.110279344
        else:
            if input[2] < 0.1459983:
                if input[2] < 0.1200443:
                    if input[4] < 7.974566:
                        var27 = 0.12139715
                    else:
                        var27 = -0.069950074
                else:
                    if input[0] < 55.624832:
                        var27 = -0.08707123
                    else:
                        var27 = 0.22229366
            else:
                if input[4] < 23.041777:
                    if input[0] < 39.85697:
                        var27 = 0.035558775
                    else:
                        var27 = -0.10305905
                else:
                    if input[3] < 0.6326816:
                        var27 = -0.07720593
                    else:
                        var27 = -0.10441052
    if input[1] < 0.76119953:
        if input[3] < 0.310928:
            if input[1] < 0.12016242:
                if input[2] < 0.49971816:
                    if input[4] < 263.28958:
                        var28 = 0.09119872
                    else:
                        var28 = 0.025779385
                else:
                    if input[4] < 98.5106:
                        var28 = 0.08207032
                    else:
                        var28 = 0.019175341
            else:
                if input[2] < 0.12860027:
                    if input[4] < 121.64136:
                        var28 = 0.09119715
                    else:
                        var28 = 0.035853848
                else:
                    if input[0] < 27.779778:
                        var28 = 0.043639597
                    else:
                        var28 = 0.0018751555
        else:
            if input[0] < 38.18985:
                if input[4] < 243.28845:
                    if input[3] < 0.5769935:
                        var28 = 0.04393391
                    else:
                        var28 = -0.007110881
                else:
                    if input[3] < 0.51011163:
                        var28 = -0.0134341335
                    else:
                        var28 = -0.089530185
            else:
                if input[1] < 0.05226415:
                    if input[2] < 0.73690945:
                        var28 = 0.04922543
                    else:
                        var28 = -0.04392921
                else:
                    if input[2] < 0.20104669:
                        var28 = 0.0002438491
                    else:
                        var28 = -0.04020908
    else:
        if input[3] < 0.39074987:
            if input[4] < 53.78417:
                if input[2] < 0.8890527:
                    if input[0] < 54.656902:
                        var28 = 0.014512603
                    else:
                        var28 = 0.098065235
                else:
                    var28 = -0.09986526
            else:
                if input[3] < 0.10450755:
                    if input[0] < 55.805:
                        var28 = 0.02312311
                    else:
                        var28 = -0.09934723
                else:
                    if input[2] < 0.55812216:
                        var28 = -0.037942942
                    else:
                        var28 = -0.11239636
        else:
            if input[0] < 20.37535:
                var28 = 0.04898709
            else:
                var28 = -0.10031372
    if input[3] < 0.73895454:
        if input[1] < 0.76119953:
            if input[2] < 0.5446194:
                if input[4] < 241.985:
                    if input[0] < 40.53106:
                        var29 = 0.045806896
                    else:
                        var29 = 0.012313269
                else:
                    if input[1] < 0.026881684:
                        var29 = 0.09153923
                    else:
                        var29 = -0.022448612
            else:
                if input[0] < 27.779778:
                    if input[4] < 98.5106:
                        var29 = 0.06572741
                    else:
                        var29 = 0.003086142
                else:
                    if input[4] < 296.04068:
                        var29 = -0.017613297
                    else:
                        var29 = 0.087690786
        else:
            if input[3] < 0.39074987:
                if input[4] < 53.78417:
                    if input[2] < 0.8890527:
                        var29 = 0.03855638
                    else:
                        var29 = -0.09624072
                else:
                    if input[3] < 0.11484444:
                        var29 = -0.005436027
                    else:
                        var29 = -0.0625896
            else:
                if input[0] < 20.37535:
                    var29 = 0.08545492
                else:
                    if input[0] < 57.4304:
                        var29 = -0.104874395
                    else:
                        var29 = -0.06481293
    else:
        if input[1] < 0.2445198:
            if input[4] < 236.86566:
                if input[2] < 0.8410441:
                    if input[3] < 0.9710055:
                        var29 = 0.018093802
                    else:
                        var29 = -0.10212251
                else:
                    var29 = -0.099567324
            else:
                var29 = -0.10314804
        else:
            if input[4] < 298.40488:
                if input[4] < 5.012241:
                    if input[2] < 0.11295812:
                        var29 = 0.11667589
                    else:
                        var29 = -0.07961976
                else:
                    if input[1] < 0.50322884:
                        var29 = -0.054458905
                    else:
                        var29 = -0.09594134
            else:
                var29 = 0.12899363
    if input[3] < 0.27338958:
        if input[1] < 0.12016242:
            if input[2] < 0.42558122:
                if input[4] < 263.28958:
                    var30 = 0.09488671
                else:
                    if input[0] < 52.765343:
                        var30 = 0.0675142
                    else:
                        var30 = -0.089478664
            else:
                if input[1] < 0.061939:
                    if input[3] < 0.25379598:
                        var30 = 0.077354245
                    else:
                        var30 = -0.035250828
                else:
                    if input[4] < 95.41505:
                        var30 = 0.082781196
                    else:
                        var30 = -0.010315446
        else:
            if input[2] < 0.80998176:
                if input[4] < 202.13004:
                    if input[1] < 0.51042634:
                        var30 = 0.04599873
                    else:
                        var30 = 0.011310226
                else:
                    if input[4] < 204.75867:
                        var30 = -0.15428251
                    else:
                        var30 = -0.0036381371
            else:
                if input[4] < 38.13741:
                    if input[4] < 25.015205:
                        var30 = -0.0379788
                    else:
                        var30 = 0.0866068
                else:
                    if input[3] < 0.040201865:
                        var30 = 0.026559526
                    else:
                        var30 = -0.062126327
    else:
        if input[1] < 0.72928137:
            if input[4] < 133.52977:
                if input[2] < 0.07254704:
                    if input[1] < 0.6122383:
                        var30 = 0.0689257
                    else:
                        var30 = -0.0748836
                else:
                    if input[1] < 0.7079324:
                        var30 = -0.00064610323
                    else:
                        var30 = 0.114090286
            else:
                if input[2] < 0.75615156:
                    if input[3] < 0.8784193:
                        var30 = -0.010356551
                    else:
                        var30 = -0.084459424
                else:
                    if input[0] < 50.812866:
                        var30 = -0.037159305
                    else:
                        var30 = -0.121240154
        else:
            if input[3] < 0.40525207:
                if input[2] < 0.55812216:
                    if input[2] < 0.54813135:
                        var30 = -0.012645525
